<?xml version="1.0"?>
<opencv_storage>
<cascade>
  <stageType>BOOST</stageType>
  <featureType>HAAR</featureType>
  <height>20</height>
  <width>20</width>
  <stageParams>
    <boostType>GAB</boostType>
    <minHitRate>9.9500000476837158e-01</minHitRate>
    <maxFalseAlarm>5.0000000000000000e-01</maxFalseAlarm>
    <weightTrimRate>9.4999999999999996e-01</weightTrimRate>
    <maxDepth>1</maxDepth>
    <maxWeakCount>100</maxWeakCount></stageParams>
  <featureParams>
    <maxCatCount>0</maxCatCount>
    <featSize>1</featSize>
    <mode>BASIC</mode></featureParams>
  <stageNum>40</stageNum>
  <stages>
    <!-- stage 0 -->
    <_>
      <maxWeakCount>5</maxWeakCount>
      <stageThreshold>-1.2179508209228516e+00</stageThreshold>
      <weakClassifiers>
        <_>
          <internalNodes>
            0 -1 562 4.6357348561286926e-02</internalNodes>
          <leafValues>
            -5.0962513685226440e-01 8.1903094053268433e-01</leafValues></_>
        <_>
          <internalNodes>
            0 -1 1047 1.9418694078922272e-02</internalNodes>
          <leafValues>
            -5.3401482105255127e-01 5.4408222436904907e-01</leafValues></_>
        <_>
          <internalNodes>
            0 -1 1120 7.8878542408347130e-03</internalNodes>
          <leafValues>
            -5.0329804420471191e-01 3.7890487909317017e-01</leafValues></_>
        <_>
          <internalNodes>
            0 -1 1077 9.7107831388711929e-03</internalNodes>
          <leafValues>
            -3.3651188015937805e-01 3.3553439378738403e-01</leafValues></_>
        <_>
          <internalNodes>
            0 -1 1021 -2.8722479939460754e-02</internalNodes>
          <leafValues>
            5.1926326751708984e-01 -2.1670393645763397e-01</leafValues></_></weakClassifiers></_>
    <!-- stage 1 -->
    <_>
      <maxWeakCount>14</maxWeakCount>
      <stageThreshold>-9.8116636276245117e-01</stageThreshold>
      <weakClassifiers>
        <_>
          <internalNodes>
            0 -1 561 5.3547553718090057e-02</internalNodes>
          <leafValues>
            -3.7791287899017334e-01 7.4314069747924805e-01</leafValues></_>
        <_>
          <internalNodes>
            0 -1 1276 9.5642944797873497e-03</internalNodes>
          <leafValues>
            -3.1777346134185791e-01 4.9981817603111267e-01</leafValues></_>
        <_>
          <internalNodes>
            0 -1 1552 -7.5589651241898537e-03</internalNodes>
          <leafValues>
            4.4201219081878662e-01 -3.6483362317085266e-01</leafValues></_>
        <_>
          <internalNodes>
            0 -1 1120 9.2792762443423271e-03</internalNodes>
          <leafValues>
            -4.2639693617820740e-01 2.8722223639488220e-01</leafValues></_>
        <_>
          <internalNodes>
            0 -1 340 1.2793943285942078e-02</internalNodes>
          <leafValues>
            -2.3526310920715332e-01 3.9962965250015259e-01</leafValues></_>
        <_>
          <internalNodes>
            0 -1 821 -4.0507420897483826e-02</internalNodes>
          <leafValues>
            5.4147511720657349e-01 -1.7920187115669250e-01</leafValues></_>
        <_>
          <internalNodes>
            0 -1 1820 -1.1258210986852646e-02</internalNodes>
          <leafValues>
            2.9792949557304382e-01 -2.8687322139739990e-01</leafValues></_>
        <_>
          <internalNodes>
            0 -1 1451 -3.6281771957874298e-02</internalNodes>
          <leafValues>
            -7.6786112785339355e-01 9.1486498713493347e-02</leafValues></_>
        <_>
          <internalNodes>
            0 -1 935 4.5199587941169739e-02</internalNodes>
          <leafValues>
            8.6104266345500946e-02 -8.4391486644744873e-01</leafValues></_>
        <_>
          <internalNodes>
            0 -1 1761 3.3839512616395950e-03</internalNodes>
          <leafValues>
            -1.7308261990547180e-01 4.6311298012733459e-01</leafValues></_>
        <_>
          <internalNodes>
            0 -1 723 -3.0504208989441395e-03</internalNodes>
          <leafValues>
            5.6227958202362061e-01 -1.1808183789253235e-01</leafValues></_>
        <_>
          <internalNodes>
            0 -1 1371 3.8336031138896942e-03</internalNodes>
          <leafValues>
            -9.5947675406932831e-02 6.2047779560089111e-01</leafValues></_>
        <_>
          <internalNodes>
            0 -1 1270 -6.4351274631917477e-03</internalNodes>
          <leafValues>
            6.2383753061294556e-01 -9.3620590865612030e-02</leafValues></_>
        <_>
          <internalNodes>
            0 -1 861 -8.9346729218959808e-03</internalNodes>
          <leafValues>
            -3.9104902744293213e-01 1.6171874105930328e-01</leafValues></_></weakClassifiers></_>
    <!-- stage 2 -->
    <_>
      <maxWeakCount>23</maxWeakCount>
      <stageThreshold>-9.8199635744094849e-01</stageThreshold>
      <weakClassifiers>
        <_>
          <internalNodes>
            0 -1 560 4.0767796337604523e-02</internalNodes>
          <leafValues>
            -2.7966102957725525e-01 6.6287016868591309e-01</leafValues></_>
        <_>
          <internalNodes>
            0 -1 1380 -6.9037387147545815e-03</internalNodes>
          <leafValues>
            3.7250033020973206e-01 -3.5977119207382202e-01</leafValues></_>
        <_>
          <internalNodes>
            0 -1 330 3.1161857768893242e-02</internalNodes>
          <leafValues>
            -2.7311620116233826e-01 3.7673500180244446e-01</leafValues></_>
        <_>
          <internalNodes>
            0 -1 1077 1.7931457608938217e-02</internalNodes>
          <leafValues>
            -2.5431162118911743e-01 3.1928706169128418e-01</leafValues></_>
        <_>
          <internalNodes>
            0 -1 1124 1.3570301234722137e-02</internalNodes>
          <leafValues>
            -3.8574159145355225e-01 2.1053467690944672e-01</leafValues></_>
        <_>
          <internalNodes>
            0 -1 843 -3.3908352255821228e-02</internalNodes>
          <leafValues>
            7.2409582138061523e-01 -1.3141202926635742e-01</leafValues></_>
        <_>
          <internalNodes>
            0 -1 1257 2.4490971118211746e-02</internalNodes>
          <leafValues>
            -7.2746746242046356e-02 5.6973123550415039e-01</leafValues></_>
        <_>
          <internalNodes>
            0 -1 1168 -2.2592097520828247e-03</internalNodes>
          <leafValues>
            1.5065751969814301e-01 -3.8878962397575378e-01</leafValues></_>
        <_>
          <internalNodes>
            0 -1 2044 -2.8397371061146259e-03</internalNodes>
          <leafValues>
            5.4975771903991699e-01 -1.4548817276954651e-01</leafValues></_>
        <_>
          <internalNodes>
            0 -1 765 1.3249523472040892e-03</internalNodes>
          <leafValues>
            -1.2155389785766602e-01 3.7952494621276855e-01</leafValues></_>
        <_>
          <internalNodes>
            0 -1 1938 -6.6927028819918633e-03</internalNodes>
          <leafValues>
            2.4779798090457916e-01 -2.1996794641017914e-01</leafValues></_>
        <_>
          <internalNodes>
            0 -1 1625 9.9326018244028091e-03</internalNodes>
          <leafValues>
            -1.5939316153526306e-01 4.4114401936531067e-01</leafValues></_>
        <_>
          <internalNodes>
            0 -1 923 -1.8800892867147923e-03</internalNodes>
          <leafValues>
            4.5068657398223877e-01 -1.0836223512887955e-01</leafValues></_>
        <_>
          <internalNodes>
            0 -1 1169 -1.7529277829453349e-03</internalNodes>
          <leafValues>
            2.6130148768424988e-01 -2.0528855919837952e-01</leafValues></_>
        <_>
          <internalNodes>
            0 -1 889 -1.2591630220413208e-02</internalNodes>
          <leafValues>
            -3.8628509640693665e-01 1.4068992435932159e-01</leafValues></_>
        <_>
          <internalNodes>
            0 -1 2221 1.5633830334991217e-03</internalNodes>
          <leafValues>
            8.1995181739330292e-02 -5.4737144708633423e-01</leafValues></_>
        <_>
          <internalNodes>
            0 -1 744 2.6351518463343382e-03</internalNodes>
          <leafValues>
            -1.1075630038976669e-01 5.0028181076049805e-01</leafValues></_>
        <_>
          <internalNodes>
            0 -1 2280 -1.8861987628042698e-03</internalNodes>
          <leafValues>
            -5.4103982448577881e-01 1.0721111297607422e-01</leafValues></_>
        <_>
          <internalNodes>
            0 -1 1836 4.2739473283290863e-03</internalNodes>
          <leafValues>
            -1.4155396819114685e-01 3.8940083980560303e-01</leafValues></_>
        <_>
          <internalNodes>
            0 -1 1643 -3.2852182630449533e-03</internalNodes>
          <leafValues>
            2.7998232841491699e-01 -1.8220198154449463e-01</leafValues></_>
        <_>
          <internalNodes>
            0 -1 1475 -7.7104093506932259e-03</internalNodes>
          <leafValues>
            5.8481562137603760e-01 -8.8104508817195892e-02</leafValues></_>
        <_>
          <internalNodes>
            0 -1 405 2.4427883327007294e-02</internalNodes>
          <leafValues>
            -8.8590927422046661e-02 5.5622786283493042e-01</leafValues></_>
        <_>
          <internalNodes>
            0 -1 402 5.1236678846180439e-03</internalNodes>
          <leafValues>
            8.0434814095497131e-02 -7.6684451103210449e-01</leafValues></_></weakClassifiers></_>
    <!-- stage 3 -->
    <_>
      <maxWeakCount>31</maxWeakCount>
      <stageThreshold>-9.4851756095886230e-01</stageThreshold>
      <weakClassifiers>
        <_>
          <internalNodes>
            0 -1 1465 -1.1692536994814873e-02</internalNodes>
          <leafValues>
            5.2454280853271484e-01 -3.0546623468399048e-01</leafValues></_>
        <_>
          <internalNodes>
            0 -1 202 2.1854791045188904e-01</internalNodes>
          <leafValues>
            -1.5901008248329163e-01 5.4484176635742188e-01</leafValues></_>
        <_>
          <internalNodes>
            0 -1 1273 6.9324178621172905e-03</internalNodes>
          <leafValues>
            -3.2695314288139343e-01 2.3236186802387238e-01</leafValues></_>
        <_>
          <internalNodes>
            0 -1 1828 3.0000824481248856e-03</internalNodes>
          <leafValues>
            -1.9919878244400024e-01 3.6958962678909302e-01</leafValues></_>
        <_>
          <internalNodes>
            0 -1 962 -2.0472433418035507e-02</internalNodes>
          <leafValues>
            1.9617497920989990e-01 -3.4921061992645264e-01</leafValues></_>
        <_>
          <internalNodes>
            0 -1 707 4.4365599751472473e-03</internalNodes>
          <leafValues>
            -4.9807301163673401e-01 1.1695991456508636e-01</leafValues></_>
        <_>
          <internalNodes>
            0 -1 807 -7.2467923164367676e-02</internalNodes>
          <leafValues>
            4.3677353858947754e-01 -1.3123714923858643e-01</leafValues></_>
        <_>
          <internalNodes>
            0 -1 668 4.7727674245834351e-02</internalNodes>
          <leafValues>
            1.0727494210004807e-01 -4.8392385244369507e-01</leafValues></_>
        <_>
          <internalNodes>
            0 -1 1841 2.0727191586047411e-03</internalNodes>
          <leafValues>
            -1.4458967745304108e-01 3.5062053799629211e-01</leafValues></_>
        <_>
          <internalNodes>
            0 -1 1543 1.9263324793428183e-03</internalNodes>
          <leafValues>
            -1.4757807552814484e-01 2.9871690273284912e-01</leafValues></_>
        <_>
          <internalNodes>
            0 -1 1386 -6.6910060122609138e-03</internalNodes>
          <leafValues>
            6.3603198528289795e-01 -8.4077417850494385e-02</leafValues></_>
        <_>
          <internalNodes>
            0 -1 1378 -1.3883204665035009e-03</internalNodes>
          <leafValues>
            3.3355203270912170e-01 -1.2353128939867020e-01</leafValues></_>
        <_>
          <internalNodes>
            0 -1 1431 1.5433648601174355e-02</internalNodes>
          <leafValues>
            -9.8921455442905426e-02 3.9607158303260803e-01</leafValues></_>
        <_>
          <internalNodes>
            0 -1 313 -2.5420736521482468e-02</internalNodes>
          <leafValues>
            7.4113643169403076e-01 -6.4058989286422729e-02</leafValues></_>
        <_>
          <internalNodes>
            0 -1 1518 1.3284518383443356e-02</internalNodes>
          <leafValues>
            7.5402230024337769e-02 -7.0091450214385986e-01</leafValues></_>
        <_>
          <internalNodes>
            0 -1 2018 -1.3311542570590973e-02</internalNodes>
          <leafValues>
            -4.0910804271697998e-01 9.5941312611103058e-02</leafValues></_>
        <_>
          <internalNodes>
            0 -1 1087 -1.9861080218106508e-03</internalNodes>
          <leafValues>
            4.2135193943977356e-01 -9.9110536277294159e-02</leafValues></_>
        <_>
          <internalNodes>
            0 -1 37 1.9923672080039978e-03</internalNodes>
          <leafValues>
            9.1690033674240112e-02 -4.8791822791099548e-01</leafValues></_>
        <_>
          <internalNodes>
            0 -1 969 1.1257863370701671e-03</internalNodes>
          <leafValues>
            -1.4831361174583435e-01 2.8627216815948486e-01</leafValues></_>
        <_>
          <internalNodes>
            0 -1 1307 6.2556611374020576e-03</internalNodes>
          <leafValues>
            -1.5317763388156891e-01 2.6102718710899353e-01</leafValues></_>
        <_>
          <internalNodes>
            0 -1 1571 -5.0832908600568771e-03</internalNodes>
          <leafValues>
            4.6196508407592773e-01 -1.0245257616043091e-01</leafValues></_>
        <_>
          <internalNodes>
            0 -1 1042 4.3603137601166964e-04</internalNodes>
          <leafValues>
            -3.4461861848831177e-01 1.2050361186265945e-01</leafValues></_>
        <_>
          <internalNodes>
            0 -1 530 -8.5793845355510712e-03</internalNodes>
          <leafValues>
            -4.1013872623443604e-01 8.8285572826862335e-02</leafValues></_>
        <_>
          <internalNodes>
            0 -1 1761 1.4066182775422931e-03</internalNodes>
          <leafValues>
            -1.5008264780044556e-01 2.5487753748893738e-01</leafValues></_>
        <_>
          <internalNodes>
            0 -1 1627 -1.7542628571391106e-02</internalNodes>
          <leafValues>
            -4.6134024858474731e-01 9.9440954625606537e-02</leafValues></_>
        <_>
          <internalNodes>
            0 -1 1173 3.1840973533689976e-03</internalNodes>
          <leafValues>
            -1.2258616089820862e-01 3.6874574422836304e-01</leafValues></_>
        <_>
          <internalNodes>
            0 -1 2218 -1.8146331422030926e-03</internalNodes>
          <leafValues>
            -5.1561927795410156e-01 8.9046560227870941e-02</leafValues></_>
        <_>
          <internalNodes>
            0 -1 963 -1.3935497961938381e-02</internalNodes>
          <leafValues>
            -6.4080578088760376e-01 6.2688209116458893e-02</leafValues></_>
        <_>
          <internalNodes>
            0 -1 735 1.9940000027418137e-02</internalNodes>
          <leafValues>
            -2.5774747133255005e-01 1.5626664459705353e-01</leafValues></_>
        <_>
          <internalNodes>
            0 -1 1320 -1.4779373304918408e-03</internalNodes>
          <leafValues>
            3.1487545371055603e-01 -1.4414051175117493e-01</leafValues></_>
        <_>
          <internalNodes>
            0 -1 1261 -1.9505717791616917e-03</internalNodes>
          <leafValues>
            4.5078194141387939e-01 -8.8076084852218628e-02</leafValues></_></weakClassifiers></_>
    <!-- stage 4 -->
    <_>
      <maxWeakCount>36</maxWeakCount>
      <stageThreshold>-7.7740049362182617e-01</stageThreshold>
      <weakClassifiers>
        <_>
          <internalNodes>
            0 -1 314 1.0150648653507233e-01</internalNodes>
          <leafValues>
            -6.0020346194505692e-02 5.5853229761123657e-01</leafValues></_>
        <_>
          <internalNodes>
            0 -1 1336 -5.0662644207477570e-04</internalNodes>
          <leafValues>
            1.5745039284229279e-01 -6.1729371547698975e-01</leafValues></_>
        <_>
          <internalNodes>
            0 -1 1277 1.5310801565647125e-02</internalNodes>
          <leafValues>
            -2.4193169176578522e-01 2.6627123355865479e-01</leafValues></_>
        <_>
          <internalNodes>
            0 -1 2025 4.7061415389180183e-03</internalNodes>
          <leafValues>
            -1.7565064132213593e-01 3.1658968329429626e-01</leafValues></_>
        <_>
          <internalNodes>
            0 -1 816 -1.8597859144210815e-01</internalNodes>
          <leafValues>
            6.1073154211044312e-01 -1.0956807434558868e-01</leafValues></_>
        <_>
          <internalNodes>
            0 -1 845 1.2219400703907013e-01</internalNodes>
          <leafValues>
            -1.8193408846855164e-01 3.2538527250289917e-01</leafValues></_>
        <_>
          <internalNodes>
            0 -1 1353 6.6435355693101883e-03</internalNodes>
          <leafValues>
            5.6572675704956055e-02 -5.5778586864471436e-01</leafValues></_>
        <_>
          <internalNodes>
            0 -1 1126 8.4718186408281326e-03</internalNodes>
          <leafValues>
            -3.2456278800964355e-01 1.4384590089321136e-01</leafValues></_>
        <_>
          <internalNodes>
            0 -1 447 7.1857245638966560e-03</internalNodes>
          <leafValues>
            -1.7714415490627289e-01 2.6152610778808594e-01</leafValues></_>
        <_>
          <internalNodes>
            0 -1 213 -7.8001795336604118e-03</internalNodes>
          <leafValues>
            4.2114329338073730e-01 -1.2436500936746597e-01</leafValues></_>
        <_>
          <internalNodes>
            0 -1 1257 1.7869964241981506e-02</internalNodes>
          <leafValues>
            -1.0019239038228989e-01 3.4826430678367615e-01</leafValues></_>
        <_>
          <internalNodes>
            0 -1 1079 -1.4083379879593849e-02</internalNodes>
          <leafValues>
            -4.9600890278816223e-01 9.8970502614974976e-02</leafValues></_>
        <_>
          <internalNodes>
            0 -1 1458 -6.5764663740992546e-03</internalNodes>
          <leafValues>
            4.2837423086166382e-01 -9.0358480811119080e-02</leafValues></_>
        <_>
          <internalNodes>
            0 -1 689 9.0095698833465576e-02</internalNodes>
          <leafValues>
            5.2847478538751602e-02 -8.9059317111968994e-01</leafValues></_>
        <_>
          <internalNodes>
            0 -1 167 -2.6082834228873253e-03</internalNodes>
          <leafValues>
            -6.0221326351165771e-01 5.1754906773567200e-02</leafValues></_>
        <_>
          <internalNodes>
            0 -1 684 -3.3613771200180054e-02</internalNodes>
          <leafValues>
            -5.3276336193084717e-01 6.4383253455162048e-02</leafValues></_>
        <_>
          <internalNodes>
            0 -1 685 3.8533873856067657e-02</internalNodes>
          <leafValues>
            7.7356152236461639e-02 -4.9766853451728821e-01</leafValues></_>
        <_>
          <internalNodes>
            0 -1 627 1.7932194750756025e-03</internalNodes>
          <leafValues>
            7.8411012887954712e-02 -4.6636554598808289e-01</leafValues></_>
        <_>
          <internalNodes>
            0 -1 664 1.7568774521350861e-02</internalNodes>
          <leafValues>
            -3.2841831445693970e-01 1.2081235647201538e-01</leafValues></_>
        <_>
          <internalNodes>
            0 -1 1006 9.5027573406696320e-02</internalNodes>
          <leafValues>
            6.4133666455745697e-02 -5.4007446765899658e-01</leafValues></_>
        <_>
          <internalNodes>
            0 -1 910 3.3714331686496735e-02</internalNodes>
          <leafValues>
            -2.6058876514434814e-01 1.4489756524562836e-01</leafValues></_>
        <_>
          <internalNodes>
            0 -1 2061 -8.6721219122409821e-03</internalNodes>
          <leafValues>
            -3.5181471705436707e-01 1.1109412461519241e-01</leafValues></_>
        <_>
          <internalNodes>
            0 -1 1943 1.8567749066278338e-03</internalNodes>
          <leafValues>
            -1.3780629634857178e-01 2.8871387243270874e-01</leafValues></_>
        <_>
          <internalNodes>
            0 -1 2043 6.1603880021721125e-04</internalNodes>
          <leafValues>
            -1.8578128516674042e-01 2.5671160221099854e-01</leafValues></_>
        <_>
          <internalNodes>
            0 -1 1825 2.9198266565799713e-03</internalNodes>
          <leafValues>
            -1.0837343335151672e-01 3.8295239210128784e-01</leafValues></_>
        <_>
          <internalNodes>
            0 -1 2280 2.0999191328883171e-03</internalNodes>
          <leafValues>
            7.8499026596546173e-02 -4.8643273115158081e-01</leafValues></_>
        <_>
          <internalNodes>
            0 -1 893 5.5933455005288124e-03</internalNodes>
          <leafValues>
            -9.3579903244972229e-02 3.9460927248001099e-01</leafValues></_>
        <_>
          <internalNodes>
            0 -1 1865 -6.6608702763915062e-03</internalNodes>
          <leafValues>
            -3.7032046914100647e-01 1.0223868489265442e-01</leafValues></_>
        <_>
          <internalNodes>
            0 -1 979 2.9512022156268358e-03</internalNodes>
          <leafValues>
            -1.0998833179473877e-01 3.1916943192481995e-01</leafValues></_>
        <_>
          <internalNodes>
            0 -1 171 -5.0928359851241112e-03</internalNodes>
          <leafValues>
            -8.4180092811584473e-01 4.2712852358818054e-02</leafValues></_>
        <_>
          <internalNodes>
            0 -1 1421 -1.4408318325877190e-02</internalNodes>
          <leafValues>
            5.5146366357803345e-01 -7.0353686809539795e-02</leafValues></_>
        <_>
          <internalNodes>
            0 -1 441 1.6998917562887073e-03</internalNodes>
          <leafValues>
            -8.7936289608478546e-02 3.8120850920677185e-01</leafValues></_>
        <_>
          <internalNodes>
            0 -1 1127 1.4731084927916527e-02</internalNodes>
          <leafValues>
            -9.2599399387836456e-02 3.7503185868263245e-01</leafValues></_>
        <_>
          <internalNodes>
            0 -1 70 -1.1599780991673470e-02</internalNodes>
          <leafValues>
            -5.6354272365570068e-01 7.0150338113307953e-02</leafValues></_>
        <_>
          <internalNodes>
            0 -1 1923 1.6980038490146399e-03</internalNodes>
          <leafValues>
            -1.2511350214481354e-01 2.8748878836631775e-01</leafValues></_>
        <_>
          <internalNodes>
            0 -1 1263 1.4521816046908498e-03</internalNodes>
          <leafValues>
            -1.3038419187068939e-01 2.6196625828742981e-01</leafValues></_></weakClassifiers></_>
    <!-- stage 5 -->
    <_>
      <maxWeakCount>48</maxWeakCount>
      <stageThreshold>-7.9827690124511719e-01</stageThreshold>
      <weakClassifiers>
        <_>
          <internalNodes>
            0 -1 202 1.6879054903984070e-01</internalNodes>
          <leafValues>
            6.5727695822715759e-02 5.7383966445922852e-01</leafValues></_>
        <_>
          <internalNodes>
            0 -1 1547 -5.7617258280515671e-03</internalNodes>
          <leafValues>
            2.3907443881034851e-01 -2.2445422410964966e-01</leafValues></_>
        <_>
          <internalNodes>
            0 -1 1074 1.5018369071185589e-02</internalNodes>
          <leafValues>
            -2.6513487100601196e-01 1.9805204868316650e-01</leafValues></_>
        <_>
          <internalNodes>
            0 -1 898 5.1615163683891296e-03</internalNodes>
          <leafValues>
            -1.3964146375656128e-01 2.5128597021102905e-01</leafValues></_>
        <_>
          <internalNodes>
            0 -1 557 -5.3499471396207809e-03</internalNodes>
          <leafValues>
            4.7681906819343567e-01 -1.3689073920249939e-01</leafValues></_>
        <_>
          <internalNodes>
            0 -1 1954 -1.2640660861507058e-03</internalNodes>
          <leafValues>
            3.2472962141036987e-01 -8.4405869245529175e-02</leafValues></_>
        <_>
          <internalNodes>
            0 -1 1761 2.4108092766255140e-03</internalNodes>
          <leafValues>
            -1.5539999306201935e-01 2.6192724704742432e-01</leafValues></_>
        <_>
          <internalNodes>
            0 -1 635 -9.5814362168312073e-02</internalNodes>
          <leafValues>
            4.0096914768218994e-01 -9.1826871037483215e-02</leafValues></_>
        <_>
          <internalNodes>
            0 -1 1041 1.9706258550286293e-02</internalNodes>
          <leafValues>
            -2.2334194183349609e-01 1.3704669475555420e-01</leafValues></_>
        <_>
          <internalNodes>
            0 -1 1085 -3.5236459225416183e-02</internalNodes>
          <leafValues>
            -6.2724298238754272e-01 5.1964674144983292e-02</leafValues></_>
        <_>
          <internalNodes>
            0 -1 967 -3.0784455593675375e-03</internalNodes>
          <leafValues>
            4.0173703432083130e-01 -8.0496087670326233e-02</leafValues></_>
        <_>
          <internalNodes>
            0 -1 1820 -1.7639476805925369e-02</internalNodes>
          <leafValues>
            1.8849621713161469e-01 -1.8445837497711182e-01</leafValues></_>
        <_>
          <internalNodes>
            0 -1 722 3.1813026871532202e-03</internalNodes>
          <leafValues>
            -7.7346853911876678e-02 4.0833437442779541e-01</leafValues></_>
        <_>
          <internalNodes>
            0 -1 333 9.6950475126504898e-03</internalNodes>
          <leafValues>
            7.9657442867755890e-02 -4.0311181545257568e-01</leafValues></_>
        <_>
          <internalNodes>
            0 -1 2270 3.0064620077610016e-03</internalNodes>
          <leafValues>
            1.0605138540267944e-01 -3.0799406766891479e-01</leafValues></_>
        <_>
          <internalNodes>
            0 -1 2021 2.3384678643196821e-03</internalNodes>
          <leafValues>
            -8.0874800682067871e-02 4.1535794734954834e-01</leafValues></_>
        <_>
          <internalNodes>
            0 -1 1323 -2.2379539441317320e-03</internalNodes>
          <leafValues>
            2.9544249176979065e-01 -1.0876397043466568e-01</leafValues></_>
        <_>
          <internalNodes>
            0 -1 1320 4.5768162235617638e-03</internalNodes>
          <leafValues>
            -1.2592944502830505e-01 2.5444751977920532e-01</leafValues></_>
        <_>
          <internalNodes>
            0 -1 865 1.1256226897239685e-01</internalNodes>
          <leafValues>
            5.2744552493095398e-02 -5.9142428636550903e-01</leafValues></_>
        <_>
          <internalNodes>
            0 -1 1032 2.3717598989605904e-02</internalNodes>
          <leafValues>
            -1.2822687625885010e-01 2.5508838891983032e-01</leafValues></_>
        <_>
          <internalNodes>
            0 -1 525 3.4019485116004944e-02</internalNodes>
          <leafValues>
            5.3758565336465836e-02 -6.5369594097137451e-01</leafValues></_>
        <_>
          <internalNodes>
            0 -1 1386 -3.4646894782781601e-03</internalNodes>
          <leafValues>
            3.1077691912651062e-01 -1.0955602675676346e-01</leafValues></_>
        <_>
          <internalNodes>
            0 -1 2291 1.1583594605326653e-03</internalNodes>
          <leafValues>
            8.5192143917083740e-02 -3.6050897836685181e-01</leafValues></_>
        <_>
          <internalNodes>
            0 -1 1061 1.2051165848970413e-01</internalNodes>
          <leafValues>
            3.4922711551189423e-02 -9.2682564258575439e-01</leafValues></_>
        <_>
          <internalNodes>
            0 -1 0 3.3691353164613247e-03</internalNodes>
          <leafValues>
            5.2509222179651260e-02 -4.9050682783126831e-01</leafValues></_>
        <_>
          <internalNodes>
            0 -1 1917 2.6763714849948883e-03</internalNodes>
          <leafValues>
            -7.4217967689037323e-02 4.8161631822586060e-01</leafValues></_>
        <_>
          <internalNodes>
            0 -1 1102 1.8431890755891800e-02</internalNodes>
          <leafValues>
            6.7356012761592865e-02 -4.5459812879562378e-01</leafValues></_>
        <_>
          <internalNodes>
            0 -1 2102 -1.4510197564959526e-02</internalNodes>
          <leafValues>
            -5.5211734771728516e-01 5.0525929778814316e-02</leafValues></_>
        <_>
          <internalNodes>
            0 -1 1562 5.1384107209742069e-03</internalNodes>
          <leafValues>
            -9.2280924320220947e-02 3.2683476805686951e-01</leafValues></_>
        <_>
          <internalNodes>
            0 -1 1801 -4.5409565791487694e-03</internalNodes>
          <leafValues>
            2.2128376364707947e-01 -1.3999973237514496e-01</leafValues></_>
        <_>
          <internalNodes>
            0 -1 2070 9.7620449960231781e-03</internalNodes>
          <leafValues>
            7.2558499872684479e-02 -4.4117113947868347e-01</leafValues></_>
        <_>
          <internalNodes>
            0 -1 1449 -6.0503683984279633e-02</internalNodes>
          <leafValues>
            -7.5755345821380615e-01 3.3343244343996048e-02</leafValues></_>
        <_>
          <internalNodes>
            0 -1 1972 -1.7711571417748928e-03</internalNodes>
          <leafValues>
            -4.2052289843559265e-01 6.8314447999000549e-02</leafValues></_>
        <_>
          <internalNodes>
            0 -1 1488 8.9227117132395506e-04</internalNodes>
          <leafValues>
            -1.5643897652626038e-01 1.8633894622325897e-01</leafValues></_>
        <_>
          <internalNodes>
            0 -1 1358 4.7480948269367218e-03</internalNodes>
          <leafValues>
            -9.9569194018840790e-02 3.1378009915351868e-01</leafValues></_>
        <_>
          <internalNodes>
            0 -1 1532 2.4676756002008915e-03</internalNodes>
          <leafValues>
            -1.1226776242256165e-01 2.8647580742835999e-01</leafValues></_>
        <_>
          <internalNodes>
            0 -1 2062 -1.0623128619045019e-03</internalNodes>
          <leafValues>
            -3.1904360651969910e-01 9.8803967237472534e-02</leafValues></_>
        <_>
          <internalNodes>
            0 -1 201 5.1024049520492554e-02</internalNodes>
          <leafValues>
            -6.9347687065601349e-02 4.2442947626113892e-01</leafValues></_>
        <_>
          <internalNodes>
            0 -1 1583 -3.6892954260110855e-02</internalNodes>
          <leafValues>
            4.8204028606414795e-01 -6.8478450179100037e-02</leafValues></_>
        <_>
          <internalNodes>
            0 -1 522 -4.5566987246274948e-03</internalNodes>
          <leafValues>
            -7.4256122112274170e-01 4.5447330921888351e-02</leafValues></_>
        <_>
          <internalNodes>
            0 -1 1172 3.7098322063684464e-03</internalNodes>
          <leafValues>
            -9.1221265494823456e-02 3.2906749844551086e-01</leafValues></_>
        <_>
          <internalNodes>
            0 -1 1119 1.7364921513944864e-03</internalNodes>
          <leafValues>
            -2.6570275425910950e-01 1.1120828241109848e-01</leafValues></_>
        <_>
          <internalNodes>
            0 -1 832 9.0065024793148041e-02</internalNodes>
          <leafValues>
            5.5719673633575439e-02 -5.9198081493377686e-01</leafValues></_>
        <_>
          <internalNodes>
            0 -1 335 4.5164404436945915e-03</internalNodes>
          <leafValues>
            9.6734665334224701e-02 -2.8125843405723572e-01</leafValues></_>
        <_>
          <internalNodes>
            0 -1 1786 9.8726502619683743e-04</internalNodes>
          <leafValues>
            -1.1838007718324661e-01 2.5745263695716858e-01</leafValues></_>
        <_>
          <internalNodes>
            0 -1 2180 9.2529160901904106e-03</internalNodes>
          <leafValues>
            3.9648164063692093e-02 -7.3247420787811279e-01</leafValues></_>
        <_>
          <internalNodes>
            0 -1 1716 2.7198684401810169e-03</internalNodes>
          <leafValues>
            -9.6842579543590546e-02 3.1330028176307678e-01</leafValues></_>
        <_>
          <internalNodes>
            0 -1 1682 -1.0521734133362770e-02</internalNodes>
          <leafValues>
            -5.7697492837905884e-01 5.2535876631736755e-02</leafValues></_></weakClassifiers></_>
    <!-- stage 6 -->
    <_>
      <maxWeakCount>50</maxWeakCount>
      <stageThreshold>-7.5235974788665771e-01</stageThreshold>
      <weakClassifiers>
        <_>
          <internalNodes>
            0 -1 322 3.4543149173259735e-02</internalNodes>
          <leafValues>
            3.6072146147489548e-02 5.0763809680938721e-01</leafValues></_>
        <_>
          <internalNodes>
            0 -1 1307 5.1892884075641632e-03</internalNodes>
          <leafValues>
            -1.8483497202396393e-01 2.6890093088150024e-01</leafValues></_>
        <_>
          <internalNodes>
            0 -1 1553 -1.5183482319116592e-02</internalNodes>
          <leafValues>
            2.4055188894271851e-01 -1.8298892676830292e-01</leafValues></_>
        <_>
          <internalNodes>
            0 -1 1680 -2.0030278712511063e-02</internalNodes>
          <leafValues>
            1.4412562549114227e-01 -2.3652902245521545e-01</leafValues></_>
        <_>
          <internalNodes>
            0 -1 1206 3.5489907022565603e-03</internalNodes>
          <leafValues>
            -6.4625605940818787e-02 5.1034516096115112e-01</leafValues></_>
        <_>
          <internalNodes>
            0 -1 1151 -3.6673024296760559e-02</internalNodes>
          <leafValues>
            -6.9892394542694092e-01 3.2811328768730164e-02</leafValues></_>
        <_>
          <internalNodes>
            0 -1 532 2.0571576431393623e-02</internalNodes>
          <leafValues>
            8.2268118858337402e-02 -3.8689950108528137e-01</leafValues></_>
        <_>
          <internalNodes>
            0 -1 2108 -3.4827941562980413e-03</internalNodes>
          <leafValues>
            4.4801950454711914e-01 -7.2524234652519226e-02</leafValues></_>
        <_>
          <internalNodes>
            0 -1 884 2.8496772050857544e-02</internalNodes>
          <leafValues>
            3.9080094546079636e-02 -5.3004276752471924e-01</leafValues></_>
        <_>
          <internalNodes>
            0 -1 686 4.3904967606067657e-02</internalNodes>
          <leafValues>
            6.9924704730510712e-02 -4.7010928392410278e-01</leafValues></_>
        <_>
          <internalNodes>
            0 -1 1826 1.1878369841724634e-03</internalNodes>
          <leafValues>
            -1.0762062668800354e-01 2.7091029286384583e-01</leafValues></_>
        <_>
          <internalNodes>
            0 -1 1279 7.9713031649589539e-02</internalNodes>
          <leafValues>
            -5.4436415433883667e-02 7.0323199033737183e-01</leafValues></_>
        <_>
          <internalNodes>
            0 -1 1275 4.4389911927282810e-03</internalNodes>
          <leafValues>
            -1.4499597251415253e-01 2.0525170862674713e-01</leafValues></_>
        <_>
          <internalNodes>
            0 -1 13 -8.7580420076847076e-03</internalNodes>
          <leafValues>
            -3.5730126500129700e-01 9.3246854841709137e-02</leafValues></_>
        <_>
          <internalNodes>
            0 -1 765 2.2388969082385302e-03</internalNodes>
          <leafValues>
            -9.2313647270202637e-02 3.2888489961624146e-01</leafValues></_>
        <_>
          <internalNodes>
            0 -1 763 1.5836246311664581e-03</internalNodes>
          <leafValues>
            -1.2815563380718231e-01 2.5484454631805420e-01</leafValues></_>
        <_>
          <internalNodes>
            0 -1 1400 1.6309544444084167e-03</internalNodes>
          <leafValues>
            8.9656032621860504e-02 -3.6326807737350464e-01</leafValues></_>
        <_>
          <internalNodes>
            0 -1 2162 -1.6157602891325951e-02</internalNodes>
          <leafValues>
            -4.4431662559509277e-01 6.7798227071762085e-02</leafValues></_>
        <_>
          <internalNodes>
            0 -1 1853 2.7027847245335579e-03</internalNodes>
          <leafValues>
            -1.1506514251232147e-01 2.4516023695468903e-01</leafValues></_>
        <_>
          <internalNodes>
            0 -1 130 -3.2369499094784260e-03</internalNodes>
          <leafValues>
            -4.4896095991134644e-01 7.1416601538658142e-02</leafValues></_>
        <_>
          <internalNodes>
            0 -1 1568 2.9450755100697279e-03</internalNodes>
          <leafValues>
            -7.4553266167640686e-02 3.7648329138755798e-01</leafValues></_>
        <_>
          <internalNodes>
            0 -1 136 2.6220805011689663e-03</internalNodes>
          <leafValues>
            7.6497495174407959e-02 -3.9100894331932068e-01</leafValues></_>
        <_>
          <internalNodes>
            0 -1 1378 1.2645781971514225e-03</internalNodes>
          <leafValues>
            -1.0552316159009933e-01 2.4939329922199249e-01</leafValues></_>
        <_>
          <internalNodes>
            0 -1 908 2.2125050425529480e-02</internalNodes>
          <leafValues>
            -3.2613009214401245e-01 8.8179782032966614e-02</leafValues></_>
        <_>
          <internalNodes>
            0 -1 2269 2.4706311523914337e-03</internalNodes>
          <leafValues>
            7.0800609886646271e-02 -3.8928779959678650e-01</leafValues></_>
        <_>
          <internalNodes>
            0 -1 1201 1.2947726063430309e-02</internalNodes>
          <leafValues>
            3.2794907689094543e-02 -8.2054400444030762e-01</leafValues></_>
        <_>
          <internalNodes>
            0 -1 669 -9.2068642377853394e-02</internalNodes>
          <leafValues>
            -6.7547452449798584e-01 3.7955831736326218e-02</leafValues></_>
        <_>
          <internalNodes>
            0 -1 2115 2.3456942290067673e-03</internalNodes>
          <leafValues>
            -9.3213617801666260e-02 3.4831848740577698e-01</leafValues></_>
        <_>
          <internalNodes>
            0 -1 251 -4.5064780861139297e-03</internalNodes>
          <leafValues>
            -7.9662680625915527e-01 3.6706000566482544e-02</leafValues></_>
        <_>
          <internalNodes>
            0 -1 2071 -2.5264216586947441e-02</internalNodes>
          <leafValues>
            4.3436723947525024e-01 -7.9684883356094360e-02</leafValues></_>
        <_>
          <internalNodes>
            0 -1 900 5.6552812457084656e-03</internalNodes>
          <leafValues>
            -7.4902087450027466e-02 3.4012839198112488e-01</leafValues></_>
        <_>
          <internalNodes>
            0 -1 958 5.0577003508806229e-02</internalNodes>
          <leafValues>
            4.1259128600358963e-02 -7.5890523195266724e-01</leafValues></_>
        <_>
          <internalNodes>
            0 -1 1428 2.3774583823978901e-03</internalNodes>
          <leafValues>
            -1.1593840271234512e-01 2.6016581058502197e-01</leafValues></_>
        <_>
          <internalNodes>
            0 -1 1245 3.0687921680510044e-03</internalNodes>
          <leafValues>
            -1.0136474668979645e-01 3.1808182597160339e-01</leafValues></_>
        <_>
          <internalNodes>
            0 -1 582 2.0619898568838835e-03</internalNodes>
          <leafValues>
            -2.7741518616676331e-01 1.0250929743051529e-01</leafValues></_>
        <_>
          <internalNodes>
            0 -1 2170 1.3429891550913453e-03</internalNodes>
          <leafValues>
            -9.9842734634876251e-02 2.8536486625671387e-01</leafValues></_>
        <_>
          <internalNodes>
            0 -1 494 6.9241207093000412e-03</internalNodes>
          <leafValues>
            7.7271446585655212e-02 -3.7329086661338806e-01</leafValues></_>
        <_>
          <internalNodes>
            0 -1 1270 3.2641487196087837e-03</internalNodes>
          <leafValues>
            -1.0950503498315811e-01 2.5245991349220276e-01</leafValues></_>
        <_>
          <internalNodes>
            0 -1 1270 -5.7968888431787491e-03</internalNodes>
          <leafValues>
            3.7238934636116028e-01 -7.1333967149257660e-02</leafValues></_>
        <_>
          <internalNodes>
            0 -1 538 -8.1302989274263382e-03</internalNodes>
          <leafValues>
            -3.5337725281715393e-01 8.2116432487964630e-02</leafValues></_>
        <_>
          <internalNodes>
            0 -1 124 2.8474209830164909e-02</internalNodes>
          <leafValues>
            -1.0560747236013412e-01 2.5645485520362854e-01</leafValues></_>
        <_>
          <internalNodes>
            0 -1 237 -6.1452858150005341e-02</internalNodes>
          <leafValues>
            5.2648794651031494e-01 -5.4857954382896423e-02</leafValues></_>
        <_>
          <internalNodes>
            0 -1 1400 -7.0685381069779396e-04</internalNodes>
          <leafValues>
            -2.3212465643882751e-01 1.2026175111532211e-01</leafValues></_>
        <_>
          <internalNodes>
            0 -1 1202 -6.3769454136490822e-03</internalNodes>
          <leafValues>
            1.0833802074193954e-01 -2.4181152880191803e-01</leafValues></_>
        <_>
          <internalNodes>
            0 -1 1965 3.1549646519124508e-03</internalNodes>
          <leafValues>
            -8.4057293832302094e-02 3.5017308592796326e-01</leafValues></_>
        <_>
          <internalNodes>
            0 -1 703 8.1771127879619598e-03</internalNodes>
          <leafValues>
            -1.2900865077972412e-01 2.1651877462863922e-01</leafValues></_>
        <_>
          <internalNodes>
            0 -1 950 1.1148272082209587e-02</internalNodes>
          <leafValues>
            5.1069244742393494e-02 -5.7358908653259277e-01</leafValues></_>
        <_>
          <internalNodes>
            0 -1 1054 2.9030269943177700e-03</internalNodes>
          <leafValues>
            -1.4593750238418579e-01 1.9119448959827423e-01</leafValues></_>
        <_>
          <internalNodes>
            0 -1 1457 -2.1735921036452055e-03</internalNodes>
          <leafValues>
            3.8227635622024536e-01 -7.8098118305206299e-02</leafValues></_>
        <_>
          <internalNodes>
            0 -1 1629 1.8294964684173465e-03</internalNodes>
          <leafValues>
            -1.2503679096698761e-01 2.2436310350894928e-01</leafValues></_></weakClassifiers></_>
    <!-- stage 7 -->
    <_>
      <maxWeakCount>59</maxWeakCount>
      <stageThreshold>-7.1876913309097290e-01</stageThreshold>
      <weakClassifiers>
        <_>
          <internalNodes>
            0 -1 1504 -3.2980777323246002e-02</internalNodes>
          <leafValues>
            4.6149760484695435e-01 3.7943694740533829e-02</leafValues></_>
        <_>
          <internalNodes>
            0 -1 615 -2.5301042944192886e-02</internalNodes>
          <leafValues>
            2.4189886450767517e-01 -1.6716827452182770e-01</leafValues></_>
        <_>
          <internalNodes>
            0 -1 1077 6.8637281656265259e-03</internalNodes>
          <leafValues>
            -3.1992390751838684e-01 1.0547641664743423e-01</leafValues></_>
        <_>
          <internalNodes>
            0 -1 1370 -1.3757046544924378e-03</internalNodes>
          <leafValues>
            3.5549798607826233e-01 -9.1171495616436005e-02</leafValues></_>
        <_>
          <internalNodes>
            0 -1 185 -8.5120767354965210e-02</internalNodes>
          <leafValues>
            5.5428946018218994e-01 -1.0529261827468872e-01</leafValues></_>
        <_>
          <internalNodes>
            0 -1 471 -4.1187060996890068e-03</internalNodes>
          <leafValues>
            -4.3510013818740845e-01 9.6360370516777039e-02</leafValues></_>
        <_>
          <internalNodes>
            0 -1 1432 1.0302236303687096e-02</internalNodes>
          <leafValues>
            7.4720613658428192e-02 -4.6918708086013794e-01</leafValues></_>
        <_>
          <internalNodes>
            0 -1 1616 2.6932358741760254e-03</internalNodes>
          <leafValues>
            -1.1937960237264633e-01 2.7654603123664856e-01</leafValues></_>
        <_>
          <internalNodes>
            0 -1 1566 1.6067654360085726e-03</internalNodes>
          <leafValues>
            -6.3302636146545410e-02 3.7395596504211426e-01</leafValues></_>
        <_>
          <internalNodes>
            0 -1 1566 -2.5400673039257526e-03</internalNodes>
          <leafValues>
            2.9145821928977966e-01 -1.0667916387319565e-01</leafValues></_>
        <_>
          <internalNodes>
            0 -1 165 -1.7511299252510071e-01</internalNodes>
          <leafValues>
            4.9844485521316528e-01 -4.9578733742237091e-02</leafValues></_>
        <_>
          <internalNodes>
            0 -1 1629 3.1931584235280752e-03</internalNodes>
          <leafValues>
            -1.1847124993801117e-01 2.6388022303581238e-01</leafValues></_>
        <_>
          <internalNodes>
            0 -1 955 -4.0541500784456730e-03</internalNodes>
          <leafValues>
            2.4575540423393250e-01 -1.1963413655757904e-01</leafValues></_>
        <_>
          <internalNodes>
            0 -1 1681 -1.3160916045308113e-02</internalNodes>
          <leafValues>
            2.0257532596588135e-01 -1.3446077704429626e-01</leafValues></_>
        <_>
          <internalNodes>
            0 -1 1660 2.2802792955189943e-03</internalNodes>
          <leafValues>
            -1.7726205289363861e-01 1.6830368340015411e-01</leafValues></_>
        <_>
          <internalNodes>
            0 -1 473 -1.9916024059057236e-02</internalNodes>
          <leafValues>
            -5.9030914306640625e-01 5.2921678870916367e-02</leafValues></_>
        <_>
          <internalNodes>
            0 -1 1740 3.0346454586833715e-03</internalNodes>
          <leafValues>
            6.4098596572875977e-02 -3.9165690541267395e-01</leafValues></_>
        <_>
          <internalNodes>
            0 -1 1046 -5.1922746002674103e-02</internalNodes>
          <leafValues>
            -4.3226230144500732e-01 6.4669281244277954e-02</leafValues></_>
        <_>
          <internalNodes>
            0 -1 918 5.1615707576274872e-02</internalNodes>
          <leafValues>
            3.0667226761579514e-02 -7.4317896366119385e-01</leafValues></_>
        <_>
          <internalNodes>
            0 -1 253 2.2892681881785393e-03</internalNodes>
          <leafValues>
            6.3636511564254761e-02 -3.9338153600692749e-01</leafValues></_>
        <_>
          <internalNodes>
            0 -1 763 1.7664541956037283e-03</internalNodes>
          <leafValues>
            -1.0967557132244110e-01 2.2456586360931396e-01</leafValues></_>
        <_>
          <internalNodes>
            0 -1 763 -3.5945042036473751e-03</internalNodes>
          <leafValues>
            3.5806569457054138e-01 -8.3849079906940460e-02</leafValues></_>
        <_>
          <internalNodes>
            0 -1 2143 9.2258928343653679e-03</internalNodes>
          <leafValues>
            7.9009257256984711e-02 -3.1472048163414001e-01</leafValues></_>
        <_>
          <internalNodes>
            0 -1 1543 1.8849638290703297e-03</internalNodes>
          <leafValues>
            -1.2292037904262543e-01 2.1064285933971405e-01</leafValues></_>
        <_>
          <internalNodes>
            0 -1 803 -3.1668250449001789e-03</internalNodes>
          <leafValues>
            -5.7223397493362427e-01 3.9106678217649460e-02</leafValues></_>
        <_>
          <internalNodes>
            0 -1 488 -3.3665492665022612e-03</internalNodes>
          <leafValues>
            -5.2962344884872437e-01 4.0806408971548080e-02</leafValues></_>
        <_>
          <internalNodes>
            0 -1 1852 2.9074016492813826e-03</internalNodes>
          <leafValues>
            -8.3389528095722198e-02 3.0452969670295715e-01</leafValues></_>
        <_>
          <internalNodes>
            0 -1 666 -5.2559029310941696e-02</internalNodes>
          <leafValues>
            -7.7408421039581299e-01 3.4243818372488022e-02</leafValues></_>
        <_>
          <internalNodes>
            0 -1 885 -4.5230790972709656e-02</internalNodes>
          <leafValues>
            -5.6254565715789795e-01 3.7996400147676468e-02</leafValues></_>
        <_>
          <internalNodes>
            0 -1 579 3.5522312391549349e-03</internalNodes>
          <leafValues>
            -5.6208908557891846e-02 4.3587425351142883e-01</leafValues></_>
        <_>
          <internalNodes>
            0 -1 1931 -1.2867769226431847e-02</internalNodes>
          <leafValues>
            -5.2882242202758789e-01 5.0261497497558594e-02</leafValues></_>
        <_>
          <internalNodes>
            0 -1 915 1.8420161679387093e-02</internalNodes>
          <leafValues>
            -4.8924550414085388e-02 5.3713953495025635e-01</leafValues></_>
        <_>
          <internalNodes>
            0 -1 744 3.1365100294351578e-03</internalNodes>
          <leafValues>
            -6.2120310962200165e-02 3.7458959221839905e-01</leafValues></_>
        <_>
          <internalNodes>
            0 -1 1200 -1.0741817764937878e-02</internalNodes>
          <leafValues>
            -4.4092381000518799e-01 6.1204485595226288e-02</leafValues></_>
        <_>
          <internalNodes>
            0 -1 1306 -1.7085941508412361e-03</internalNodes>
          <leafValues>
            9.4364784657955170e-02 -2.8624528646469116e-01</leafValues></_>
        <_>
          <internalNodes>
            0 -1 1064 1.2414094991981983e-02</internalNodes>
          <leafValues>
            -5.0975795835256577e-02 5.3692603111267090e-01</leafValues></_>
        <_>
          <internalNodes>
            0 -1 2115 1.6033122083172202e-03</internalNodes>
          <leafValues>
            -9.4604231417179108e-02 2.6401275396347046e-01</leafValues></_>
        <_>
          <internalNodes>
            0 -1 1941 -1.5148630365729332e-02</internalNodes>
          <leafValues>
            -6.2856155633926392e-01 3.9817780256271362e-02</leafValues></_>
        <_>
          <internalNodes>
            0 -1 1841 2.9460359364748001e-03</internalNodes>
          <leafValues>
            -8.4968626499176025e-02 2.7529329061508179e-01</leafValues></_>
        <_>
          <internalNodes>
            0 -1 1155 5.9030810371041298e-03</internalNodes>
          <leafValues>
            -7.7034555375576019e-02 3.1288146972656250e-01</leafValues></_>
        <_>
          <internalNodes>
            0 -1 2126 -2.5365832261741161e-03</internalNodes>
          <leafValues>
            -3.1573468446731567e-01 8.3145573735237122e-02</leafValues></_>
        <_>
          <internalNodes>
            0 -1 1152 -4.7694507520645857e-04</internalNodes>
          <leafValues>
            2.6694762706756592e-01 -1.0154394060373306e-01</leafValues></_>
        <_>
          <internalNodes>
            0 -1 2197 1.1011994443833828e-02</internalNodes>
          <leafValues>
            4.1287478059530258e-02 -6.8415164947509766e-01</leafValues></_>
        <_>
          <internalNodes>
            0 -1 370 1.5555610880255699e-03</internalNodes>
          <leafValues>
            8.0599963665008545e-02 -2.7689439058303833e-01</leafValues></_>
        <_>
          <internalNodes>
            0 -1 1125 -2.3422814905643463e-02</internalNodes>
          <leafValues>
            -7.0356166362762451e-01 3.3060804009437561e-02</leafValues></_>
        <_>
          <internalNodes>
            0 -1 701 2.6142729911953211e-03</internalNodes>
          <leafValues>
            -2.9609513282775879e-01 7.6391525566577911e-02</leafValues></_>
        <_>
          <internalNodes>
            0 -1 936 -1.3016171287745237e-03</internalNodes>
          <leafValues>
            3.1270322203636169e-01 -9.1319493949413300e-02</leafValues></_>
        <_>
          <internalNodes>
            0 -1 629 4.3421536684036255e-03</internalNodes>
          <leafValues>
            8.7053976953029633e-02 -3.2836258411407471e-01</leafValues></_>
        <_>
          <internalNodes>
            0 -1 923 2.0282128825783730e-03</internalNodes>
          <leafValues>
            -8.7022826075553894e-02 3.0332413315773010e-01</leafValues></_>
        <_>
          <internalNodes>
            0 -1 1881 1.1289185844361782e-02</internalNodes>
          <leafValues>
            6.5460659563541412e-02 -3.9904510974884033e-01</leafValues></_>
        <_>
          <internalNodes>
            0 -1 1087 -1.0885552037507296e-03</internalNodes>
          <leafValues>
            2.4624271690845490e-01 -1.0115040838718414e-01</leafValues></_>
        <_>
          <internalNodes>
            0 -1 1053 -2.4560149759054184e-03</internalNodes>
          <leafValues>
            4.0947392582893372e-01 -6.0926385223865509e-02</leafValues></_>
        <_>
          <internalNodes>
            0 -1 245 -3.2382588833570480e-03</internalNodes>
          <leafValues>
            -3.8108149170875549e-01 7.1710519492626190e-02</leafValues></_>
        <_>
          <internalNodes>
            0 -1 91 1.5154718421399593e-02</internalNodes>
          <leafValues>
            3.7846844643354416e-02 -5.9757208824157715e-01</leafValues></_>
        <_>
          <internalNodes>
            0 -1 107 -4.7388332313857973e-04</internalNodes>
          <leafValues>
            -2.1116100251674652e-01 1.4517311751842499e-01</leafValues></_>
        <_>
          <internalNodes>
            0 -1 1655 1.7598287668079138e-03</internalNodes>
          <leafValues>
            -1.0248611122369766e-01 2.3907820880413055e-01</leafValues></_>
        <_>
          <internalNodes>
            0 -1 1319 -4.1793934069573879e-03</internalNodes>
          <leafValues>
            2.6287713646888733e-01 -9.2364072799682617e-02</leafValues></_>
        <_>
          <internalNodes>
            0 -1 1641 1.7056525684893131e-03</internalNodes>
          <leafValues>
            -1.7844735085964203e-01 1.6054272651672363e-01</leafValues></_>
        <_>
          <internalNodes>
            0 -1 1099 6.1459388583898544e-02</internalNodes>
          <leafValues>
            3.7329524755477905e-02 -6.8311303853988647e-01</leafValues></_></weakClassifiers></_>
    <!-- stage 8 -->
    <_>
      <maxWeakCount>58</maxWeakCount>
      <stageThreshold>-7.0083504915237427e-01</stageThreshold>
      <weakClassifiers>
        <_>
          <internalNodes>
            0 -1 903 8.8800508528947830e-03</internalNodes>
          <leafValues>
            -4.0479760617017746e-02 4.5597639679908752e-01</leafValues></_>
        <_>
          <internalNodes>
            0 -1 448 1.1627780273556709e-02</internalNodes>
          <leafValues>
            -1.2069025635719299e-01 2.6698294281959534e-01</leafValues></_>
        <_>
          <internalNodes>
            0 -1 1553 -9.6905324608087540e-03</internalNodes>
          <leafValues>
            1.5510198473930359e-01 -2.1651473641395569e-01</leafValues></_>
        <_>
          <internalNodes>
            0 -1 1921 4.4202096760272980e-03</internalNodes>
          <leafValues>
            -1.0081200301647186e-01 3.2207813858985901e-01</leafValues></_>
        <_>
          <internalNodes>
            0 -1 2067 1.4037021901458502e-03</internalNodes>
          <leafValues>
            9.4692409038543701e-02 -2.5592026114463806e-01</leafValues></_>
        <_>
          <internalNodes>
            0 -1 1186 9.9177695810794830e-03</internalNodes>
          <leafValues>
            2.6503032073378563e-02 -6.4530283212661743e-01</leafValues></_>
        <_>
          <internalNodes>
            0 -1 1936 -3.1791976653039455e-03</internalNodes>
          <leafValues>
            2.4069635570049286e-01 -1.0315129905939102e-01</leafValues></_>
        <_>
          <internalNodes>
            0 -1 1676 -4.9547674134373665e-03</internalNodes>
          <leafValues>
            8.9397348463535309e-02 -2.8972846269607544e-01</leafValues></_>
        <_>
          <internalNodes>
            0 -1 62 -5.1266163587570190e-02</internalNodes>
          <leafValues>
            5.7875293493270874e-01 -4.7946318984031677e-02</leafValues></_>
        <_>
          <internalNodes>
            0 -1 1103 3.1784134916961193e-03</internalNodes>
          <leafValues>
            -2.3215019702911377e-01 1.3117517530918121e-01</leafValues></_>
        <_>
          <internalNodes>
            0 -1 867 8.3302006125450134e-02</internalNodes>
          <leafValues>
            6.1691507697105408e-02 -4.0074783563613892e-01</leafValues></_>
        <_>
          <internalNodes>
            0 -1 1473 7.3409769684076309e-03</internalNodes>
          <leafValues>
            -6.6161014139652252e-02 4.0557008981704712e-01</leafValues></_>
        <_>
          <internalNodes>
            0 -1 2246 2.6692932005971670e-03</internalNodes>
          <leafValues>
            5.2342548966407776e-02 -4.9201372265815735e-01</leafValues></_>
        <_>
          <internalNodes>
            0 -1 1357 1.6958151245489717e-03</internalNodes>
          <leafValues>
            -8.4842450916767120e-02 3.0525189638137817e-01</leafValues></_>
        <_>
          <internalNodes>
            0 -1 2246 -1.5857218531891704e-03</internalNodes>
          <leafValues>
            -3.6947938799858093e-01 7.3021024465560913e-02</leafValues></_>
        <_>
          <internalNodes>
            0 -1 1498 -6.3801056239753962e-04</internalNodes>
          <leafValues>
            5.3527906537055969e-02 -4.2049112915992737e-01</leafValues></_>
        <_>
          <internalNodes>
            0 -1 1863 5.6975088082253933e-03</internalNodes>
          <leafValues>
            8.4168046712875366e-02 -3.0633094906806946e-01</leafValues></_>
        <_>
          <internalNodes>
            0 -1 1370 -2.5854256819002330e-04</internalNodes>
          <leafValues>
            2.1387793123722076e-01 -1.2198609113693237e-01</leafValues></_>
        <_>
          <internalNodes>
            0 -1 502 2.6322118937969208e-03</internalNodes>
          <leafValues>
            4.6626791357994080e-02 -5.0954467058181763e-01</leafValues></_>
        <_>
          <internalNodes>
            0 -1 1568 -3.3400999382138252e-03</internalNodes>
          <leafValues>
            4.4041326642036438e-01 -6.4409837126731873e-02</leafValues></_>
        <_>
          <internalNodes>
            0 -1 1784 -1.4012346509844065e-03</internalNodes>
          <leafValues>
            1.9026011228561401e-01 -1.3856567442417145e-01</leafValues></_>
        <_>
          <internalNodes>
            0 -1 2093 -1.0997906327247620e-02</internalNodes>
          <leafValues>
            -3.8609454035758972e-01 6.7104935646057129e-02</leafValues></_>
        <_>
          <internalNodes>
            0 -1 467 3.9573922753334045e-02</internalNodes>
          <leafValues>
            3.1500346958637238e-02 -6.6470772027969360e-01</leafValues></_>
        <_>
          <internalNodes>
            0 -1 922 3.9091883227229118e-03</internalNodes>
          <leafValues>
            -8.1693314015865326e-02 3.2428386807441711e-01</leafValues></_>
        <_>
          <internalNodes>
            0 -1 1761 1.7992808716371655e-03</internalNodes>
          <leafValues>
            -1.1777589470148087e-01 2.2127273678779602e-01</leafValues></_>
        <_>
          <internalNodes>
            0 -1 639 -3.3096736297011375e-03</internalNodes>
          <leafValues>
            -5.1692503690719604e-01 4.6461384743452072e-02</leafValues></_>
        <_>
          <internalNodes>
            0 -1 351 -4.6481281518936157e-02</internalNodes>
          <leafValues>
            -3.0974739789962769e-01 7.4512831866741180e-02</leafValues></_>
        <_>
          <internalNodes>
            0 -1 1043 -3.6195930093526840e-02</internalNodes>
          <leafValues>
            -3.7369167804718018e-01 5.8470159769058228e-02</leafValues></_>
        <_>
          <internalNodes>
            0 -1 667 3.0505452305078506e-02</internalNodes>
          <leafValues>
            7.4399925768375397e-02 -3.3504626154899597e-01</leafValues></_>
        <_>
          <internalNodes>
            0 -1 50 2.6512451469898224e-02</internalNodes>
          <leafValues>
            1.0855869948863983e-01 -2.4789464473724365e-01</leafValues></_>
        <_>
          <internalNodes>
            0 -1 171 1.4191609807312489e-03</internalNodes>
          <leafValues>
            6.6727705299854279e-02 -3.2921662926673889e-01</leafValues></_>
        <_>
          <internalNodes>
            0 -1 890 -1.3628061860799789e-03</internalNodes>
          <leafValues>
            2.9903092980384827e-01 -7.7912449836730957e-02</leafValues></_>
        <_>
          <internalNodes>
            0 -1 988 3.8981740362942219e-03</internalNodes>
          <leafValues>
            -1.1204463243484497e-01 2.3614080250263214e-01</leafValues></_>
        <_>
          <internalNodes>
            0 -1 1401 -3.5574720241129398e-03</internalNodes>
          <leafValues>
            -5.8065724372863770e-01 4.2692903429269791e-02</leafValues></_>
        <_>
          <internalNodes>
            0 -1 369 -2.8735415544360876e-03</internalNodes>
          <leafValues>
            -3.5548487305641174e-01 6.0016680508852005e-02</leafValues></_>
        <_>
          <internalNodes>
            0 -1 334 -1.6806062310934067e-02</internalNodes>
          <leafValues>
            -5.4602003097534180e-01 4.0654301643371582e-02</leafValues></_>
        <_>
          <internalNodes>
            0 -1 1293 -1.4123974367976189e-02</internalNodes>
          <leafValues>
            6.1957907676696777e-01 -3.8106180727481842e-02</leafValues></_>
        <_>
          <internalNodes>
            0 -1 879 3.6086463369429111e-03</internalNodes>
          <leafValues>
            -2.5113996863365173e-01 9.1028593480587006e-02</leafValues></_>
        <_>
          <internalNodes>
            0 -1 2271 3.1396285630762577e-03</internalNodes>
          <leafValues>
            8.4647454321384430e-02 -2.4665126204490662e-01</leafValues></_>
        <_>
          <internalNodes>
            0 -1 1656 6.9886614801362157e-04</internalNodes>
          <leafValues>
            -1.4907510578632355e-01 1.5107777714729309e-01</leafValues></_>
        <_>
          <internalNodes>
            0 -1 290 -3.1563397496938705e-03</internalNodes>
          <leafValues>
            -3.7667897343635559e-01 6.0194075107574463e-02</leafValues></_>
        <_>
          <internalNodes>
            0 -1 1556 3.7930030375719070e-03</internalNodes>
          <leafValues>
            -7.1287997066974640e-02 3.1289556622505188e-01</leafValues></_>
        <_>
          <internalNodes>
            0 -1 944 4.6525347977876663e-02</internalNodes>
          <leafValues>
            5.9703085571527481e-02 -4.2358788847923279e-01</leafValues></_>
        <_>
          <internalNodes>
            0 -1 2281 3.3905194140970707e-03</internalNodes>
          <leafValues>
            3.2326508313417435e-02 -6.0079663991928101e-01</leafValues></_>
        <_>
          <internalNodes>
            0 -1 1959 -3.3676070161163807e-03</internalNodes>
          <leafValues>
            3.3579659461975098e-01 -6.9777049124240875e-02</leafValues></_>
        <_>
          <internalNodes>
            0 -1 1706 -1.9413076806813478e-03</internalNodes>
          <leafValues>
            2.5903353095054626e-01 -9.1222234070301056e-02</leafValues></_>
        <_>
          <internalNodes>
            0 -1 1708 1.8086591735482216e-03</internalNodes>
          <leafValues>
            -1.0181472450494766e-01 2.5971826910972595e-01</leafValues></_>
        <_>
          <internalNodes>
            0 -1 1840 3.4395107650198042e-04</internalNodes>
          <leafValues>
            -1.1049249023199081e-01 2.0927970111370087e-01</leafValues></_>
        <_>
          <internalNodes>
            0 -1 1185 -7.6950928196310997e-03</internalNodes>
          <leafValues>
            8.4900043904781342e-02 -3.0238872766494751e-01</leafValues></_>
        <_>
          <internalNodes>
            0 -1 1602 2.0375758409500122e-02</internalNodes>
          <leafValues>
            -1.0795503854751587e-01 2.2166936099529266e-01</leafValues></_>
        <_>
          <internalNodes>
            0 -1 827 -2.3960858583450317e-02</internalNodes>
          <leafValues>
            3.1662440299987793e-01 -7.8118301928043365e-02</leafValues></_>
        <_>
          <internalNodes>
            0 -1 1083 -1.0095726698637009e-02</internalNodes>
          <leafValues>
            -4.4151741266250610e-01 5.6004520505666733e-02</leafValues></_>
        <_>
          <internalNodes>
            0 -1 1486 1.3158608227968216e-02</internalNodes>
          <leafValues>
            6.6167801618576050e-02 -3.6394158005714417e-01</leafValues></_>
        <_>
          <internalNodes>
            0 -1 819 -1.1316101253032684e-01</internalNodes>
          <leafValues>
            -7.4794447422027588e-01 3.0258072540163994e-02</leafValues></_>
        <_>
          <internalNodes>
            0 -1 736 -3.9404943585395813e-02</internalNodes>
          <leafValues>
            -5.8863335847854614e-01 3.4558858722448349e-02</leafValues></_>
        <_>
          <internalNodes>
            0 -1 515 4.1451614350080490e-02</internalNodes>
          <leafValues>
            3.2106544822454453e-02 -7.0448940992355347e-01</leafValues></_>
        <_>
          <internalNodes>
            0 -1 304 1.8489509820938110e-02</internalNodes>
          <leafValues>
            -8.0829732120037079e-02 2.9855820536613464e-01</leafValues></_>
        <_>
          <internalNodes>
            0 -1 1601 1.6685623675584793e-02</internalNodes>
          <leafValues>
            3.6329951137304306e-02 -7.1668314933776855e-01</leafValues></_></weakClassifiers></_>
    <!-- stage 9 -->
    <_>
      <maxWeakCount>57</maxWeakCount>
      <stageThreshold>-6.1156725883483887e-01</stageThreshold>
      <weakClassifiers>
        <_>
          <internalNodes>
            0 -1 909 4.0702659636735916e-02</internalNodes>
          <leafValues>
            4.3956045061349869e-02 4.4016227126121521e-01</leafValues></_>
        <_>
          <internalNodes>
            0 -1 1452 2.0242687314748764e-03</internalNodes>
          <leafValues>
            -1.3226108253002167e-01 2.5795385241508484e-01</leafValues></_>
        <_>
          <internalNodes>
            0 -1 2004 4.8151612281799316e-03</internalNodes>
          <leafValues>
            -1.3517047464847565e-01 2.1634230017662048e-01</leafValues></_>
        <_>
          <internalNodes>
            0 -1 1709 2.7526761405169964e-03</internalNodes>
          <leafValues>
            -1.1397978663444519e-01 2.6221179962158203e-01</leafValues></_>
        <_>
          <internalNodes>
            0 -1 466 -3.8318037986755371e-03</internalNodes>
          <leafValues>
            -2.6393717527389526e-01 8.4283083677291870e-02</leafValues></_>
        <_>
          <internalNodes>
            0 -1 1468 2.7253122534602880e-03</internalNodes>
          <leafValues>
            -8.0834858119487762e-02 2.9450419545173645e-01</leafValues></_>
        <_>
          <internalNodes>
            0 -1 1431 1.5971094369888306e-02</internalNodes>
          <leafValues>
            -9.9718905985355377e-02 2.9229250550270081e-01</leafValues></_>
        <_>
          <internalNodes>
            0 -1 696 1.0616829618811607e-02</internalNodes>
          <leafValues>
            6.8523816764354706e-02 -4.3573075532913208e-01</leafValues></_>
        <_>
          <internalNodes>
            0 -1 951 1.8191330134868622e-02</internalNodes>
          <leafValues>
            6.5636597573757172e-02 -4.9153938889503479e-01</leafValues></_>
        <_>
          <internalNodes>
            0 -1 2221 -3.4496961161494255e-03</internalNodes>
          <leafValues>
            -6.0657316446304321e-01 2.6918796822428703e-02</leafValues></_>
        <_>
          <internalNodes>
            0 -1 1775 1.2187745887786150e-03</internalNodes>
          <leafValues>
            -8.9844129979610443e-02 2.8683355450630188e-01</leafValues></_>
        <_>
          <internalNodes>
            0 -1 1760 -3.0125395860522985e-03</internalNodes>
          <leafValues>
            4.5997345447540283e-01 -5.4538302123546600e-02</leafValues></_>
        <_>
          <internalNodes>
            0 -1 1335 1.3946021907031536e-02</internalNodes>
          <leafValues>
            4.0478337556123734e-02 -6.6016942262649536e-01</leafValues></_>
        <_>
          <internalNodes>
            0 -1 1837 -6.8349959328770638e-03</internalNodes>
          <leafValues>
            1.7618626356124878e-01 -1.5777900815010071e-01</leafValues></_>
        <_>
          <internalNodes>
            0 -1 1769 -1.1279953643679619e-02</internalNodes>
          <leafValues>
            -1.7721526324748993e-01 1.3901677727699280e-01</leafValues></_>
        <_>
          <internalNodes>
            0 -1 1250 -8.3519639447331429e-03</internalNodes>
          <leafValues>
            -6.1677271127700806e-01 3.3954769372940063e-02</leafValues></_>
        <_>
          <internalNodes>
            0 -1 1613 3.8422759622335434e-02</internalNodes>
          <leafValues>
            -5.0686575472354889e-02 4.6963715553283691e-01</leafValues></_>
        <_>
          <internalNodes>
            0 -1 1483 -5.5387187749147415e-03</internalNodes>
          <leafValues>
            7.0669159293174744e-02 -3.8134047389030457e-01</leafValues></_>
        <_>
          <internalNodes>
            0 -1 969 2.0346636883914471e-03</internalNodes>
          <leafValues>
            -9.6328251063823700e-02 2.4062941968441010e-01</leafValues></_>
        <_>
          <internalNodes>
            0 -1 1970 1.5869957860559225e-03</internalNodes>
          <leafValues>
            9.5906198024749756e-02 -2.6212024688720703e-01</leafValues></_>
        <_>
          <internalNodes>
            0 -1 1851 3.6829719319939613e-03</internalNodes>
          <leafValues>
            -6.8543210625648499e-02 3.4895509481430054e-01</leafValues></_>
        <_>
          <internalNodes>
            0 -1 110 -9.1638173907995224e-03</internalNodes>
          <leafValues>
            -1.8449214100837708e-01 1.2423039972782135e-01</leafValues></_>
        <_>
          <internalNodes>
            0 -1 148 8.9622531086206436e-03</internalNodes>
          <leafValues>
            9.8410151898860931e-02 -2.4581280350685120e-01</leafValues></_>
        <_>
          <internalNodes>
            0 -1 1187 -9.0113223996013403e-04</internalNodes>
          <leafValues>
            2.5605365633964539e-01 -9.1126345098018646e-02</leafValues></_>
        <_>
          <internalNodes>
            0 -1 298 7.6338082551956177e-02</internalNodes>
          <leafValues>
            3.6672633141279221e-02 -7.2880142927169800e-01</leafValues></_>
        <_>
          <internalNodes>
            0 -1 921 1.2793322093784809e-03</internalNodes>
          <leafValues>
            -1.3155776262283325e-01 1.7612411081790924e-01</leafValues></_>
        <_>
          <internalNodes>
            0 -1 699 -1.1389547027647495e-02</internalNodes>
          <leafValues>
            -3.1515473127365112e-01 8.2969143986701965e-02</leafValues></_>
        <_>
          <internalNodes>
            0 -1 26 -3.6491468548774719e-02</internalNodes>
          <leafValues>
            4.4217786192893982e-01 -5.2595417946577072e-02</leafValues></_>
        <_>
          <internalNodes>
            0 -1 178 1.0824946686625481e-02</internalNodes>
          <leafValues>
            -1.7803984880447388e-01 1.6170878708362579e-01</leafValues></_>
        <_>
          <internalNodes>
            0 -1 1357 -1.7930706962943077e-03</internalNodes>
          <leafValues>
            2.8779482841491699e-01 -8.7040729820728302e-02</leafValues></_>
        <_>
          <internalNodes>
            0 -1 1228 6.5497104078531265e-03</internalNodes>
          <leafValues>
            4.6651042997837067e-02 -5.6112277507781982e-01</leafValues></_>
        <_>
          <internalNodes>
            0 -1 2194 -3.2934949267655611e-03</internalNodes>
          <leafValues>
            -5.3523731231689453e-01 4.0913566946983337e-02</leafValues></_>
        <_>
          <internalNodes>
            0 -1 1568 2.1356611978262663e-03</internalNodes>
          <leafValues>
            -7.8522458672523499e-02 3.0042448639869690e-01</leafValues></_>
        <_>
          <internalNodes>
            0 -1 556 3.5628985613584518e-02</internalNodes>
          <leafValues>
            4.1811335831880569e-02 -5.9272116422653198e-01</leafValues></_>
        <_>
          <internalNodes>
            0 -1 140 2.8718973044306040e-03</internalNodes>
          <leafValues>
            3.7782017141580582e-02 -5.3706550598144531e-01</leafValues></_>
        <_>
          <internalNodes>
            0 -1 1531 -1.6788861248642206e-03</internalNodes>
          <leafValues>
            2.7179625630378723e-01 -8.6583524942398071e-02</leafValues></_>
        <_>
          <internalNodes>
            0 -1 630 -2.1805330179631710e-03</internalNodes>
          <leafValues>
            -4.2525094747543335e-01 5.5350344628095627e-02</leafValues></_>
        <_>
          <internalNodes>
            0 -1 1356 -5.3658522665500641e-03</internalNodes>
          <leafValues>
            5.0659859180450439e-01 -4.9312882125377655e-02</leafValues></_>
        <_>
          <internalNodes>
            0 -1 2013 1.8185161752626300e-03</internalNodes>
          <leafValues>
            -9.3509703874588013e-02 2.5235322117805481e-01</leafValues></_>
        <_>
          <internalNodes>
            0 -1 1705 -4.0192671120166779e-02</internalNodes>
          <leafValues>
            2.1181038022041321e-01 -1.0441444814205170e-01</leafValues></_>
        <_>
          <internalNodes>
            0 -1 2196 -2.6335157454013824e-03</internalNodes>
          <leafValues>
            -4.3107923865318298e-01 5.1436446607112885e-02</leafValues></_>
        <_>
          <internalNodes>
            0 -1 2014 1.3146366691216826e-03</internalNodes>
          <leafValues>
            -9.6445120871067047e-02 2.4358163774013519e-01</leafValues></_>
        <_>
          <internalNodes>
            0 -1 1918 3.0372375622391701e-03</internalNodes>
          <leafValues>
            -8.0439753830432892e-02 3.4371134638786316e-01</leafValues></_>
        <_>
          <internalNodes>
            0 -1 1528 -1.8091551959514618e-02</internalNodes>
          <leafValues>
            -3.4280672669410706e-01 6.8571127951145172e-02</leafValues></_>
        <_>
          <internalNodes>
            0 -1 2244 -2.1722316741943359e-03</internalNodes>
          <leafValues>
            -3.9685487747192383e-01 5.6175667792558670e-02</leafValues></_>
        <_>
          <internalNodes>
            0 -1 1932 -3.4868572838604450e-03</internalNodes>
          <leafValues>
            3.2823574542999268e-01 -7.4826158583164215e-02</leafValues></_>
        <_>
          <internalNodes>
            0 -1 648 -4.7448221594095230e-03</internalNodes>
          <leafValues>
            -6.4520972967147827e-01 3.3586133271455765e-02</leafValues></_>
        <_>
          <internalNodes>
            0 -1 1514 -2.0397151820361614e-03</internalNodes>
          <leafValues>
            1.0994289070367813e-01 -1.8552714586257935e-01</leafValues></_>
        <_>
          <internalNodes>
            0 -1 2015 2.3035900667309761e-03</internalNodes>
          <leafValues>
            -1.3312858343124390e-01 1.9062203168869019e-01</leafValues></_>
        <_>
          <internalNodes>
            0 -1 857 -1.1509146541357040e-02</internalNodes>
          <leafValues>
            -2.9085010290145874e-01 8.0157972872257233e-02</leafValues></_>
        <_>
          <internalNodes>
            0 -1 1586 -3.4249220043420792e-03</internalNodes>
          <leafValues>
            -3.2430279254913330e-01 6.6614151000976562e-02</leafValues></_>
        <_>
          <internalNodes>
            0 -1 411 1.5187334502115846e-03</internalNodes>
          <leafValues>
            -1.2010993808507919e-01 2.0028924942016602e-01</leafValues></_>
        <_>
          <internalNodes>
            0 -1 2264 8.8253803551197052e-03</internalNodes>
          <leafValues>
            4.5141350477933884e-02 -5.3974437713623047e-01</leafValues></_>
        <_>
          <internalNodes>
            0 -1 569 1.3097155839204788e-02</internalNodes>
          <leafValues>
            -7.5313977897167206e-02 3.6528947949409485e-01</leafValues></_>
        <_>
          <internalNodes>
            0 -1 701 4.6607945114374161e-03</internalNodes>
          <leafValues>
            -2.7033656835556030e-01 9.7148716449737549e-02</leafValues></_>
        <_>
          <internalNodes>
            0 -1 990 -6.1316597275435925e-03</internalNodes>
          <leafValues>
            2.7409613132476807e-01 -1.0050607472658157e-01</leafValues></_>
        <_>
          <internalNodes>
            0 -1 1386 2.1219002082943916e-03</internalNodes>
          <leafValues>
            -1.0554441064596176e-01 2.1286982297897339e-01</leafValues></_></weakClassifiers></_>
    <!-- stage 10 -->
    <_>
      <maxWeakCount>68</maxWeakCount>
      <stageThreshold>-7.0818006992340088e-01</stageThreshold>
      <weakClassifiers>
        <_>
          <internalNodes>
            0 -1 1278 -3.1144846230745316e-02</internalNodes>
          <leafValues>
            -5.5769228935241699e-01 3.6902928352355957e-01</leafValues></_>
        <_>
          <internalNodes>
            0 -1 1116 1.2235784903168678e-02</internalNodes>
          <leafValues>
            -6.7653447389602661e-02 3.6696234345436096e-01</leafValues></_>
        <_>
          <internalNodes>
            0 -1 431 8.8550299406051636e-03</internalNodes>
          <leafValues>
            -1.6387093067169189e-01 1.6419216990470886e-01</leafValues></_>
        <_>
          <internalNodes>
            0 -1 162 -8.3466082811355591e-02</internalNodes>
          <leafValues>
            5.8750748634338379e-01 -9.2015989124774933e-02</leafValues></_>
        <_>
          <internalNodes>
            0 -1 925 -8.4265209734439850e-03</internalNodes>
          <leafValues>
            5.1637887954711914e-01 -4.2439061217010021e-03</leafValues></_>
        <_>
          <internalNodes>
            0 -1 6 -1.1036065965890884e-01</internalNodes>
          <leafValues>
            3.6982446908950806e-01 -8.7068907916545868e-02</leafValues></_>
        <_>
          <internalNodes>
            0 -1 1943 2.3026387207210064e-03</internalNodes>
          <leafValues>
            -1.0923161357641220e-01 2.3058691620826721e-01</leafValues></_>
        <_>
          <internalNodes>
            0 -1 2042 1.0500953067094088e-03</internalNodes>
          <leafValues>
            -1.0236779600381851e-01 2.5513386726379395e-01</leafValues></_>
        <_>
          <internalNodes>
            0 -1 1156 -3.6142445169389248e-03</internalNodes>
          <leafValues>
            2.4921113252639771e-01 -9.3130476772785187e-02</leafValues></_>
        <_>
          <internalNodes>
            0 -1 1501 -1.7387636471539736e-03</internalNodes>
          <leafValues>
            7.0606522262096405e-02 -4.2894169688224792e-01</leafValues></_>
        <_>
          <internalNodes>
            0 -1 2064 -2.0016329362988472e-03</internalNodes>
          <leafValues>
            -3.5713890194892883e-01 6.3906535506248474e-02</leafValues></_>
        <_>
          <internalNodes>
            0 -1 1173 1.5611827839165926e-03</internalNodes>
          <leafValues>
            -1.1296366155147552e-01 2.1347898244857788e-01</leafValues></_>
        <_>
          <internalNodes>
            0 -1 164 -1.0738608241081238e-01</internalNodes>
          <leafValues>
            3.7818777561187744e-01 -6.7294150590896606e-02</leafValues></_>
        <_>
          <internalNodes>
            0 -1 381 5.5850679054856300e-03</internalNodes>
          <leafValues>
            9.2539645731449127e-02 -2.4419601261615753e-01</leafValues></_>
        <_>
          <internalNodes>
            0 -1 1280 7.5244270265102386e-03</internalNodes>
          <leafValues>
            -2.3053956031799316e-01 9.9638432264328003e-02</leafValues></_>
        <_>
          <internalNodes>
            0 -1 1692 -4.4321686029434204e-02</internalNodes>
          <leafValues>
            -5.9080415964126587e-01 3.9408214390277863e-02</leafValues></_>
        <_>
          <internalNodes>
            0 -1 1530 -9.5305470749735832e-03</internalNodes>
          <leafValues>
            9.6309304237365723e-02 -2.9193690419197083e-01</leafValues></_>
        <_>
          <internalNodes>
            0 -1 61 -5.3263500332832336e-02</internalNodes>
          <leafValues>
            6.7464876174926758e-01 -4.0171314030885696e-02</leafValues></_>
        <_>
          <internalNodes>
            0 -1 1316 -3.1832244712859392e-03</internalNodes>
          <leafValues>
            3.4059128165245056e-01 -5.8618616312742233e-02</leafValues></_>
        <_>
          <internalNodes>
            0 -1 1545 2.2221211111173034e-04</internalNodes>
          <leafValues>
            -1.1755908280611038e-01 2.0018543303012848e-01</leafValues></_>
        <_>
          <internalNodes>
            0 -1 1533 4.3199080973863602e-03</internalNodes>
          <leafValues>
            -6.8977780640125275e-02 3.8460937142372131e-01</leafValues></_>
        <_>
          <internalNodes>
            0 -1 575 -1.4912960119545460e-02</internalNodes>
          <leafValues>
            -5.8856564760208130e-01 4.4446039944887161e-02</leafValues></_>
        <_>
          <internalNodes>
            0 -1 2220 -3.8465415127575397e-03</internalNodes>
          <leafValues>
            -4.8804751038551331e-01 4.2637940496206284e-02</leafValues></_>
        <_>
          <internalNodes>
            0 -1 53 -3.9059487171471119e-03</internalNodes>
          <leafValues>
            -5.8746290206909180e-01 3.6916472017765045e-02</leafValues></_>
        <_>
          <internalNodes>
            0 -1 1909 2.8995093889534473e-03</internalNodes>
          <leafValues>
            -6.3031628727912903e-02 3.6857599020004272e-01</leafValues></_>
        <_>
          <internalNodes>
            0 -1 752 1.9182614982128143e-02</internalNodes>
          <leafValues>
            -2.2608070075511932e-01 9.9075533449649811e-02</leafValues></_>
        <_>
          <internalNodes>
            0 -1 2108 -2.6722264010459185e-03</internalNodes>
          <leafValues>
            3.0588525533676147e-01 -7.5029976665973663e-02</leafValues></_>
        <_>
          <internalNodes>
            0 -1 1509 -3.5617379471659660e-03</internalNodes>
          <leafValues>
            2.7729386091232300e-01 -7.9419165849685669e-02</leafValues></_>
        <_>
          <internalNodes>
            0 -1 1438 -8.6993966251611710e-03</internalNodes>
          <leafValues>
            -4.3251180648803711e-01 5.4349329322576523e-02</leafValues></_>
        <_>
          <internalNodes>
            0 -1 1292 2.1994579583406448e-03</internalNodes>
          <leafValues>
            -1.1717876046895981e-01 2.2993172705173492e-01</leafValues></_>
        <_>
          <internalNodes>
            0 -1 2212 7.3736379854381084e-03</internalNodes>
          <leafValues>
            3.6521885544061661e-02 -6.1813402175903320e-01</leafValues></_>
        <_>
          <internalNodes>
            0 -1 46 -1.9012842327356339e-02</internalNodes>
          <leafValues>
            1.8342252075672150e-01 -1.2086578458547592e-01</leafValues></_>
        <_>
          <internalNodes>
            0 -1 694 -5.3755892440676689e-03</internalNodes>
          <leafValues>
            3.7405335903167725e-01 -5.6265991181135178e-02</leafValues></_>
        <_>
          <internalNodes>
            0 -1 2250 1.2391600757837296e-03</internalNodes>
          <leafValues>
            7.6264560222625732e-02 -2.8577950596809387e-01</leafValues></_>
        <_>
          <internalNodes>
            0 -1 890 -1.5807219315320253e-03</internalNodes>
          <leafValues>
            3.1808450818061829e-01 -6.9230675697326660e-02</leafValues></_>
        <_>
          <internalNodes>
            0 -1 460 -1.3474471867084503e-02</internalNodes>
          <leafValues>
            -4.5172458887100220e-01 4.7820262610912323e-02</leafValues></_>
        <_>
          <internalNodes>
            0 -1 1324 3.2113224267959595e-02</internalNodes>
          <leafValues>
            2.8513466939330101e-02 -7.5637841224670410e-01</leafValues></_>
        <_>
          <internalNodes>
            0 -1 762 -1.4914369676262140e-03</internalNodes>
          <leafValues>
            2.3828728497028351e-01 -8.7718613445758820e-02</leafValues></_>
        <_>
          <internalNodes>
            0 -1 1263 1.5348618617281318e-03</internalNodes>
          <leafValues>
            -1.1019887775182724e-01 1.9540566205978394e-01</leafValues></_>
        <_>
          <internalNodes>
            0 -1 579 -3.5803299397230148e-03</internalNodes>
          <leafValues>
            4.1287922859191895e-01 -5.0686564296483994e-02</leafValues></_>
        <_>
          <internalNodes>
            0 -1 1529 5.8123031631112099e-03</internalNodes>
          <leafValues>
            8.0897003412246704e-02 -2.6929372549057007e-01</leafValues></_>
        <_>
          <internalNodes>
            0 -1 284 8.1467058043926954e-04</internalNodes>
          <leafValues>
            8.6953990161418915e-02 -2.5336906313896179e-01</leafValues></_>
        <_>
          <internalNodes>
            0 -1 1192 6.4733430743217468e-02</internalNodes>
          <leafValues>
            2.1234169602394104e-02 -9.7647362947463989e-01</leafValues></_>
        <_>
          <internalNodes>
            0 -1 228 4.3235225602984428e-03</internalNodes>
          <leafValues>
            7.4440293014049530e-02 -2.7472332119941711e-01</leafValues></_>
        <_>
          <internalNodes>
            0 -1 1721 2.2541859652847052e-03</internalNodes>
          <leafValues>
            -7.6589815318584442e-02 2.8282114863395691e-01</leafValues></_>
        <_>
          <internalNodes>
            0 -1 1039 7.1803964674472809e-03</internalNodes>
          <leafValues>
            -2.5888183712959290e-01 9.4052247703075409e-02</leafValues></_>
        <_>
          <internalNodes>
            0 -1 734 3.1264132121577859e-04</internalNodes>
          <leafValues>
            -3.0772751569747925e-01 7.3538862168788910e-02</leafValues></_>
        <_>
          <internalNodes>
            0 -1 605 -1.0858180001378059e-02</internalNodes>
          <leafValues>
            3.8200479745864868e-01 -5.7539992034435272e-02</leafValues></_>
        <_>
          <internalNodes>
            0 -1 528 3.6842194199562073e-01</internalNodes>
          <leafValues>
            3.2041814178228378e-02 -7.2232252359390259e-01</leafValues></_>
        <_>
          <internalNodes>
            0 -1 2213 6.5563917160034180e-03</internalNodes>
          <leafValues>
            5.0958625972270966e-02 -4.1565918922424316e-01</leafValues></_>
        <_>
          <internalNodes>
            0 -1 2254 9.1190617531538010e-03</internalNodes>
          <leafValues>
            3.7577543407678604e-02 -5.4611176252365112e-01</leafValues></_>
        <_>
          <internalNodes>
            0 -1 875 2.9313488630577922e-04</internalNodes>
          <leafValues>
            1.8951174616813660e-01 -1.2146842479705811e-01</leafValues></_>
        <_>
          <internalNodes>
            0 -1 1059 7.7901054173707962e-03</internalNodes>
          <leafValues>
            -1.3485714793205261e-01 1.9335629045963287e-01</leafValues></_>
        <_>
          <internalNodes>
            0 -1 1810 -1.2042880989611149e-03</internalNodes>
          <leafValues>
            2.3139619827270508e-01 -9.6378311514854431e-02</leafValues></_>
        <_>
          <internalNodes>
            0 -1 1632 9.1510694473981857e-03</internalNodes>
          <leafValues>
            -1.0402055829763412e-01 2.0774701237678528e-01</leafValues></_>
        <_>
          <internalNodes>
            0 -1 646 6.1414074152708054e-02</internalNodes>
          <leafValues>
            -5.1133763045072556e-02 4.2065444588661194e-01</leafValues></_>
        <_>
          <internalNodes>
            0 -1 1824 8.4899482317268848e-04</internalNodes>
          <leafValues>
            -9.0790845453739166e-02 2.5886237621307373e-01</leafValues></_>
        <_>
          <internalNodes>
            0 -1 2134 2.7047526091337204e-03</internalNodes>
          <leafValues>
            -1.2470936030149460e-01 1.6805729269981384e-01</leafValues></_>
        <_>
          <internalNodes>
            0 -1 583 6.5455518662929535e-02</internalNodes>
          <leafValues>
            3.4218996763229370e-02 -6.4505207538604736e-01</leafValues></_>
        <_>
          <internalNodes>
            0 -1 145 -2.2603988181799650e-03</internalNodes>
          <leafValues>
            -4.3053677678108215e-01 4.3041523545980453e-02</leafValues></_>
        <_>
          <internalNodes>
            0 -1 1177 -1.0932354256510735e-02</internalNodes>
          <leafValues>
            -4.8898249864578247e-01 4.0749341249465942e-02</leafValues></_>
        <_>
          <internalNodes>
            0 -1 1686 2.1839933469891548e-03</internalNodes>
          <leafValues>
            -1.0066276788711548e-01 2.2370463609695435e-01</leafValues></_>
        <_>
          <internalNodes>
            0 -1 1604 -7.7876798808574677e-02</internalNodes>
          <leafValues>
            -7.7791643142700195e-01 2.8778590261936188e-02</leafValues></_>
        <_>
          <internalNodes>
            0 -1 1784 -1.9681677222251892e-03</internalNodes>
          <leafValues>
            1.7784319818019867e-01 -1.1686998605728149e-01</leafValues></_>
        <_>
          <internalNodes>
            0 -1 1299 -2.6060207746922970e-03</internalNodes>
          <leafValues>
            2.4761690199375153e-01 -9.1057486832141876e-02</leafValues></_>
        <_>
          <internalNodes>
            0 -1 160 -4.1395397856831551e-03</internalNodes>
          <leafValues>
            -6.5779328346252441e-01 3.9816092699766159e-02</leafValues></_>
        <_>
          <internalNodes>
            0 -1 1614 5.9251897037029266e-02</internalNodes>
          <leafValues>
            5.2530143409967422e-02 -3.4652638435363770e-01</leafValues></_>
        <_>
          <internalNodes>
            0 -1 327 1.2552605941891670e-02</internalNodes>
          <leafValues>
            -1.9104747474193573e-01 1.0711824893951416e-01</leafValues></_></weakClassifiers></_>
    <!-- stage 11 -->
    <_>
      <maxWeakCount>65</maxWeakCount>
      <stageThreshold>-5.8698236942291260e-01</stageThreshold>
      <weakClassifiers>
        <_>
          <internalNodes>
            0 -1 49 2.2828152775764465e-01</internalNodes>
          <leafValues>
            1.8840579688549042e-01 5.0119906663894653e-01</leafValues></_>
        <_>
          <internalNodes>
            0 -1 1645 6.9643170572817326e-03</internalNodes>
          <leafValues>
            -9.3186333775520325e-02 2.7313318848609924e-01</leafValues></_>
        <_>
          <internalNodes>
            0 -1 1525 8.9603960514068604e-03</internalNodes>
          <leafValues>
            -1.2372176349163055e-01 1.9555804133415222e-01</leafValues></_>
        <_>
          <internalNodes>
            0 -1 1498 3.1224000267684460e-03</internalNodes>
          <leafValues>
            5.0733857788145542e-03 -6.2670099735260010e-01</leafValues></_>
        <_>
          <internalNodes>
            0 -1 537 -1.0726456093834713e-04</internalNodes>
          <leafValues>
            -1.5874670445919037e-01 1.3174529373645782e-01</leafValues></_>
        <_>
          <internalNodes>
            0 -1 2078 2.8813318349421024e-03</internalNodes>
          <leafValues>
            2.9006754979491234e-02 -4.7002992033958435e-01</leafValues></_>
        <_>
          <internalNodes>
            0 -1 881 3.7199430167675018e-02</internalNodes>
          <leafValues>
            3.7425797432661057e-02 -5.8084547519683838e-01</leafValues></_>
        <_>
          <internalNodes>
            0 -1 1716 2.0173001103103161e-03</internalNodes>
          <leafValues>
            -8.0916583538055420e-02 2.4213810265064240e-01</leafValues></_>
        <_>
          <internalNodes>
            0 -1 128 -7.3362186551094055e-02</internalNodes>
          <leafValues>
            -4.2121571302413940e-01 4.6320702880620956e-02</leafValues></_>
        <_>
          <internalNodes>
            0 -1 2215 -2.9447688721120358e-03</internalNodes>
          <leafValues>
            -4.9599853157997131e-01 3.5249948501586914e-02</leafValues></_>
        <_>
          <internalNodes>
            0 -1 979 3.4441007301211357e-03</internalNodes>
          <leafValues>
            -7.1666859090328217e-02 2.5897374749183655e-01</leafValues></_>
        <_>
          <internalNodes>
            0 -1 898 5.3441775962710381e-03</internalNodes>
          <leafValues>
            -1.2229873985052109e-01 1.8854334950447083e-01</leafValues></_>
        <_>
          <internalNodes>
            0 -1 655 7.9000517725944519e-02</internalNodes>
          <leafValues>
            3.7065394222736359e-02 -5.3329652547836304e-01</leafValues></_>
        <_>
          <internalNodes>
            0 -1 345 -1.5132723376154900e-02</internalNodes>
          <leafValues>
            -3.9037939906120300e-01 5.4972603917121887e-02</leafValues></_>
        <_>
          <internalNodes>
            0 -1 1696 7.4917555321007967e-04</internalNodes>
          <leafValues>
            -9.9641576409339905e-02 2.2869858145713806e-01</leafValues></_>
        <_>
          <internalNodes>
            0 -1 1159 -5.4078069515526295e-03</internalNodes>
          <leafValues>
            -4.0249180793762207e-01 5.7254467159509659e-02</leafValues></_>
        <_>
          <internalNodes>
            0 -1 1358 -2.6797200553119183e-03</internalNodes>
          <leafValues>
            2.4581180512905121e-01 -9.9044188857078552e-02</leafValues></_>
        <_>
          <internalNodes>
            0 -1 913 -2.1070964634418488e-02</internalNodes>
          <leafValues>
            -7.7622878551483154e-01 3.2812163233757019e-02</leafValues></_>
        <_>
          <internalNodes>
            0 -1 938 2.4373428896069527e-03</internalNodes>
          <leafValues>
            -9.5077261328697205e-02 2.2921891510486603e-01</leafValues></_>
        <_>
          <internalNodes>
            0 -1 839 6.8390420638024807e-03</internalNodes>
          <leafValues>
            9.3303002417087555e-02 -2.4649687111377716e-01</leafValues></_>
        <_>
          <internalNodes>
            0 -1 2189 1.1367616243660450e-03</internalNodes>
          <leafValues>
            7.9649209976196289e-02 -2.8002905845642090e-01</leafValues></_>
        <_>
          <internalNodes>
            0 -1 2063 2.7898964472115040e-03</internalNodes>
          <leafValues>
            5.9721928089857101e-02 -3.3708441257476807e-01</leafValues></_>
        <_>
          <internalNodes>
            0 -1 15 -3.1296126544475555e-03</internalNodes>
          <leafValues>
            -5.4125380516052246e-01 3.5581748932600021e-02</leafValues></_>
        <_>
          <internalNodes>
            0 -1 1542 4.3424945033621043e-05</internalNodes>
          <leafValues>
            -1.1439196765422821e-01 1.7646142840385437e-01</leafValues></_>
        <_>
          <internalNodes>
            0 -1 1218 5.3837080486118793e-03</internalNodes>
          <leafValues>
            -5.8992188423871994e-02 3.7289869785308838e-01</leafValues></_>
        <_>
          <internalNodes>
            0 -1 1612 -1.0040708817541599e-02</internalNodes>
          <leafValues>
            4.2477312684059143e-01 -4.2033933103084564e-02</leafValues></_>
        <_>
          <internalNodes>
            0 -1 2289 6.7159133031964302e-03</internalNodes>
          <leafValues>
            3.4528777003288269e-02 -6.2015527486801147e-01</leafValues></_>
        <_>
          <internalNodes>
            0 -1 823 2.7388387918472290e-01</internalNodes>
          <leafValues>
            -1.0952808707952499e-01 1.8713824450969696e-01</leafValues></_>
        <_>
          <internalNodes>
            0 -1 1029 -2.2846143692731857e-03</internalNodes>
          <leafValues>
            2.9012006521224976e-01 -7.3920078575611115e-02</leafValues></_>
        <_>
          <internalNodes>
            0 -1 779 1.9305553287267685e-03</internalNodes>
          <leafValues>
            -1.0018081218004227e-01 2.1486350893974304e-01</leafValues></_>
        <_>
          <internalNodes>
            0 -1 896 -1.0750835761427879e-02</internalNodes>
          <leafValues>
            -2.9881036281585693e-01 8.6201079189777374e-02</leafValues></_>
        <_>
          <internalNodes>
            0 -1 486 -2.0530838519334793e-03</internalNodes>
          <leafValues>
            -2.6630607247352600e-01 7.8360006213188171e-02</leafValues></_>
        <_>
          <internalNodes>
            0 -1 1473 -8.0851436359807849e-04</internalNodes>
          <leafValues>
            2.0862296223640442e-01 -1.0410071164369583e-01</leafValues></_>
        <_>
          <internalNodes>
            0 -1 1321 -1.3075700961053371e-02</internalNodes>
          <leafValues>
            5.0716388225555420e-01 -4.5962739735841751e-02</leafValues></_>
        <_>
          <internalNodes>
            0 -1 358 1.7715953290462494e-02</internalNodes>
          <leafValues>
            -1.3444119691848755e-01 1.4189775288105011e-01</leafValues></_>
        <_>
          <internalNodes>
            0 -1 1347 3.5982266068458557e-02</internalNodes>
          <leafValues>
            3.0157780274748802e-02 -6.3153600692749023e-01</leafValues></_>
        <_>
          <internalNodes>
            0 -1 1826 2.9162084683775902e-03</internalNodes>
          <leafValues>
            -7.1855984628200531e-02 2.7395239472389221e-01</leafValues></_>
        <_>
          <internalNodes>
            0 -1 720 2.1463269367814064e-03</internalNodes>
          <leafValues>
            -7.0590674877166748e-02 2.7841693162918091e-01</leafValues></_>
        <_>
          <internalNodes>
            0 -1 207 3.3309631980955601e-03</internalNodes>
          <leafValues>
            -8.2257859408855438e-02 2.2895371913909912e-01</leafValues></_>
        <_>
          <internalNodes>
            0 -1 2191 7.2186822071671486e-03</internalNodes>
          <leafValues>
            2.7385760098695755e-02 -7.2318094968795776e-01</leafValues></_>
        <_>
          <internalNodes>
            0 -1 864 3.6491993814706802e-03</internalNodes>
          <leafValues>
            -2.7119761705398560e-01 7.1986846625804901e-02</leafValues></_>
        <_>
          <internalNodes>
            0 -1 1424 2.5630379095673561e-03</internalNodes>
          <leafValues>
            -7.7894330024719238e-02 2.9533034563064575e-01</leafValues></_>
        <_>
          <internalNodes>
