<?xml version="1.0"?>
<opencv_storage>
<cascade>
  <stageType>BOOST</stageType>
  <featureType>HAAR</featureType>
  <height>20</height>
  <width>20</width>
  <stageParams>
    <boostType>GAB</boostType>
    <minHitRate>9.9500000476837158e-01</minHitRate>
    <maxFalseAlarm>5.0000000000000000e-01</maxFalseAlarm>
    <weightTrimRate>9.4999999999999996e-01</weightTrimRate>
    <maxDepth>1</maxDepth>
    <maxWeakCount>100</maxWeakCount></stageParams>
  <featureParams>
    <maxCatCount>0</maxCatCount>
    <featSize>1</featSize>
    <mode>BASIC</mode></featureParams>
  <stageNum>40</stageNum>
  <stages>
    <!-- stage 0 -->
    <_>
      <maxWeakCount>28</maxWeakCount>
      <stageThreshold>-9.6180194616317749e-01</stageThreshold>
      <weakClassifiers>
        <_>
          <internalNodes>
            0 -1 312 5.4857753217220306e-02</internalNodes>
          <leafValues>
            -3.2128512859344482e-01 7.1596246957778931e-01</leafValues></_>
        <_>
          <internalNodes>
            0 -1 1270 -3.2960534095764160e-02</internalNodes>
          <leafValues>
            5.1740431785583496e-01 -2.2482672333717346e-01</leafValues></_>
        <_>
          <internalNodes>
            0 -1 1653 -1.0997315403074026e-03</internalNodes>
          <leafValues>
            3.7262421846389771e-01 -2.8028249740600586e-01</leafValues></_>
        <_>
          <internalNodes>
            0 -1 2228 7.0605841465294361e-03</internalNodes>
          <leafValues>
            -1.7082831263542175e-01 4.7191014885902405e-01</leafValues></_>
        <_>
          <internalNodes>
            0 -1 569 5.1306389272212982e-02</internalNodes>
          <leafValues>
            -1.6203600168228149e-01 4.0249937772750854e-01</leafValues></_>
        <_>
          <internalNodes>
            0 -1 1227 -1.3181536924093962e-03</internalNodes>
          <leafValues>
            3.4770643711090088e-01 -1.7457705736160278e-01</leafValues></_>
        <_>
          <internalNodes>
            0 -1 528 2.9058221727609634e-02</internalNodes>
          <leafValues>
            -2.0410387217998505e-01 2.8413844108581543e-01</leafValues></_>
        <_>
          <internalNodes>
            0 -1 1474 -1.2386394664645195e-03</internalNodes>
          <leafValues>
            3.8406926393508911e-01 -1.1738334596157074e-01</leafValues></_>
        <_>
          <internalNodes>
            0 -1 1009 2.0905861165374517e-03</internalNodes>
          <leafValues>
            -1.6204914450645447e-01 2.4230177700519562e-01</leafValues></_>
        <_>
          <internalNodes>
            0 -1 2875 -2.1523158065974712e-03</internalNodes>
          <leafValues>
            -4.0477570891380310e-01 1.1557215452194214e-01</leafValues></_>
        <_>
          <internalNodes>
            0 -1 2766 3.3671571873128414e-03</internalNodes>
          <leafValues>
            -2.0187069475650787e-01 2.1128545701503754e-01</leafValues></_>
        <_>
          <internalNodes>
            0 -1 2290 1.7714085988700390e-03</internalNodes>
          <leafValues>
            -1.7059640586376190e-01 2.1640673279762268e-01</leafValues></_>
        <_>
          <internalNodes>
            0 -1 143 2.4808889254927635e-02</internalNodes>
          <leafValues>
            -1.7770487070083618e-01 2.2050136327743530e-01</leafValues></_>
        <_>
          <internalNodes>
            0 -1 355 1.5109005384147167e-02</internalNodes>
          <leafValues>
            -1.5884108841419220e-01 2.6276984810829163e-01</leafValues></_>
        <_>
          <internalNodes>
            0 -1 1884 -9.6882153302431107e-03</internalNodes>
          <leafValues>
            3.3036375045776367e-01 -1.1657007038593292e-01</leafValues></_>
        <_>
          <internalNodes>
            0 -1 359 4.3400842696428299e-02</internalNodes>
          <leafValues>
            6.3576705753803253e-02 -6.2053269147872925e-01</leafValues></_>
        <_>
          <internalNodes>
            0 -1 2579 -2.0243325270712376e-03</internalNodes>
          <leafValues>
            -5.2095133066177368e-01 6.5688453614711761e-02</leafValues></_>
        <_>
          <internalNodes>
            0 -1 2068 1.8190708942711353e-03</internalNodes>
          <leafValues>
            -1.5440554916858673e-01 2.3625770211219788e-01</leafValues></_>
        <_>
          <internalNodes>
            0 -1 441 1.3206155970692635e-02</internalNodes>
          <leafValues>
            -1.7742654681205750e-01 2.1891742944717407e-01</leafValues></_>
        <_>
          <internalNodes>
            0 -1 1495 2.0368825644254684e-02</internalNodes>
          <leafValues>
            -9.2300586402416229e-02 3.9629155397415161e-01</leafValues></_>
        <_>
          <internalNodes>
            0 -1 14 -7.3901486396789551e-01</internalNodes>
          <leafValues>
            5.9440135955810547e-01 -6.0225840657949448e-02</leafValues></_>
        <_>
          <internalNodes>
            0 -1 1613 -4.1910663247108459e-02</internalNodes>
          <leafValues>
            -7.9215741157531738e-01 5.4932557046413422e-02</leafValues></_>
        <_>
          <internalNodes>
            0 -1 769 1.2598301982507110e-03</internalNodes>
          <leafValues>
            -1.6645257174968719e-01 2.2099344432353973e-01</leafValues></_>
        <_>
          <internalNodes>
            0 -1 727 -1.1863252148032188e-02</internalNodes>
          <leafValues>
            -8.5661727190017700e-01 4.5085784047842026e-02</leafValues></_>
        <_>
          <internalNodes>
            0 -1 992 1.3557147467508912e-03</internalNodes>
          <leafValues>
            -1.0910627245903015e-01 3.2998993992805481e-01</leafValues></_>
        <_>
          <internalNodes>
            0 -1 92 -9.5900095999240875e-02</internalNodes>
          <leafValues>
            -5.1683664321899414e-01 6.6647402942180634e-02</leafValues></_>
        <_>
          <internalNodes>
            0 -1 2838 3.1850964296609163e-04</internalNodes>
          <leafValues>
            1.3223341107368469e-01 -2.4576444923877716e-01</leafValues></_>
        <_>
          <internalNodes>
            0 -1 2450 7.7978387475013733e-02</internalNodes>
          <leafValues>
            -1.0992161929607391e-01 3.0649065971374512e-01</leafValues></_></weakClassifiers></_>
    <!-- stage 1 -->
    <_>
      <maxWeakCount>44</maxWeakCount>
      <stageThreshold>-8.5546755790710449e-01</stageThreshold>
      <weakClassifiers>
        <_>
          <internalNodes>
            0 -1 481 9.5634110271930695e-02</internalNodes>
          <leafValues>
            -1.4035087823867798e-01 6.7948716878890991e-01</leafValues></_>
        <_>
          <internalNodes>
            0 -1 1267 -2.8340080752968788e-02</internalNodes>
          <leafValues>
            4.1740813851356506e-01 -1.9880497455596924e-01</leafValues></_>
        <_>
          <internalNodes>
            0 -1 1839 -3.7783568259328604e-03</internalNodes>
          <leafValues>
            4.1242024302482605e-01 -1.3767662644386292e-01</leafValues></_>
        <_>
          <internalNodes>
            0 -1 1195 -4.2631230317056179e-03</internalNodes>
          <leafValues>
            3.8173207640647888e-01 -1.4814454317092896e-01</leafValues></_>
        <_>
          <internalNodes>
            0 -1 2377 -5.8480058796703815e-03</internalNodes>
          <leafValues>
            3.9989134669303894e-01 -1.0568658262491226e-01</leafValues></_>
        <_>
          <internalNodes>
            0 -1 894 3.4237824380397797e-02</internalNodes>
          <leafValues>
            -1.4695401489734650e-01 3.1290072202682495e-01</leafValues></_>
        <_>
          <internalNodes>
            0 -1 697 1.1772003490477800e-03</internalNodes>
          <leafValues>
            1.4885120093822479e-01 -2.6461717486381531e-01</leafValues></_>
        <_>
          <internalNodes>
            0 -1 2034 -5.7502733543515205e-03</internalNodes>
          <leafValues>
            3.2555001974105835e-01 -1.1703386902809143e-01</leafValues></_>
        <_>
          <internalNodes>
            0 -1 1618 4.6780411154031754e-02</internalNodes>
          <leafValues>
            5.4272521287202835e-02 -7.3063832521438599e-01</leafValues></_>
        <_>
          <internalNodes>
            0 -1 2571 -2.0599830895662308e-03</internalNodes>
          <leafValues>
            -5.1224815845489502e-01 6.3161805272102356e-02</leafValues></_>
        <_>
          <internalNodes>
            0 -1 1240 1.4582610456272960e-03</internalNodes>
          <leafValues>
            -1.2193581461906433e-01 2.8062388300895691e-01</leafValues></_>
        <_>
          <internalNodes>
            0 -1 1163 -1.4258420560508966e-03</internalNodes>
          <leafValues>
            2.6741415262222290e-01 -1.2802219390869141e-01</leafValues></_>
        <_>
          <internalNodes>
            0 -1 2062 -2.5392729789018631e-02</internalNodes>
          <leafValues>
            1.8783661723136902e-01 -1.8082685768604279e-01</leafValues></_>
        <_>
          <internalNodes>
            0 -1 15 -1.9962561782449484e-03</internalNodes>
          <leafValues>
            -4.1526120901107788e-01 7.7685728669166565e-02</leafValues></_>
        <_>
          <internalNodes>
            0 -1 1695 1.4480956597253680e-03</internalNodes>
          <leafValues>
            -9.8383478820323944e-02 2.9849952459335327e-01</leafValues></_>
        <_>
          <internalNodes>
            0 -1 1234 -1.3895157724618912e-02</internalNodes>
          <leafValues>
            -5.8323210477828979e-01 6.1464387923479080e-02</leafValues></_>
        <_>
          <internalNodes>
            0 -1 2121 1.6650409670546651e-03</internalNodes>
          <leafValues>
            8.4063634276390076e-02 -3.6358365416526794e-01</leafValues></_>
        <_>
          <internalNodes>
            0 -1 2185 -2.0040601957589388e-03</internalNodes>
          <leafValues>
            3.5302120447158813e-01 -9.4582341611385345e-02</leafValues></_>
        <_>
          <internalNodes>
            0 -1 154 5.3663202561438084e-03</internalNodes>
          <leafValues>
            -1.4995574951171875e-01 1.9788445532321930e-01</leafValues></_>
        <_>
          <internalNodes>
            0 -1 278 -1.4838955830782652e-03</internalNodes>
          <leafValues>
            -3.3106437325477600e-01 9.2371687293052673e-02</leafValues></_>
        <_>
          <internalNodes>
            0 -1 1733 7.5040094088762999e-04</internalNodes>
          <leafValues>
            -1.2777042388916016e-01 2.4873797595500946e-01</leafValues></_>
        <_>
          <internalNodes>
            0 -1 1208 6.3691332936286926e-02</internalNodes>
          <leafValues>
            7.4483208358287811e-02 -3.9414614439010620e-01</leafValues></_>
        <_>
          <internalNodes>
            0 -1 422 1.9958042539656162e-03</internalNodes>
          <leafValues>
            -1.9830533862113953e-01 1.6076718270778656e-01</leafValues></_>
        <_>
          <internalNodes>
            0 -1 956 -1.6764003084972501e-03</internalNodes>
          <leafValues>
            3.0799755454063416e-01 -1.0350865125656128e-01</leafValues></_>
        <_>
          <internalNodes>
            0 -1 1620 -7.7800214290618896e-02</internalNodes>
          <leafValues>
            -9.7197401523590088e-01 2.7622500434517860e-02</leafValues></_>
        <_>
          <internalNodes>
            0 -1 42 -6.8132346868515015e-01</internalNodes>
          <leafValues>
            6.0834372043609619e-01 -6.1310976743698120e-02</leafValues></_>
        <_>
          <internalNodes>
            0 -1 101 4.7293677926063538e-02</internalNodes>
          <leafValues>
            -1.0282757133245468e-01 2.5152114033699036e-01</leafValues></_>
        <_>
          <internalNodes>
            0 -1 2403 8.2767271669581532e-04</internalNodes>
          <leafValues>
            -1.3996163010597229e-01 2.0831114053726196e-01</leafValues></_>
        <_>
          <internalNodes>
            0 -1 546 4.0217731148004532e-03</internalNodes>
          <leafValues>
            6.1505660414695740e-02 -4.7812756896018982e-01</leafValues></_>
        <_>
          <internalNodes>
            0 -1 2233 1.4254786074161530e-03</internalNodes>
          <leafValues>
            -1.0424201190471649e-01 2.6606410741806030e-01</leafValues></_>
        <_>
          <internalNodes>
            0 -1 1796 2.1539330482482910e-03</internalNodes>
          <leafValues>
            -1.6695649921894073e-01 1.7807097733020782e-01</leafValues></_>
        <_>
          <internalNodes>
            0 -1 1135 6.2112234532833099e-02</internalNodes>
          <leafValues>
            4.3829429894685745e-02 -6.9839906692504883e-01</leafValues></_>
        <_>
          <internalNodes>
            0 -1 682 4.3885745108127594e-03</internalNodes>
          <leafValues>
            -1.4596216380596161e-01 2.0343978703022003e-01</leafValues></_>
        <_>
          <internalNodes>
            0 -1 2091 5.3243758156895638e-03</internalNodes>
          <leafValues>
            6.3669450581073761e-02 -4.5169922709465027e-01</leafValues></_>
        <_>
          <internalNodes>
            0 -1 1158 -1.8067504279315472e-03</internalNodes>
          <leafValues>
            2.9976969957351685e-01 -9.2147581279277802e-02</leafValues></_>
        <_>
          <internalNodes>
            0 -1 2874 8.6161657236516476e-04</internalNodes>
          <leafValues>
            1.0400061309337616e-01 -2.8278684616088867e-01</leafValues></_>
        <_>
          <internalNodes>
            0 -1 2032 4.9840612336993217e-03</internalNodes>
          <leafValues>
            -8.7823092937469482e-02 3.4815400838851929e-01</leafValues></_>
        <_>
          <internalNodes>
            0 -1 538 -2.7123365551233292e-02</internalNodes>
          <leafValues>
            -3.3855217695236206e-01 8.8874652981758118e-02</leafValues></_>
        <_>
          <internalNodes>
            0 -1 2022 2.5045725051313639e-03</internalNodes>
          <leafValues>
            -7.2195783257484436e-02 4.3290919065475464e-01</leafValues></_>
        <_>
          <internalNodes>
            0 -1 2180 2.0122164860367775e-03</internalNodes>
          <leafValues>
            -1.1000899225473404e-01 2.6455464959144592e-01</leafValues></_>
        <_>
          <internalNodes>
            0 -1 2657 -1.3755939435213804e-03</internalNodes>
          <leafValues>
            -4.2233994603157043e-01 7.4288763105869293e-02</leafValues></_>
        <_>
          <internalNodes>
            0 -1 712 -4.5790039002895355e-03</internalNodes>
          <leafValues>
            -7.7639198303222656e-01 3.2374627888202667e-02</leafValues></_>
        <_>
          <internalNodes>
            0 -1 1211 -7.1283675730228424e-02</internalNodes>
          <leafValues>
            -5.2266615629196167e-01 4.2924154549837112e-02</leafValues></_>
        <_>
          <internalNodes>
            0 -1 2514 -1.0167462751269341e-02</internalNodes>
          <leafValues>
            1.8425399065017700e-01 -1.6556373238563538e-01</leafValues></_></weakClassifiers></_>
    <!-- stage 2 -->
    <_>
      <maxWeakCount>56</maxWeakCount>
      <stageThreshold>-8.2923698425292969e-01</stageThreshold>
      <weakClassifiers>
        <_>
          <internalNodes>
            0 -1 125 5.0133749842643738e-02</internalNodes>
          <leafValues>
            -1.0074626654386520e-01 6.1916464567184448e-01</leafValues></_>
        <_>
          <internalNodes>
            0 -1 2347 -2.5898631662130356e-02</internalNodes>
          <leafValues>
            3.5392773151397705e-01 -2.0261648297309875e-01</leafValues></_>
        <_>
          <internalNodes>
            0 -1 1452 2.0865611732006073e-02</internalNodes>
          <leafValues>
            -2.2671799361705780e-01 2.6948013901710510e-01</leafValues></_>
        <_>
          <internalNodes>
            0 -1 1195 -3.5388085525482893e-03</internalNodes>
          <leafValues>
            4.0209841728210449e-01 -1.3216796517372131e-01</leafValues></_>
        <_>
          <internalNodes>
            0 -1 579 4.7472424805164337e-02</internalNodes>
          <leafValues>
            -1.8530145287513733e-01 2.2093290090560913e-01</leafValues></_>
        <_>
          <internalNodes>
            0 -1 1435 -2.7426616288721561e-03</internalNodes>
          <leafValues>
            3.2306921482086182e-01 -1.1519096046686172e-01</leafValues></_>
        <_>
          <internalNodes>
            0 -1 1003 1.5075965784490108e-02</internalNodes>
          <leafValues>
            7.4301056563854218e-02 -4.3602418899536133e-01</leafValues></_>
        <_>
          <internalNodes>
            0 -1 1416 1.7333043506368995e-03</internalNodes>
          <leafValues>
            -1.4615890383720398e-01 2.1118396520614624e-01</leafValues></_>
        <_>
          <internalNodes>
            0 -1 1498 2.7673388831317425e-03</internalNodes>
          <leafValues>
            -8.6052961647510529e-02 3.0367717146873474e-01</leafValues></_>
        <_>
          <internalNodes>
            0 -1 4 1.5824373112991452e-03</internalNodes>
          <leafValues>
            8.3713024854660034e-02 -3.1610172986984253e-01</leafValues></_>
        <_>
          <internalNodes>
            0 -1 2011 -1.4800038188695908e-03</internalNodes>
          <leafValues>
            3.1734517216682434e-01 -8.4286861121654510e-02</leafValues></_>
        <_>
          <internalNodes>
            0 -1 2844 -6.8303341977298260e-03</internalNodes>
          <leafValues>
            -4.2432481050491333e-01 6.1574846506118774e-02</leafValues></_>
        <_>
          <internalNodes>
            0 -1 123 4.4376477599143982e-03</internalNodes>
          <leafValues>
            -1.6215218603610992e-01 1.6780173778533936e-01</leafValues></_>
        <_>
          <internalNodes>
            0 -1 1620 4.3795004487037659e-02</internalNodes>
          <leafValues>
            5.8884970843791962e-02 -4.9076834321022034e-01</leafValues></_>
        <_>
          <internalNodes>
            0 -1 1191 1.1337981559336185e-03</internalNodes>
          <leafValues>
            -1.0680770128965378e-01 2.8173765540122986e-01</leafValues></_>
        <_>
          <internalNodes>
            0 -1 2117 -2.9651303775608540e-03</internalNodes>
          <leafValues>
            1.9409157335758209e-01 -1.3777880370616913e-01</leafValues></_>
        <_>
          <internalNodes>
            0 -1 230 -1.0230042971670628e-03</internalNodes>
          <leafValues>
            -2.8293135762214661e-01 1.0273519903421402e-01</leafValues></_>
        <_>
          <internalNodes>
            0 -1 2791 -2.2951634600758553e-03</internalNodes>
          <leafValues>
            -2.7849331498146057e-01 9.5733605325222015e-02</leafValues></_>
        <_>
          <internalNodes>
            0 -1 2396 2.8725792653858662e-03</internalNodes>
          <leafValues>
            -1.2170737981796265e-01 2.1106129884719849e-01</leafValues></_>
        <_>
          <internalNodes>
            0 -1 2853 2.5336360558867455e-03</internalNodes>
          <leafValues>
            8.8667124509811401e-02 -3.1082633137702942e-01</leafValues></_>
        <_>
          <internalNodes>
            0 -1 1872 -1.9498176407068968e-03</internalNodes>
          <leafValues>
            2.8951498866081238e-01 -9.5077082514762878e-02</leafValues></_>
        <_>
          <internalNodes>
            0 -1 1352 -5.6789584457874298e-02</internalNodes>
          <leafValues>
            -6.8172824382781982e-01 3.7179604172706604e-02</leafValues></_>
        <_>
          <internalNodes>
            0 -1 2862 3.8850321434438229e-03</internalNodes>
          <leafValues>
            5.2729189395904541e-02 -4.3303331732749939e-01</leafValues></_>
        <_>
          <internalNodes>
            0 -1 835 1.1741282418370247e-02</internalNodes>
          <leafValues>
            -1.2675639986991882e-01 1.9082917273044586e-01</leafValues></_>
        <_>
          <internalNodes>
            0 -1 2246 -4.8443136620335281e-05</internalNodes>
          <leafValues>
            -1.9198310375213623e-01 1.3187752664089203e-01</leafValues></_>
        <_>
          <internalNodes>
            0 -1 1991 3.8145866710692644e-03</internalNodes>
          <leafValues>
            -1.0633263736963272e-01 2.1515820920467377e-01</leafValues></_>
        <_>
          <internalNodes>
            0 -1 882 -7.9091661609709263e-04</internalNodes>
          <leafValues>
            -2.1304172277450562e-01 1.0910022258758545e-01</leafValues></_>
        <_>
          <internalNodes>
            0 -1 2189 8.8709034025669098e-04</internalNodes>
          <leafValues>
            -1.1990278959274292e-01 1.9863079488277435e-01</leafValues></_>
        <_>
          <internalNodes>
            0 -1 2213 -2.9675643891096115e-03</internalNodes>
          <leafValues>
            2.6471742987632751e-01 -8.3081968128681183e-02</leafValues></_>
        <_>
          <internalNodes>
            0 -1 1299 2.9409062117338181e-03</internalNodes>
          <leafValues>
            1.0053785890340805e-01 -2.5039112567901611e-01</leafValues></_>
        <_>
          <internalNodes>
            0 -1 423 3.1064283102750778e-02</internalNodes>
          <leafValues>
            -1.3555534183979034e-01 1.6348998248577118e-01</leafValues></_>
        <_>
          <internalNodes>
            0 -1 0 -6.1259279027581215e-04</internalNodes>
          <leafValues>
            -2.5701758265495300e-01 1.0271239280700684e-01</leafValues></_>
        <_>
          <internalNodes>
            0 -1 2425 1.2405861634761095e-03</internalNodes>
          <leafValues>
            -1.0277496278285980e-01 2.4308210611343384e-01</leafValues></_>
        <_>
          <internalNodes>
            0 -1 1826 2.5975736789405346e-03</internalNodes>
          <leafValues>
            -8.6636841297149658e-02 2.8411066532135010e-01</leafValues></_>
        <_>
          <internalNodes>
            0 -1 2004 -7.9947775229811668e-03</internalNodes>
          <leafValues>
            -4.3624544143676758e-01 5.6633044034242630e-02</leafValues></_>
        <_>
          <internalNodes>
            0 -1 2011 7.4352184310555458e-04</internalNodes>
          <leafValues>
            -1.0759717971086502e-01 2.2857326269149780e-01</leafValues></_>
        <_>
          <internalNodes>
            0 -1 74 -2.4932792782783508e-01</internalNodes>
          <leafValues>
            5.9166496992111206e-01 -3.7369575351476669e-02</leafValues></_>
        <_>
          <internalNodes>
            0 -1 1156 1.7784307710826397e-03</internalNodes>
          <leafValues>
            -8.5780888795852661e-02 2.6688870787620544e-01</leafValues></_>
        <_>
          <internalNodes>
            0 -1 2789 9.6250744536519051e-04</internalNodes>
          <leafValues>
            7.9587854444980621e-02 -3.0466312170028687e-01</leafValues></_>
        <_>
          <internalNodes>
            0 -1 2221 -4.9574542790651321e-03</internalNodes>
          <leafValues>
            4.5929929614067078e-01 -5.4249718785285950e-02</leafValues></_>
        <_>
          <internalNodes>
            0 -1 2399 1.7879374325275421e-02</internalNodes>
          <leafValues>
            2.8735654428601265e-02 -8.9629673957824707e-01</leafValues></_>
        <_>
          <internalNodes>
            0 -1 1370 4.6753197908401489e-02</internalNodes>
          <leafValues>
            1.7216566950082779e-02 -9.1622853279113770e-01</leafValues></_>
        <_>
          <internalNodes>
            0 -1 2735 1.7115480732172728e-03</internalNodes>
          <leafValues>
            5.0605695694684982e-02 -3.7835475802421570e-01</leafValues></_>
        <_>
          <internalNodes>
            0 -1 2041 2.8590660542249680e-02</internalNodes>
          <leafValues>
            3.2576881349086761e-02 -6.4617091417312622e-01</leafValues></_>
        <_>
          <internalNodes>
            0 -1 1157 1.0170822497457266e-03</internalNodes>
          <leafValues>
            -1.0016583651304245e-01 2.2630782425403595e-01</leafValues></_>
        <_>
          <internalNodes>
            0 -1 1206 1.4554975554347038e-02</internalNodes>
          <leafValues>
            7.3392815887928009e-02 -3.3281174302101135e-01</leafValues></_>
        <_>
          <internalNodes>
            0 -1 1840 -7.2294096462428570e-03</internalNodes>
          <leafValues>
            -3.0177187919616699e-01 9.8134353756904602e-02</leafValues></_>
        <_>
          <internalNodes>
            0 -1 698 3.8056410849094391e-03</internalNodes>
          <leafValues>
            3.9384998381137848e-02 -6.0113984346389771e-01</leafValues></_>
        <_>
          <internalNodes>
            0 -1 778 6.6199570894241333e-02</internalNodes>
          <leafValues>
            4.4484168291091919e-02 -4.4963762164115906e-01</leafValues></_>
        <_>
          <internalNodes>
            0 -1 2106 7.6736655319109559e-04</internalNodes>
          <leafValues>
            -1.0031775385141373e-01 2.4032723903656006e-01</leafValues></_>
        <_>
          <internalNodes>
            0 -1 1062 2.4759841617196798e-03</internalNodes>
          <leafValues>
            -6.8750016391277313e-02 3.2108944654464722e-01</leafValues></_>
        <_>
          <internalNodes>
            0 -1 200 -3.9547625929117203e-03</internalNodes>
          <leafValues>
            -2.9150360822677612e-01 8.0618515610694885e-02</leafValues></_>
        <_>
          <internalNodes>
            0 -1 1271 1.7578057013452053e-03</internalNodes>
          <leafValues>
            -8.1318050622940063e-02 2.8099033236503601e-01</leafValues></_>
        <_>
          <internalNodes>
            0 -1 722 -8.1557482481002808e-03</internalNodes>
          <leafValues>
            -2.8001713752746582e-01 7.8808933496475220e-02</leafValues></_>
        <_>
          <internalNodes>
            0 -1 1568 -2.2656377404928207e-03</internalNodes>
          <leafValues>
            3.1095275282859802e-01 -7.7909469604492188e-02</leafValues></_>
        <_>
          <internalNodes>
            0 -1 1587 -9.9698838312178850e-05</internalNodes>
          <leafValues>
            1.7299692332744598e-01 -1.3568760454654694e-01</leafValues></_></weakClassifiers></_>
    <!-- stage 3 -->
    <_>
      <maxWeakCount>62</maxWeakCount>
      <stageThreshold>-7.7776223421096802e-01</stageThreshold>
      <weakClassifiers>
        <_>
          <internalNodes>
            0 -1 459 1.1825847625732422e-01</internalNodes>
          <leafValues>
            -6.2985330820083618e-02 6.3140815496444702e-01</leafValues></_>
        <_>
          <internalNodes>
            0 -1 847 -5.2572630345821381e-02</internalNodes>
          <leafValues>
            3.0739274621009827e-01 -2.1651916205883026e-01</leafValues></_>
        <_>
          <internalNodes>
            0 -1 2504 -9.4778221100568771e-03</internalNodes>
          <leafValues>
            2.6158332824707031e-01 -1.9676434993743896e-01</leafValues></_>
        <_>
          <internalNodes>
            0 -1 1680 -1.3920019846409559e-03</internalNodes>
          <leafValues>
            2.0832055807113647e-01 -1.9435743987560272e-01</leafValues></_>
        <_>
          <internalNodes>
            0 -1 1313 2.5918632745742798e-02</internalNodes>
          <leafValues>
            -1.3422666490077972e-01 2.5861063599586487e-01</leafValues></_>
        <_>
          <internalNodes>
            0 -1 1941 -3.8712245877832174e-03</internalNodes>
          <leafValues>
            1.2834194302558899e-01 -2.1702192723751068e-01</leafValues></_>
        <_>
          <internalNodes>
            0 -1 899 -1.0271599143743515e-01</internalNodes>
          <leafValues>
            3.7134429812431335e-01 -6.7469045519828796e-02</leafValues></_>
        <_>
          <internalNodes>
            0 -1 9 7.3294579982757568e-02</internalNodes>
          <leafValues>
            -1.4062215387821198e-01 1.8886117637157440e-01</leafValues></_>
        <_>
          <internalNodes>
            0 -1 1239 -5.9711211360991001e-04</internalNodes>
          <leafValues>
            2.2932568192481995e-01 -1.2337211519479752e-01</leafValues></_>
        <_>
          <internalNodes>
            0 -1 1243 3.4428671933710575e-03</internalNodes>
          <leafValues>
            -1.0182922333478928e-01 2.4851141870021820e-01</leafValues></_>
        <_>
          <internalNodes>
            0 -1 382 2.5047869421541691e-03</internalNodes>
          <leafValues>
            5.5171135812997818e-02 -4.6067222952842712e-01</leafValues></_>
        <_>
          <internalNodes>
            0 -1 2037 7.6168015599250793e-02</internalNodes>
          <leafValues>
            3.5630967468023300e-02 -6.3200247287750244e-01</leafValues></_>
        <_>
          <internalNodes>
            0 -1 2870 -2.2197803482413292e-03</internalNodes>
          <leafValues>
            -4.6360361576080322e-01 4.8844836652278900e-02</leafValues></_>
        <_>
          <internalNodes>
            0 -1 974 -6.3869456062093377e-04</internalNodes>
          <leafValues>
            2.0566529035568237e-01 -1.1610166728496552e-01</leafValues></_>
        <_>
          <internalNodes>
            0 -1 937 3.3191279508173466e-03</internalNodes>
          <leafValues>
            -7.0468485355377197e-02 3.0142059922218323e-01</leafValues></_>
        <_>
          <internalNodes>
            0 -1 2811 -3.4913765266537666e-03</internalNodes>
          <leafValues>
            -5.5001860857009888e-01 4.4310558587312698e-02</leafValues></_>
        <_>
          <internalNodes>
            0 -1 262 8.1824108958244324e-02</internalNodes>
          <leafValues>
            -1.0207898914813995e-01 2.3095075786113739e-01</leafValues></_>
        <_>
          <internalNodes>
            0 -1 1860 -5.8283912949264050e-04</internalNodes>
          <leafValues>
            1.5687981247901917e-01 -1.5943239629268646e-01</leafValues></_>
        <_>
          <internalNodes>
            0 -1 348 9.4096541404724121e-02</internalNodes>
          <leafValues>
            3.7316098809242249e-02 -6.4533442258834839e-01</leafValues></_>
        <_>
          <internalNodes>
            0 -1 2758 -4.9726604484021664e-03</internalNodes>
          <leafValues>
            -8.5910308361053467e-01 2.4916807189583778e-02</leafValues></_>
        <_>
          <internalNodes>
            0 -1 1740 1.1294004507362843e-03</internalNodes>
          <leafValues>
            -1.2306948006153107e-01 2.1601042151451111e-01</leafValues></_>
        <_>
          <internalNodes>
            0 -1 1386 3.7112946156412363e-03</internalNodes>
          <leafValues>
            -7.1310117840766907e-02 3.2023358345031738e-01</leafValues></_>
        <_>
          <internalNodes>
            0 -1 900 -1.2523669283837080e-03</internalNodes>
          <leafValues>
            -3.4508988261222839e-01 7.4393898248672485e-02</leafValues></_>
        <_>
          <internalNodes>
            0 -1 971 -1.5884802269283682e-04</internalNodes>
          <leafValues>
            1.6479748487472534e-01 -1.3261826336383820e-01</leafValues></_>
        <_>
          <internalNodes>
            0 -1 2262 -8.1664025783538818e-03</internalNodes>
          <leafValues>
            1.5544775128364563e-01 -1.5583558380603790e-01</leafValues></_>
        <_>
          <internalNodes>
            0 -1 497 -4.6556353569030762e-02</internalNodes>
          <leafValues>
            -5.3820806741714478e-01 4.0742337703704834e-02</leafValues></_>
        <_>
          <internalNodes>
            0 -1 550 1.7095472663640976e-02</internalNodes>
          <leafValues>
            -1.0875116288661957e-01 2.1686314046382904e-01</leafValues></_>
        <_>
          <internalNodes>
            0 -1 152 3.6169071681797504e-03</internalNodes>
          <leafValues>
            -1.2540006637573242e-01 1.7037957906723022e-01</leafValues></_>
        <_>
          <internalNodes>
            0 -1 228 -3.9799576625227928e-03</internalNodes>
          <leafValues>
            -4.9108955264091492e-01 4.4072367250919342e-02</leafValues></_>
        <_>
          <internalNodes>
            0 -1 2201 4.0794797241687775e-03</internalNodes>
          <leafValues>
            -9.4511404633522034e-02 2.2495156526565552e-01</leafValues></_>
        <_>
          <internalNodes>
            0 -1 2201 -1.2306985445320606e-03</internalNodes>
          <leafValues>
            1.8076831102371216e-01 -1.2594565749168396e-01</leafValues></_>
        <_>
          <internalNodes>
            0 -1 2732 -1.6957391053438187e-03</internalNodes>
          <leafValues>
            -3.4024554491043091e-01 6.5423525869846344e-02</leafValues></_>
        <_>
          <internalNodes>
            0 -1 2653 -2.0443173125386238e-03</internalNodes>
          <leafValues>
            -2.8861993551254272e-01 7.1279190480709076e-02</leafValues></_>
        <_>
          <internalNodes>
            0 -1 897 1.6161525249481201e-01</internalNodes>
          <leafValues>
            6.8303957581520081e-02 -3.1224241852760315e-01</leafValues></_>
        <_>
          <internalNodes>
            0 -1 2576 6.0589898377656937e-02</internalNodes>
          <leafValues>
            -1.0266277194023132e-01 2.2041900455951691e-01</leafValues></_>
        <_>
          <internalNodes>
            0 -1 1355 -6.0504972934722900e-02</internalNodes>
          <leafValues>
            -8.0058103799819946e-01 2.9049498960375786e-02</leafValues></_>
        <_>
          <internalNodes>
            0 -1 2799 -5.1396165508776903e-04</internalNodes>
          <leafValues>
            -2.3396943509578705e-01 8.2953721284866333e-02</leafValues></_>
        <_>
          <internalNodes>
            0 -1 709 -5.3848844021558762e-02</internalNodes>
          <leafValues>
            3.1673359870910645e-01 -6.7813217639923096e-02</leafValues></_>
        <_>
          <internalNodes>
            0 -1 1720 5.7894058525562286e-02</internalNodes>
          <leafValues>
            -5.1141798496246338e-02 4.2635753750801086e-01</leafValues></_>
        <_>
          <internalNodes>
            0 -1 1859 1.8497116398066282e-03</internalNodes>
          <leafValues>
            -1.1872917413711548e-01 1.8858815729618073e-01</leafValues></_>
        <_>
          <internalNodes>
            0 -1 2301 3.8643579930067062e-02</internalNodes>
          <leafValues>
            2.8529915958642960e-02 -6.9130527973175049e-01</leafValues></_>
        <_>
          <internalNodes>
            0 -1 870 -3.1527586281299591e-02</internalNodes>
          <leafValues>
            6.9094324111938477e-01 -3.4402616322040558e-02</leafValues></_>
        <_>
          <internalNodes>
            0 -1 1121 -1.7617598641663790e-03</internalNodes>
          <leafValues>
            2.1742697060108185e-01 -9.7094431519508362e-02</leafValues></_>
        <_>
          <internalNodes>
            0 -1 1650 -1.5928011853247881e-03</internalNodes>
          <leafValues>
            1.9898074865341187e-01 -1.0869546234607697e-01</leafValues></_>
        <_>
          <internalNodes>
            0 -1 2381 1.1623082682490349e-02</internalNodes>
          <leafValues>
            3.0485937371850014e-02 -7.6950585842132568e-01</leafValues></_>
        <_>
          <internalNodes>
            0 -1 2518 -2.9307031072676182e-03</internalNodes>
          <leafValues>
            -3.7974694371223450e-01 5.2072495222091675e-02</leafValues></_>
        <_>
          <internalNodes>
            0 -1 307 6.5212324261665344e-02</internalNodes>
          <leafValues>
            2.9790336266160011e-02 -7.0102590322494507e-01</leafValues></_>
        <_>
          <internalNodes>
            0 -1 1810 -1.0094988392665982e-03</internalNodes>
          <leafValues>
            2.4234265089035034e-01 -8.9373335242271423e-02</leafValues></_>
        <_>
          <internalNodes>
            0 -1 683 2.3875404149293900e-02</internalNodes>
          <leafValues>
            -9.7703039646148682e-02 2.3397141695022583e-01</leafValues></_>
        <_>
          <internalNodes>
            0 -1 1683 1.2175339506939054e-03</internalNodes>
          <leafValues>
            -1.3313761353492737e-01 1.7265935242176056e-01</leafValues></_>
        <_>
          <internalNodes>
            0 -1 1449 1.5482338145375252e-02</internalNodes>
          <leafValues>
            3.9891537278890610e-02 -5.8532738685607910e-01</leafValues></_>
        <_>
          <internalNodes>
            0 -1 1225 -2.1585267968475819e-03</internalNodes>
          <leafValues>
            2.3658141493797302e-01 -9.9715933203697205e-02</leafValues></_>
        <_>
          <internalNodes>
            0 -1 212 9.9667739123106003e-03</internalNodes>
          <leafValues>
            6.0219161212444305e-02 -4.0780755877494812e-01</leafValues></_>
        <_>
          <internalNodes>
            0 -1 1830 2.9833894222974777e-02</internalNodes>
          <leafValues>
            3.7567038089036942e-02 -5.8106344938278198e-01</leafValues></_>
        <_>
          <internalNodes>
            0 -1 1 3.3702913206070662e-03</internalNodes>
          <leafValues>
            2.8109284117817879e-02 -6.6652560234069824e-01</leafValues></_>
        <_>
          <internalNodes>
            0 -1 1229 -7.5618582777678967e-03</internalNodes>
          <leafValues>
            5.5081695318222046e-01 -4.3761014938354492e-02</leafValues></_>
        <_>
          <internalNodes>
            0 -1 1272 2.2452115081250668e-03</internalNodes>
          <leafValues>
            -8.0316334962844849e-02 2.6761138439178467e-01</leafValues></_>
        <_>
          <internalNodes>
            0 -1 2183 4.4237215071916580e-02</internalNodes>
          <leafValues>
            -6.8550772964954376e-02 3.1435617804527283e-01</leafValues></_>
        <_>
          <internalNodes>
            0 -1 2686 -1.1170218698680401e-02</internalNodes>
          <leafValues>
            -3.0266800522804260e-01 7.6881319284439087e-02</leafValues></_>
        <_>
          <internalNodes>
            0 -1 1169 -3.2145403325557709e-02</internalNodes>
          <leafValues>
            -4.3728619813919067e-01 4.7628726810216904e-02</leafValues></_>
        <_>
          <internalNodes>
            0 -1 205 4.3845877051353455e-02</internalNodes>
          <leafValues>
            7.2838395833969116e-02 -2.9355540871620178e-01</leafValues></_>
        <_>
          <internalNodes>
            0 -1 286 3.7853658199310303e-02</internalNodes>
          <leafValues>
            -1.1292577534914017e-01 1.9334055483341217e-01</leafValues></_></weakClassifiers></_>
    <!-- stage 4 -->
    <_>
      <maxWeakCount>66</maxWeakCount>
      <stageThreshold>-7.2404855489730835e-01</stageThreshold>
      <weakClassifiers>
        <_>
          <internalNodes>
            0 -1 313 1.3145005702972412e-01</internalNodes>
          <leafValues>
            3.4369885921478271e-02 5.8051419258117676e-01</leafValues></_>
        <_>
          <internalNodes>
            0 -1 1654 7.3677105829119682e-03</internalNodes>
          <leafValues>
            -9.9071145057678223e-02 4.1438099741935730e-01</leafValues></_>
        <_>
          <internalNodes>
            0 -1 2475 1.8117412924766541e-02</internalNodes>
          <leafValues>
            -1.1781677603721619e-01 3.8600510358810425e-01</leafValues></_>
        <_>
          <internalNodes>
            0 -1 1239 -1.1223517358303070e-03</internalNodes>
          <leafValues>
            2.7605295181274414e-01 -1.3279016315937042e-01</leafValues></_>
        <_>
          <internalNodes>
            0 -1 1739 -2.5361614301800728e-02</internalNodes>
          <leafValues>
            1.5782266855239868e-01 -1.8345810472965240e-01</leafValues></_>
        <_>
          <internalNodes>
            0 -1 1032 2.0041898824274540e-03</internalNodes>
          <leafValues>
            -8.6732067167758942e-02 3.6844000220298767e-01</leafValues></_>
        <_>
          <internalNodes>
            0 -1 1952 1.1933962814509869e-03</internalNodes>
          <leafValues>
            -9.7649320960044861e-02 2.4566197395324707e-01</leafValues></_>
        <_>
          <internalNodes>
            0 -1 2472 -2.0299598574638367e-02</internalNodes>
          <leafValues>
            2.4245370924472809e-01 -8.7390027940273285e-02</leafValues></_>
        <_>
          <internalNodes>
            0 -1 1528 2.3226272314786911e-03</internalNodes>
          <leafValues>
            4.8721801489591599e-02 -4.4397029280662537e-01</leafValues></_>
        <_>
          <internalNodes>
            0 -1 692 -3.2319538295269012e-02</internalNodes>
          <leafValues>
            -2.6354748010635376e-01 8.4684036672115326e-02</leafValues></_>
        <_>
          <internalNodes>
            0 -1 2220 -1.6440299805253744e-03</internalNodes>
          <leafValues>
            3.2845738530158997e-01 -7.6357848942279816e-02</leafValues></_>
        <_>
          <internalNodes>
            0 -1 1187 4.9845673143863678e-02</internalNodes>
          <leafValues>
            4.2691908776760101e-02 -6.4940911531448364e-01</leafValues></_>
        <_>
          <internalNodes>
            0 -1 2212 2.9563778080046177e-03</internalNodes>
          <leafValues>
            -1.0471145808696747e-01 2.4029539525508881e-01</leafValues></_>
        <_>
          <internalNodes>
            0 -1 2366 1.5015153912827373e-03</internalNodes>
          <leafValues>
            -1.2348344177007675e-01 2.0753653347492218e-01</leafValues></_>
        <_>
          <internalNodes>
            0 -1 118 -3.0675102025270462e-03</internalNodes>
          <leafValues>
            -3.0519145727157593e-01 8.1863552331924438e-02</leafValues></_>
        <_>
          <internalNodes>
            0 -1 1528 -1.9852523691952229e-03</internalNodes>
          <leafValues>
            -4.5813041925430298e-01 4.6238847076892853e-02</leafValues></_>
        <_>
          <internalNodes>
            0 -1 1636 -4.0303699672222137e-02</internalNodes>
          <leafValues>
            -6.2314939498901367e-01 3.6069288849830627e-02</leafValues></_>
        <_>
          <internalNodes>
            0 -1 2327 1.1811265721917152e-03</internalNodes>
          <leafValues>
            -1.0836270451545715e-01 2.1428199112415314e-01</leafValues></_>
        <_>
          <internalNodes>
            0 -1 1335 -5.0947046838700771e-03</internalNodes>
          <leafValues>
            4.4269472360610962e-01 -4.6550184488296509e-02</leafValues></_>
        <_>
          <internalNodes>
            0 -1 2722 6.4327782019972801e-03</internalNodes>
          <leafValues>
            5.2422128617763519e-02 -4.2467853426933289e-01</leafValues></_>
        <_>
          <internalNodes>
            0 -1 2803 -3.7829480133950710e-03</internalNodes>
          <leafValues>
            -4.9410289525985718e-01 4.2348649352788925e-02</leafValues></_>
        <_>
          <internalNodes>
            0 -1 2008 1.1654247064143419e-03</internalNodes>
          <leafValues>
            -1.2266941368579865e-01 1.7188535630702972e-01</leafValues></_>
        <_>
          <internalNodes>
            0 -1 1360 -1.8222015351057053e-02</internalNodes>
          <leafValues>
            -2.8757020831108093e-01 8.5896119475364685e-02</leafValues></_>
        <_>
          <internalNodes>
            0 -1 1876 2.7016429230570793e-03</internalNodes>
          <leafValues>
            -9.8786570131778717e-02 2.4848048388957977e-01</leafValues></_>
        <_>
          <internalNodes>
            0 -1 1003 -1.8293969333171844e-02</internalNodes>
          <leafValues>
            -5.0762820243835449e-01 4.2088679969310760e-02</leafValues></_>
        <_>
          <internalNodes>
            0 -1 1893 9.4076892128214240e-04</internalNodes>
          <leafValues>
            -1.0550785064697266e-01 2.1362428367137909e-01</leafValues></_>
        <_>
          <internalNodes>
            0 -1 41 -6.7190639674663544e-02</internalNodes>
          <leafValues>
            -2.2273071110248566e-01 9.9859245121479034e-02</leafValues></_>
        <_>
          <internalNodes>
            0 -1 2409 -3.5732183605432510e-03</internalNodes>
          <leafValues>
            1.6098414361476898e-01 -1.5097133815288544e-01</leafValues></_>
        <_>
          <internalNodes>
            0 -1 1025 6.6330894827842712e-02</internalNodes>
          <leafValues>
            3.6337815225124359e-02 -5.8712804317474365e-01</leafValues></_>
        <_>
          <internalNodes>
            0 -1 1087 -1.1258064210414886e-01</internalNodes>
          <leafValues>
            8.5136133432388306e-01 -2.4853844195604324e-02</leafValues></_>
        <_>
          <internalNodes>
            0 -1 229 9.5066003268584609e-04</internalNodes>
          <leafValues>
            8.6866006255149841e-02 -2.7356567978858948e-01</leafValues></_>
        <_>
          <internalNodes>
            0 -1 723 4.3686553835868835e-03</internalNodes>
          <leafValues>
            2.7264583855867386e-02 -6.9265210628509521e-01</leafValues></_>
        <_>
          <internalNodes>
            0 -1 1225 -2.5422296021133661e-03</internalNodes>
          <leafValues>
            2.4428062140941620e-01 -8.6138010025024414e-02</leafValues></_>
        <_>
          <internalNodes>
            0 -1 1747 -4.4183707796037197e-03</internalNodes>
          <leafValues>
            2.8672906756401062e-01 -7.2525151073932648e-02</leafValues></_>
        <_>
          <internalNodes>
            0 -1 1949 1.6933304723352194e-03</internalNodes>
          <leafValues>
            -8.9947044849395752e-02 2.4686990678310394e-01</leafValues></_>
        <_>
          <internalNodes>
            0 -1 1321 -2.4036245420575142e-02</internalNodes>
          <leafValues>
            -5.8281469345092773e-01 3.7314664572477341e-02</leafValues></_>
        <_>
          <internalNodes>
            0 -1 699 -2.0094180945307016e-03</internalNodes>
          <leafValues>
            -3.2820996642112732e-01 6.3635289669036865e-02</leafValues></_>
        <_>
          <internalNodes>
            0 -1 1944 1.5840258449316025e-02</internalNodes>
          <leafValues>
            2.3997621610760689e-02 -7.6898539066314697e-01</leafValues></_>
        <_>
          <internalNodes>
            0 -1 1372 2.0081859081983566e-02</internalNodes>
          <leafValues>
            5.1716003566980362e-02 -3.6346995830535889e-01</leafValues></_>
        <_>
          <internalNodes>
            0 -1 952 7.0794716477394104e-02</internalNodes>
          <leafValues>
            3.0717365443706512e-02 -5.5481880903244019e-01</leafValues></_>
        <_>
          <internalNodes>
            0 -1 1174 3.9487765170633793e-03</internalNodes>
          <leafValues>
            -6.3189946115016937e-02 2.9788646101951599e-01</leafValues></_>
        <_>
          <internalNodes>
            0 -1 295 -4.8449197784066200e-03</internalNodes>
          <leafValues>
            -2.5659322738647461e-01 7.4997715651988983e-02</leafValues></_>
        <_>
          <internalNodes>
            0 -1 2868 -2.6352300774306059e-03</internalNodes>
          <leafValues>
            -2.7777490019798279e-01 6.3937231898307800e-02</leafValues></_>
        <_>
          <internalNodes>
            0 -1 1799 -9.8071550019085407e-04</internalNodes>
          <leafValues>
            2.2335885465145111e-01 -9.1250434517860413e-02</leafValues></_>
        <_>
          <internalNodes>
            0 -1 1242 1.2935939012095332e-03</internalNodes>
          <leafValues>
            -8.6322888731956482e-02 2.4063110351562500e-01</leafValues></_>
        <_>
          <internalNodes>
            0 -1 2408 6.8985270336270332e-03</internalNodes>
          <leafValues>
            2.7450453490018845e-02 -6.5850853919982910e-01</leafValues></_>
        <_>
          <internalNodes>
            0 -1 2333 1.7224629409611225e-03</internalNodes>
          <leafValues>
            -6.7206114530563354e-02 3.0153483152389526e-01</leafValues></_>
        <_>
          <internalNodes>
            0 -1 1790 7.2316441219300032e-04</internalNodes>
          <leafValues>
            -9.8330140113830566e-02 1.9605529308319092e-01</leafValues></_>
        <_>
          <internalNodes>
            0 -1 134 -7.0529337972402573e-03</internalNodes>
          <leafValues>
            -2.7050086855888367e-01 7.5284443795681000e-02</leafValues></_>
        <_>
          <internalNodes>
            0 -1 2659 7.7766384929418564e-03</internalNodes>
          <leafValues>
            8.3750866353511810e-02 -2.5577351450920105e-01</leafValues></_>
        <_>
          <internalNodes>
            0 -1 1100 1.5760266780853271e-01</internalNodes>
          <leafValues>
            3.4890498965978622e-02 -5.1946771144866943e-01</leafValues></_>
        <_>
          <internalNodes>
            0 -1 435 2.7286123484373093e-02</internalNodes>
          <leafValues>
            -1.2231419980525970e-01 1.8500117957592010e-01</leafValues></_>
        <_>
          <internalNodes>
            0 -1 2154 3.0978545546531677e-03</internalNodes>
          <leafValues>
            -1.1532761901617050e-01 1.9862620532512665e-01</leafValues></_>
        <_>
          <internalNodes>
            0 -1 160 2.0018985867500305e-01</internalNodes>
          <leafValues>
            3.7886433303356171e-02 -5.6903785467147827e-01</leafValues></_>
        <_>
          <internalNodes>
            0 -1 2795 3.6032113712280989e-04</internalNodes>
          <leafValues>
            8.2610629498958588e-02 -2.3899321258068085e-01</leafValues></_>
        <_>
          <internalNodes>
            0 -1 1510 4.1058793431147933e-04</internalNodes>
          <leafValues>
            -9.7687028348445892e-02 2.0188063383102417e-01</leafValues></_>
        <_>
          <internalNodes>
            0 -1 121 9.5821190625429153e-03</internalNodes>
          <leafValues>
            -6.7394882440567017e-02 2.9081693291664124e-01</leafValues></_>
        <_>
          <internalNodes>
            0 -1 377 4.1887052357196808e-03</internalNodes>
          <leafValues>
            7.8964807093143463e-02 -2.4891881644725800e-01</leafValues></_>
        <_>
          <internalNodes>
            0 -1 2873 1.5000806888565421e-04</internalNodes>
          <leafValues>
            1.1994235217571259e-01 -1.6946016252040863e-01</leafValues></_>
        <_>
          <internalNodes>
            0 -1 2880 -2.7250228449702263e-02</internalNodes>
          <leafValues>
            6.2182241678237915e-01 -3.1966440379619598e-02</leafValues></_>
        <_>
          <internalNodes>
            0 -1 1825 -1.3185074785724282e-03</internalNodes>
          <leafValues>
            2.0895391702651978e-01 -8.7756425142288208e-02</leafValues></_>
        <_>
          <internalNodes>
            0 -1 900 -1.8013347871601582e-03</internalNodes>
          <leafValues>
            -3.8818049430847168e-01 5.0895407795906067e-02</leafValues></_>
        <_>
          <internalNodes>
            0 -1 2820 9.5933966804295778e-04</internalNodes>
          <leafValues>
            -1.1332442611455917e-01 1.6762405633926392e-01</leafValues></_>
        <_>
          <internalNodes>
            0 -1 2752 -2.2249829489737749e-03</internalNodes>
          <leafValues>
            -4.0146693587303162e-01 5.3292341530323029e-02</leafValues></_>
        <_>
          <internalNodes>
            0 -1 374 -1.1913476511836052e-02</internalNodes>
          <leafValues>
            -2.3448799550533295e-01 8.4170483052730560e-02</leafValues></_>
        <_>
          <internalNodes>
            0 -1 1632 1.9299905747175217e-02</internalNodes>
          <leafValues>
            3.4837685525417328e-02 -5.4254567623138428e-01</leafValues></_></weakClassifiers></_>
    <!-- stage 5 -->
    <_>
      <maxWeakCount>77</maxWeakCount>
      <stageThreshold>-6.7620348930358887e-01</stageThreshold>
      <weakClassifiers>
        <_>
          <internalNodes>
            0 -1 459 1.8288937211036682e-01</internalNodes>
          <leafValues>
            1.2467191368341446e-01 6.0374146699905396e-01</leafValues></_>
        <_>
          <internalNodes>
            0 -1 1505 -1.7209902405738831e-02</internalNodes>
          <leafValues>
            2.3110058903694153e-01 -2.0597089827060699e-01</leafValues></_>
        <_>
          <internalNodes>
            0 -1 2339 6.5455017611384392e-03</internalNodes>
          <leafValues>
            -9.5607951283454895e-02 4.2859154939651489e-01</leafValues></_>
        <_>
          <internalNodes>
            0 -1 1383 5.2497265860438347e-03</internalNodes>
          <leafValues>
            -1.6018199920654297e-01 2.8061199188232422e-01</leafValues></_>
        <_>
          <internalNodes>
            0 -1 271 1.0063687805086374e-03</internalNodes>
          <leafValues>
            9.3569219112396240e-02 -2.9401254653930664e-01</leafValues></_>
        <_>
          <internalNodes>
            0 -1 1843 -4.7555118799209595e-03</internalNodes>
          <leafValues>
            2.3636053502559662e-01 -1.1189047992229462e-01</leafValues></_>
        <_>
          <internalNodes>
            0 -1 475 -3.5415735095739365e-02</internalNodes>
          <leafValues>
            -3.8037875294685364e-01 6.4193367958068848e-02</leafValues></_>
        <_>
          <internalNodes>
            0 -1 2586 1.1290242895483971e-02</internalNodes>
          <leafValues>
            6.6274642944335938e-02 -3.5916715860366821e-01</leafValues></_>
        <_>
          <internalNodes>
            0 -1 1207 -4.3737545609474182e-02</internalNodes>
          <leafValues>
            -5.5804532766342163e-01 3.7855852395296097e-02</leafValues></_>
        <_>
          <internalNodes>
            0 -1 1728 3.8858396001160145e-03</internalNodes>
          <leafValues>
            -1.1400452256202698e-01 1.9608986377716064e-01</leafValues></_>
        <_>
          <internalNodes>
            0 -1 362 6.6834740340709686e-02</internalNodes>
          <leafValues>
            -3.7173565477132797e-02 5.3294092416763306e-01</leafValues></_>
        <_>
          <internalNodes>
            0 -1 1619 2.8216216713190079e-02</internalNodes>
          <leafValues>
            -1.2437229603528976e-01 1.7591215670108795e-01</leafValues></_>
        <_>
          <internalNodes>
            0 -1 878 -1.9785434007644653e-02</internalNodes>
          <leafValues>
            -2.9626604914665222e-01 7.1024939417839050e-02</leafValues></_>
        <_>
          <internalNodes>
            0 -1 2492 -1.0745874606072903e-03</internalNodes>
          <leafValues>
            2.3082423210144043e-01 -8.9160621166229248e-02</leafValues></_>
        <_>
          <internalNodes>
            0 -1 2587 -4.1027059778571129e-03</internalNodes>
          <leafValues>
            -3.0638951063156128e-01 7.4537821114063263e-02</leafValues></_>
        <_>
          <internalNodes>
            0 -1 2036 1.5809652395546436e-03</internalNodes>
          <leafValues>
            -1.0843507200479507e-01 2.0373094081878662e-01</leafValues></_>
        <_>
          <internalNodes>
            0 -1 2569 1.6215056180953979e-02</internalNodes>
          <leafValues>
            8.1027708947658539e-02 -2.5753453373908997e-01</leafValues></_>
        <_>
          <internalNodes>
            0 -1 996 -1.9073397852480412e-03</internalNodes>
          <leafValues>
            2.9438978433609009e-01 -7.5632907450199127e-02</leafValues></_>
        <_>
          <internalNodes>
            0 -1 654 9.1539332643151283e-03</internalNodes>
          <leafValues>
            4.9802258610725403e-02 -4.7615474462509155e-01</leafValues></_>
        <_>
          <internalNodes>
            0 -1 996 1.0248901089653373e-03</internalNodes>
          <leafValues>
            -9.4425641000270844e-02 2.1413259208202362e-01</leafValues></_>
        <_>
          <internalNodes>
            0 -1 872 -4.1383011266589165e-03</internalNodes>
          <leafValues>
            -5.6407678127288818e-01 3.8346420973539352e-02</leafValues></_>
        <_>
          <internalNodes>
            0 -1 1033 -2.0168665796518326e-03</internalNodes>
          <leafValues>
            3.1139361858367920e-01 -6.9909095764160156e-02</leafValues></_>
        <_>
          <internalNodes>
            0 -1 1072 -4.4410917907953262e-03</internalNodes>
          <leafValues>
            -6.3970941305160522e-01 3.3743102103471756e-02</leafValues></_>
        <_>
          <internalNodes>
            0 -1 1613 -1.6470594331622124e-02</internalNodes>
          <leafValues>
            -2.6607462763786316e-01 7.7469408512115479e-02</leafValues></_>
        <_>
          <internalNodes>
            0 -1 869 3.8205198943614960e-02</internalNodes>
          <leafValues>
            3.9376489818096161e-02 -5.5198585987091064e-01</leafValues></_>
        <_>
          <internalNodes>
            0 -1 2792 -5.3447112441062927e-04</internalNodes>
          <leafValues>
            -2.2468043863773346e-01 9.6917204558849335e-02</leafValues></_>
        <_>
          <internalNodes>
            0 -1 243 1.1843839287757874e-01</internalNodes>
          <leafValues>
            -4.2422361671924591e-02 4.5476320385932922e-01</leafValues></_>
        <_>
          <internalNodes>
            0 -1 1162 -1.1597502976655960e-02</internalNodes>
          <leafValues>
            4.1120937466621399e-01 -4.5134343206882477e-02</leafValues></_>
        <_>
          <internalNodes>
            0 -1 1477 -1.1912991758435965e-03</internalNodes>
          <leafValues>
            2.1778710186481476e-01 -9.6610985696315765e-02</leafValues></_>
        <_>
          <internalNodes>
            0 -1 1133 -4.8340186476707458e-02</internalNodes>
          <leafValues>
            -5.6145972013473511e-01 3.7691079080104828e-02</leafValues></_>
        <_>
          <internalNodes>
            0 -1 105 -4.9052638933062553e-03</internalNodes>
          <leafValues>
            -2.2371056675910950e-01 8.2211591303348541e-02</leafValues></_>
        <_>
          <internalNodes>
            0 -1 2031 1.4639643486589193e-03</internalNodes>
          <leafValues>
            -9.3772873282432556e-02 2.0023454725742340e-01</leafValues></_>
        <_>
          <internalNodes>
            0 -1 755 -7.6746776700019836e-02</internalNodes>
          <leafValues>
            -9.2758917808532715e-01 2.1992623805999756e-02</leafValues></_>
        <_>
          <internalNodes>
            0 -1 2565 2.6881619123741984e-04</internalNodes>
          <leafValues>
            9.4974316656589508e-02 -1.8891754746437073e-01</leafValues></_>
        <_>
          <internalNodes>
            0 -1 1478 1.2548345141112804e-02</internalNodes>
          <leafValues>
            -3.3644292503595352e-02 5.1049554347991943e-01</leafValues></_>
        <_>
          <internalNodes>
            0 -1 793 -1.8374558538198471e-02</internalNodes>
          <leafValues>
            -3.0581951141357422e-01 6.1486303806304932e-02</leafValues></_>
        <_>
          <internalNodes>
            0 -1 1614 -5.8380171656608582e-02</internalNodes>
          <leafValues>
            -6.5356373786926270e-01 2.5694170966744423e-02</leafValues></_>
        <_>
          <internalNodes>
            0 -1 1528 -2.1055541001260281e-03</internalNodes>
          <leafValues>
            -4.0908068418502808e-01 3.7712741643190384e-02</leafValues></_>
        <_>
          <internalNodes>
            0 -1 2006 4.1462160646915436e-02</internalNodes>
          <leafValues>
            3.1399231404066086e-02 -5.7033133506774902e-01</leafValues></_>
        <_>
          <internalNodes>
            0 -1 1559 2.1631035953760147e-02</internalNodes>
          <leafValues>
            -1.2105497717857361e-01 1.7304347455501556e-01</leafValues></_>
        <_>
          <internalNodes>
            0 -1 2046 -2.3203715682029724e-02</internalNodes>
          <leafValues>
            -4.5884537696838379e-01 4.3051555752754211e-02</leafValues></_>
        <_>
          <internalNodes>
            0 -1 1548 -5.2997628226876259e-03</internalNodes>
          <leafValues>
            -2.8969368338584900e-01 6.4725376665592194e-02</leafValues></_>
        <_>
          <internalNodes>
            0 -1 2359 2.4105880409479141e-02</internalNodes>
          <leafValues>
            -7.8697554767131805e-02 2.3406861722469330e-01</leafValues></_>
        <_>
          <internalNodes>
            0 -1 2516 -1.8873156514018774e-03</internalNodes>
          <leafValues>
            1.8348434567451477e-01 -1.2425365298986435e-01</leafValues></_>
        <_>
          <internalNodes>
            0 -1 2570 3.1555239111185074e-03</internalNodes>
          <leafValues>
            5.9561349451541901e-02 -3.0207547545433044e-01</leafValues></_>
        <_>
          <internalNodes>
            0 -1 2226 6.5802456811070442e-03</internalNodes>
          <leafValues>
            -6.5537624061107635e-02 2.7776986360549927e-01</leafValues></_>
        <_>
          <internalNodes>
            0 -1 2064 2.5817458517849445e-03</internalNodes>
          <leafValues>
            -8.6252100765705109e-02 2.2317647933959961e-01</leafValues></_>
        <_>
          <internalNodes>
            0 -1 2058 -8.0689443275332451e-03</internalNodes>
          <leafValues>
            -3.4718796610832214e-01 5.7206541299819946e-02</leafValues></_>
        <_>
          <internalNodes>
            0 -1 2536 -3.0516716651618481e-03</internalNodes>
          <leafValues>
            1.4714263379573822e-01 -1.3322512805461884e-01</leafValues></_>
        <_>
          <internalNodes>
            0 -1 153 2.2366210818290710e-02</internalNodes>
          <leafValues>
            -4.7821920365095139e-02 3.9039206504821777e-01</leafValues></_>
        <_>
          <internalNodes>
            0 -1 318 -8.9724007993936539e-03</internalNodes>
          <leafValues>
            -8.0933719873428345e-01 2.5716640055179596e-02</leafValues></_>
        <_>
          <internalNodes>
            0 -1 1121 -9.9215749651193619e-04</internalNodes>
          <leafValues>
            1.5848904848098755e-01 -1.0587002336978912e-01</leafValues></_>
        <_>
          <internalNodes>
            0 -1 1192 6.4826774178072810e-04</internalNodes>
          <leafValues>
            -1.1949220299720764e-01 1.9986942410469055e-01</leafValues></_>
        <_>
          <internalNodes>
            0 -1 1118 -4.0536284446716309e-01</internalNodes>
          <leafValues>
            4.7676879167556763e-01 -3.6797754466533661e-02</leafValues></_>
        <_>
          <internalNodes>
            0 -1 1345 1.7550563206896186e-03</internalNodes>
          <leafValues>
            -6.2269873917102814e-02 2.6975846290588379e-01</leafValues></_>
        <_>
          <internalNodes>
            0 -1 1593 -4.9062324687838554e-03</internalNodes>
          <leafValues>
            2.7700987458229065e-01 -5.8994222432374954e-02</leafValues></_>
        <_>
          <internalNodes>
            0 -1 2654 -3.4068396780639887e-03</internalNodes>
          <leafValues>
            -4.5853936672210693e-01 3.9917487651109695e-02</leafValues></_>
        <_>
          <internalNodes>
            0 -1 2152 3.3765211701393127e-02</internalNodes>
          <leafValues>
            1.9205890595912933e-02 -8.0028676986694336e-01</leafValues></_>
        <_>
          <internalNodes>
            0 -1 2128 -4.2924731969833374e-03</internalNodes>
          <leafValues>
            -2.7452155947685242e-01 5.6636258959770203e-02</leafValues></_>
        <_>
          <internalNodes>
            0 -1 2771 -5.6877487804740667e-04</internalNodes>
          <leafValues>
            1.7693758010864258e-01 -9.2975936830043793e-02</leafValues></_>
        <_>
          <internalNodes>
            0 -1 2683 7.0478068664669991e-03</internalNodes>
          <leafValues>
            4.4517934322357178e-02 -4.0468218922615051e-01</leafValues></_>
        <_>
          <internalNodes>
            0 -1 1005 3.7636108696460724e-02</internalNodes>
          <leafValues>
            5.8777142316102982e-02 -2.7945390343666077e-01</leafValues></_>
        <_>
          <internalNodes>
            0 -1 1337 2.7206692844629288e-02</internalNodes>
          <leafValues>
            -6.7581385374069214e-02 2.5675261020660400e-01</leafValues></_>
        <_>
          <internalNodes>
            0 -1 2010 1.4057755470275879e-03</internalNodes>
          <leafValues>
            -6.7040704190731049e-02 2.7449604868888855e-01</leafValues></_>
        <_>
          <internalNodes>
            0 -1 2548 -9.1529544442892075e-03</internalNodes>
          <leafValues>
            -6.3442313671112061e-01 2.8301868587732315e-02</leafValues></_>
        <_>
          <internalNodes>
            0 -1 906 7.1376830339431763e-02</internalNodes>
          <leafValues>
            5.8924037963151932e-02 -2.7535995841026306e-01</leafValues></_>
        <_>
          <internalNodes>
            0 -1 644 1.8654793500900269e-02</internalNodes>
          <leafValues>
            2.7024565264582634e-02 -6.1238533258438110e-01</leafValues></_>
        <_>
          <internalNodes>
            0 -1 1410 3.8175616646185517e-04</internalNodes>
          <leafValues>
            -1.4381197094917297e-01 1.3326655328273773e-01</leafValues></_>
        <_>
          <internalNodes>
            0 -1 1466 6.4642303623259068e-03</internalNodes>
          <leafValues>
            -5.1165197044610977e-02 3.4446138143539429e-01</leafValues></_>
        <_>
          <internalNodes>
            0 -1 565 3.0603087507188320e-03</internalNodes>
          <leafValues>
            8.2693174481391907e-02 -2.1550844609737396e-01</leafValues></_>
        <_>
          <internalNodes>
            0 -1 1043 6.2550087459385395e-03</internalNodes>
          <leafValues>
            -6.3072338700294495e-02 2.7774712443351746e-01</leafValues></_>
        <_>
          <internalNodes>
            0 -1 1959 2.3066415451467037e-03</internalNodes>
          <leafValues>
            8.1425338983535767e-02 -2.2481431066989899e-01</leafValues></_>
        <_>
          <internalNodes>
            0 -1 2257 6.9436023477464914e-04</internalNodes>
          <leafValues>
            -1.0520184040069580e-01 1.6034246981143951e-01</leafValues></_>
        <_>
          <internalNodes>
            0 -1 2867 1.5433449298143387e-03</internalNodes>
          <leafValues>
            6.0581911355257034e-02 -3.0498868227005005e-01</leafValues></_>
        <_>
          <internalNodes>
            0 -1 2349 -5.7302787899971008e-03</internalNodes>
          <leafValues>
            8.7748241424560547e-01 -1.9398005679249763e-02</leafValues></_>
        <_>
          <internalNodes>
            0 -1 2656 1.0336091741919518e-02</internalNodes>
          <leafValues>
            2.2313777357339859e-02 -1.</leafValues></_>
        <_>
          <internalNodes>
            0 -1 1508 1.6799296718090773e-03</internalNodes>
          <leafValues>
            -8.5501044988632202e-02 2.0331630110740662e-01</leafValues></_></weakClassifiers></_>
    <!-- stage 6 -->
    <_>
      <maxWeakCount>83</maxWeakCount>
      <stageThreshold>-6.6080003976821899e-01</stageThreshold>
      <weakClassifiers>
        <_>
          <internalNodes>
            0 -1 159 4.1112255305051804e-02</internalNodes>
          <leafValues>
            5.1565378904342651e-02 5.2292442321777344e-01</leafValues></_>
        <_>
          <internalNodes>
            0 -1 1633 1.1057635769248009e-02</internalNodes>
          <leafValues>
            -1.3179774582386017e-01 3.5633605718612671e-01</leafValues></_>
        <_>
          <internalNodes>
            0 -1 2395 -6.4747361466288567e-03</internalNodes>
          <leafValues>
            4.8244950175285339e-01 -8.1372134387493134e-02</leafValues></_>
        <_>
          <internalNodes>
            0 -1 2346 -1.6011435538530350e-02</internalNodes>
          <leafValues>
            1.5334987640380859e-01 -2.0139984786510468e-01</leafValues></_>
        <_>
          <internalNodes>
            0 -1 1031 1.8860036507248878e-03</internalNodes>
          <leafValues>
            -1.3525685667991638e-01 2.1717612445354462e-01</leafValues></_>
        <_>
          <internalNodes>
            0 -1 1055 -3.7053048610687256e-02</internalNodes>
          <leafValues>
            1.3831196725368500e-01 -1.8313965201377869e-01</leafValues></_>
        <_>
          <internalNodes>
            0 -1 1030 -1.1768736876547337e-03</internalNodes>
          <leafValues>
            2.9719200730323792e-01 -8.3834208548069000e-02</leafValues></_>
        <_>
          <internalNodes>
            0 -1 2389 -1.5219115652143955e-02</internalNodes>
          <leafValues>
            -5.7832396030426025e-01 3.7597209215164185e-02</leafValues></_>
        <_>
          <internalNodes>
            0 -1 2869 -2.0715708378702402e-03</internalNodes>
          <leafValues>
            -3.3060398697853088e-01 6.0750968754291534e-02</leafValues></_>
        <_>
          <internalNodes>
            0 -1 1740 1.8533719703555107e-03</internalNodes>
          <leafValues>
            -9.2455305159091949e-02 2.2245259582996368e-01</leafValues></_>
        <_>
          <internalNodes>
            0 -1 1805 -3.7621919065713882e-02</internalNodes>
          <leafValues>
            -6.7097699642181396e-01 2.9866185039281845e-02</leafValues></_>
        <_>
          <internalNodes>
            0 -1 1387 5.8718570508062840e-03</internalNodes>
          <leafValues>
            -8.3345279097557068e-02 2.7914890646934509e-01</leafValues></_>
        <_>
          <internalNodes>
            0 -1 29 -1.6190265305340290e-03</internalNodes>
          <leafValues>
            -3.1246209144592285e-01 6.7947730422019958e-02</leafValues></_>
        <_>
          <internalNodes>
            0 -1 2497 9.9275447428226471e-03</internalNodes>
          <leafValues>
            5.8673456311225891e-02 -3.0611556768417358e-01</leafValues></_>
        <_>
          <internalNodes>
            0 -1 2478 2.6311445981264114e-02</internalNodes>
          <leafValues>
            -5.1350384950637817e-02 3.4744629263877869e-01</leafValues></_>
        <_>
          <internalNodes>
            0 -1 1152 1.0475161671638489e-01</internalNodes>
          <leafValues>
            3.2932627946138382e-02 -6.9592857360839844e-01</leafValues></_>
        <_>
          <internalNodes>
            0 -1 1367 -5.6119784712791443e-03</internalNodes>
          <leafValues>
            3.3764412999153137e-01 -5.6835737079381943e-02</leafValues></_>
        <_>
          <internalNodes>
            0 -1 2807 -7.4986457824707031e-02</internalNodes>
          <leafValues>
            4.4612351059913635e-01 -4.4909466058015823e-02</leafValues></_>
        <_>
          <internalNodes>
            0 -1 2840 1.7204206436872482e-02</internalNodes>
          <leafValues>
            4.0074195712804794e-02 -5.4357224702835083e-01</leafValues></_>
        <_>
          <internalNodes>
            0 -1 696 2.0311870612204075e-03</internalNodes>
          <leafValues>
            8.7096042931079865e-02 -2.0680151879787445e-01</leafValues></_>
        <_>
          <internalNodes>
            0 -1 954 1.6927328705787659e-01</internalNodes>
          <leafValues>
            3.7231415510177612e-02 -5.3985351324081421e-01</leafValues></_>
        <_>
          <internalNodes>
            0 -1 1863 2.6463349349796772e-03</internalNodes>
          <leafValues>
            -1.2177225202322006e-01 1.6788864135742188e-01</leafValues></_>
        <_>
          <internalNodes>
            0 -1 2402 -1.5078834258019924e-04</internalNodes>
          <leafValues>
            -1.5953554213047028e-01 1.1279310286045074e-01</leafValues></_>
        <_>
          <internalNodes>
            0 -1 2644 1.7839726060628891e-02</internalNodes>
          <leafValues>
            3.0391799286007881e-02 -5.7967299222946167e-01</leafValues></_>
        <_>
          <internalNodes>
            0 -1 2534 1.7560638953000307e-03</internalNodes>
          <leafValues>
            -9.1330461204051971e-02 1.9661758840084076e-01</leafValues></_>
        <_>
          <internalNodes>
            0 -1 2376 -4.7488790005445480e-03</internalNodes>
          <leafValues>
            3.2384628057479858e-01 -5.9448607265949249e-02</leafValues></_>
        <_>
          <internalNodes>
            0 -1 1151 -1.2420155107975006e-01</internalNodes>
          <leafValues>
            -5.6122434139251709e-01 3.5445071756839752e-02</leafValues></_>
        <_>
          <internalNodes>
            0 -1 232 -2.3453644826076925e-04</internalNodes>
          <leafValues>
            -1.9535277783870697e-01 8.8765099644660950e-02</leafValues></_>
        <_>
          <internalNodes>
            0 -1 1366 8.2599110901355743e-03</internalNodes>
          <leafValues>
            -6.6642403602600098e-02 2.6566660404205322e-01</leafValues></_>
        <_>
          <internalNodes>
            0 -1 1648 5.4588606581091881e-03</internalNodes>
          <leafValues>
            -5.7170372456312180e-02 3.3281359076499939e-01</leafValues></_>
        <_>
          <internalNodes>
            0 -1 2769 2.3456227499991655e-03</internalNodes>
          <leafValues>
            4.9385726451873779e-02 -3.9644169807434082e-01</leafValues></_>
        <_>
          <internalNodes>
            0 -1 759 -5.4557979106903076e-02</internalNodes>
          <leafValues>
            -7.6513141393661499e-01 2.2002756595611572e-02</leafValues></_>
        <_>
          <internalNodes>
            0 -1 959 -3.7447444628924131e-04</internalNodes>
          <leafValues>
            1.6601106524467468e-01 -1.2640796601772308e-01</leafValues></_>
        <_>
          <internalNodes>
            0 -1 2849 -4.9004852771759033e-03</internalNodes>
          <leafValues>
            -3.9845526218414307e-01 4.6909354627132416e-02</leafValues></_>
        <_>
          <internalNodes>
            0 -1 2852 1.5142272459343076e-03</internalNodes>
          <leafValues>
            5.6986682116985321e-02 -2.8667286038398743e-01</leafValues></_>
        <_>
          <internalNodes>
            0 -1 2481 8.4330909885466099e-04</internalNodes>
          <leafValues>
            -1.0801703482866287e-01 1.7784637212753296e-01</leafValues></_>
        <_>
          <internalNodes>
            0 -1 938 1.0927512776106596e-03</internalNodes>
          <leafValues>
            -1.1158413439989090e-01 1.6447450220584869e-01</leafValues></_>
        <_>
          <internalNodes>
            0 -1 1190 -4.4454418122768402e-02</internalNodes>
          <leafValues>
            -4.4425466656684875e-01 4.0111541748046875e-02</leafValues></_>
        <_>
          <internalNodes>
            0 -1 64 -3.2175324857234955e-02</internalNodes>
          <leafValues>
            4.3053430318832397e-01 -4.3154682964086533e-02</leafValues></_>
        <_>
          <internalNodes>
            0 -1 2605 -6.2255309894680977e-03</internalNodes>
          <leafValues>
            5.6713688373565674e-01 -2.3716144263744354e-02</leafValues></_>
        <_>
          <internalNodes>
            0 -1 2350 -9.3652331270277500e-04</internalNodes>
          <leafValues>
            1.7813429236412048e-01 -8.9747928082942963e-02</leafValues></_>
        <_>
          <internalNodes>
            0 -1 627 2.9947793111205101e-02</internalNodes>
          <leafValues>
            4.0909226983785629e-02 -4.2130038142204285e-01</leafValues></_>
        <_>
          <internalNodes>
            0 -1 2846 3.0511724762618542e-03</internalNodes>
          <leafValues>
            3.7715595215559006e-02 -4.2703190445899963e-01</leafValues></_>
        <_>
          <internalNodes>
            0 -1 1225 -2.8742058202624321e-03</internalNodes>
          <leafValues>
            2.2437849640846252e-01 -7.3903262615203857e-02</leafValues></_>
        <_>
          <internalNodes>
            0 -1 298 6.0599693097174168e-04</internalNodes>
          <leafValues>
            -1.6837058961391449e-01 9.9536955356597900e-02</leafValues></_>
        <_>
          <internalNodes>
            0 -1 1132 -3.1029168516397476e-02</internalNodes>
          <leafValues>
            -4.0613326430320740e-01 4.0729764848947525e-02</leafValues></_>
        <_>
          <internalNodes>
            0 -1 2584 -4.9212444573640823e-03</internalNodes>
          <leafValues>
            -4.9554020166397095e-01 3.4991212189197540e-02</leafValues></_>
        <_>
          <internalNodes>
            0 -1 545 -1.6686298185959458e-03</internalNodes>
          <leafValues>
            1.4573000371456146e-01 -1.2531878054141998e-01</leafValues></_>
        <_>
          <internalNodes>
            0 -1 1960 -3.4850780502893031e-04</internalNodes>
          <leafValues>
            -1.8082906305789948e-01 9.3440160155296326e-02</leafValues></_>
        <_>
          <internalNodes>
            0 -1 1488 2.7080776635557413e-04</internalNodes>
          <leafValues>
            -1.1825055629014969e-01 1.3988515734672546e-01</leafValues></_>
        <_>
          <internalNodes>
            0 -1 1371 1.7183068394660950e-01</internalNodes>
          <leafValues>
            2.0085498690605164e-02 -8.1545853614807129e-01</leafValues></_>
        <_>
          <internalNodes>
            0 -1 1294 -2.8818345163017511e-03</internalNodes>
          <leafValues>
            2.0801264047622681e-01 -8.0677606165409088e-02</leafValues></_>
        <_>
          <internalNodes>
            0 -1 71 6.3321188092231750e-02</internalNodes>
          <leafValues>
            -3.5548478364944458e-02 4.6572476625442505e-01</leafValues></_>
        <_>
          <internalNodes>
            0 -1 810 7.1552179753780365e-02</internalNodes>
          <leafValues>
            2.6237333193421364e-02 -7.0727497339248657e-01</leafValues></_>
        <_>
          <internalNodes>
            0 -1 1586 -5.9288495685905218e-04</internalNodes>
          <leafValues>
            1.9318990409374237e-01 -8.3189651370048523e-02</leafValues></_>
        <_>
          <internalNodes>
            0 -1 1348 -1.7755783628672361e-03</internalNodes>
          <leafValues>
            1.9107854366302490e-01 -9.7384817898273468e-02</leafValues></_>
        <_>
          <internalNodes>
            0 -1 1322 2.5545388460159302e-02</internalNodes>
          <leafValues>
            2.8934916481375694e-02 -7.4680471420288086e-01</leafValues></_>
        <_>
          <internalNodes>
            0 -1 119 -3.5150512121617794e-03</internalNodes>
          <leafValues>
            -2.8204175829887390e-01 5.9189524501562119e-02</leafValues></_>
        <_>
          <internalNodes>
            0 -1 2832 -5.3854594007134438e-03</internalNodes>
          <leafValues>
            -4.9515289068222046e-01 3.2525114715099335e-02</leafValues></_>
        <_>
          <internalNodes>
            0 -1 2334 3.2786589581519365e-03</internalNodes>
          <leafValues>
            -5.5571742355823517e-02 3.0517601966857910e-01</leafValues></_>
        <_>
          <internalNodes>
            0 -1 727 8.8059715926647186e-03</internalNodes>
          <leafValues>
            3.5116367042064667e-02 -4.8973640799522400e-01</leafValues></_>
        <_>
          <internalNodes>
            0 -1 1306 1.8657077103853226e-02</internalNodes>
          <leafValues>
            -3.8661442697048187e-02 4.7305941581726074e-01</leafValues></_>
        <_>
          <internalNodes>
            0 -1 25 -7.1892879903316498e-02</internalNodes>
          <leafValues>
            6.6180503368377686e-01 -2.0773807540535927e-02</leafValues></_>
        <_>
          <internalNodes>
            0 -1 2826 -1.0331184603273869e-04</internalNodes>
          <leafValues>
            1.4510245621204376e-01 -1.1639206111431122e-01</leafValues></_>
        <_>
          <internalNodes>
            0 -1 1729 2.3839559406042099e-02</internalNodes>
          <leafValues>
            2.5315821170806885e-02 -6.1648923158645630e-01</leafValues></_>
        <_>
          <internalNodes>
            0 -1 2413 -1.3169745216146111e-04</internalNodes>
          <leafValues>
            -1.2786687910556793e-01 1.3531553745269775e-01</leafValues></_>
        <_>
          <internalNodes>
            0 -1 2545 -4.2880259570665658e-04</internalNodes>
          <leafValues>
            -1.6229069232940674e-01 1.0064309090375900e-01</leafValues></_>
        <_>
          <internalNodes>
            0 -1 978 -2.3485599085688591e-02</internalNodes>
          <leafValues>
            4.7583115100860596e-01 -3.6374583840370178e-02</leafValues></_>
        <_>
          <internalNodes>
            0 -1 2839 -7.7373338863253593e-03</internalNodes>
          <leafValues>
            -8.0922299623489380e-01 2.3252449929714203e-02</leafValues></_>
        <_>
          <internalNodes>
            0 -1 336 7.4225873686373234e-03</internalNodes>
          <leafValues>
            8.5707664489746094e-02 -1.9433526694774628e-01</leafValues></_>
        <_>
          <internalNodes>
            0 -1 1415 8.6902789771556854e-03</internalNodes>
          <leafValues>
            -2.4057425558567047e-02 7.1291017532348633e-01</leafValues></_>
        <_>
          <internalNodes>
            0 -1 1532 -4.9100671894848347e-03</internalNodes>
          <leafValues>
            -1.7288918793201447e-01 1.0423064231872559e-01</leafValues></_>
        <_>
          <internalNodes>
            0 -1 1772 -2.1069616079330444e-01</internalNodes>
          <leafValues>
            6.9507128000259399e-01 -2.6004176586866379e-02</leafValues></_>
        <_>
          <internalNodes>
            0 -1 592 5.4755965247750282e-03</internalNodes>
          <leafValues>
            2.6611665263772011e-02 -7.8437352180480957e-01</leafValues></_>
        <_>
          <internalNodes>
            0 -1 2178 -2.3521499242633581e-03</internalNodes>
          <leafValues>
            1.5633569657802582e-01 -1.1167407780885696e-01</leafValues></_>
        <_>
          <internalNodes>
            0 -1 2395 -1.2758013326674700e-03</internalNodes>
          <leafValues>
            1.6539622843265533e-01 -1.0816857218742371e-01</leafValues></_>
        <_>
          <internalNodes>
            0 -1 1555 2.7972478419542313e-02</internalNodes>
          <leafValues>
            4.5709066092967987e-02 -3.8468918204307556e-01</leafValues></_>
        <_>
          <internalNodes>
            0 -1 1814 8.7871495634317398e-04</internalNodes>
          <leafValues>
            -1.0554064065217972e-01 1.6346508264541626e-01</leafValues></_>
        <_>
          <internalNodes>
            0 -1 1088 -8.5136666893959045e-02</internalNodes>
          <leafValues>
            5.9613192081451416e-01 -2.6935605332255363e-02</leafValues></_>
        <_>
          <internalNodes>
            0 -1 588 5.8002106379717588e-04</internalNodes>
          <leafValues>
            -1.3784611225128174e-01 1.1974572390317917e-01</leafValues></_>
        <_>
          <internalNodes>
            0 -1 955 -6.9963454734534025e-04</internalNodes>
          <leafValues>
            1.9611218571662903e-01 -8.4078840911388397e-02</leafValues></_>
        <_>
          <internalNodes>
            0 -1 2162 -1.4535740483552217e-03</internalNodes>
          <leafValues>
            2.4457754194736481e-01 -6.3640929758548737e-02</leafValues></_>
        <_>
          <internalNodes>
            0 -1 2323 1.5157398581504822e-01</internalNodes>
          <leafValues>
            -5.8453403413295746e-02 2.7929523587226868e-01</leafValues></_></weakClassifiers></_>
    <!-- stage 7 -->
    <_>
      <maxWeakCount>84</maxWeakCount>
      <stageThreshold>-6.4018005132675171e-01</stageThreshold>
      <weakClassifiers>
        <_>
          <internalNodes>
            0 -1 1644 -4.5744348317384720e-02</internalNodes>
          <leafValues>
            5.0030177831649780e-01 6.8072870373725891e-02</leafValues></_>
        <_>
          <internalNodes>
            0 -1 1915 -1.7938341945409775e-02</internalNodes>
          <leafValues>
            4.9340024590492249e-01 -5.3251359611749649e-02</leafValues></_>
        <_>
          <internalNodes>
            0 -1 1222 2.3354060947895050e-02</internalNodes>
          <leafValues>
            -1.4219471812248230e-01 3.3362495899200439e-01</leafValues></_>
        <_>
          <internalNodes>
            0 -1 1573 1.0114934295415878e-02</internalNodes>
          <leafValues>
            -6.6568076610565186e-02 3.2568722963333130e-01</leafValues></_>
        <_>
          <internalNodes>
            0 -1 1235 -6.2095369212329388e-03</internalNodes>
          <leafValues>
            -2.5036755204200745e-01 8.3784244954586029e-02</leafValues></_>
        <_>
          <internalNodes>
            0 -1 1404 1.6131075099110603e-02</internalNodes>
          <leafValues>
            7.7808648347854614e-02 -3.0344885587692261e-01</leafValues></_>
        <_>
          <internalNodes>
            0 -1 120 1.4633131213486195e-02</internalNodes>
          <leafValues>
            5.2855353802442551e-02 -4.4770711660385132e-01</leafValues></_>
        <_>
          <internalNodes>
            0 -1 1068 -7.5776197016239166e-02</internalNodes>
          <leafValues>
            -3.5710915923118591e-01 5.5691555142402649e-02</leafValues></_>
        <_>
          <internalNodes>
            0 -1 1690 -7.2818063199520111e-03</internalNodes>
          <leafValues>
            -2.3494517803192139e-01 9.5540516078472137e-02</leafValues></_>
        <_>
          <internalNodes>
            0 -1 2530 -2.9125194996595383e-02</internalNodes>
          <leafValues>
            2.5735843181610107e-01 -8.3980239927768707e-02</leafValues></_>
        <_>
          <internalNodes>
            0 -1 2495 -4.7926851548254490e-03</internalNodes>
          <leafValues>
            3.2379773259162903e-01 -6.1973646283149719e-02</leafValues></_>
        <_>
          <internalNodes>
            0 -1 1079 5.4295849986374378e-03</internalNodes>
          <leafValues>
            3.7667982280254364e-02 -6.2511277198791504e-01</leafValues></_>
        <_>
          <internalNodes>
            0 -1 1490 3.5071574151515961e-02</internalNodes>
          <leafValues>
            2.5331715121865273e-02 -6.9991207122802734e-01</leafValues></_>
        <_>
          <internalNodes>
            0 -1 1460 4.1500567458570004e-03</internalNodes>
          <leafValues>
            -7.3603451251983643e-02 2.7257400751113892e-01</leafValues></_>
        <_>
          <internalNodes>
            0 -1 1873 8.0256501678377390e-04</internalNodes>
          <leafValues>
            -1.0981386899948120e-01 1.8048231303691864e-01</leafValues></_>
        <_>
          <internalNodes>
            0 -1 1351 6.0003124177455902e-02</internalNodes>
          <leafValues>
            2.5571113452315331e-02 -7.6264357566833496e-01</leafValues></_>
        <_>
          <internalNodes>
            0 -1 2818 -6.4579499885439873e-03</internalNodes>
          <leafValues>
            -2.6083520054817200e-01 7.0704735815525055e-02</leafValues></_>
        <_>
          <internalNodes>
            0 -1 383 -3.6989208310842514e-03</internalNodes>
          <leafValues>
            -1.8923093378543854e-01 1.0314534604549408e-01</leafValues></_>
        <_>
          <internalNodes>
            0 -1 1525 3.4269967582076788e-03</internalNodes>
          <leafValues>
            5.2397653460502625e-02 -3.7968045473098755e-01</leafValues></_>
        <_>
          <internalNodes>
            0 -1 287 5.9772871434688568e-02</internalNodes>
          <leafValues>
            -1.3555181026458740e-01 1.4062650501728058e-01</leafValues></_>
        <_>
          <internalNodes>
            0 -1 86 -5.2843627054244280e-04</internalNodes>
          <leafValues>
            -2.0494693517684937e-01 1.0373421013355255e-01</leafValues></_>
        <_>
          <internalNodes>
            0 -1 965 -7.9628136008977890e-03</internalNodes>
          <leafValues>
            2.6967081427574158e-01 -7.9929888248443604e-02</leafValues></_>
        <_>
          <internalNodes>
            0 -1 1195 -7.1513708680868149e-03</internalNodes>
          <leafValues>
            4.0151077508926392e-01 -5.2099250257015228e-02</leafValues></_>
        <_>
          <internalNodes>
            0 -1 795 9.1043174266815186e-02</internalNodes>
          <leafValues>
            3.2703135162591934e-02 -6.4371061325073242e-01</leafValues></_>
        <_>
          <internalNodes>
            0 -1 2383 1.5737198293209076e-02</internalNodes>
          <leafValues>
            2.4859627708792686e-02 -7.8537684679031372e-01</leafValues></_>
        <_>
          <internalNodes>
            0 -1 2841 4.5014116913080215e-03</internalNodes>
          <leafValues>
            4.1737735271453857e-02 -4.1851139068603516e-01</leafValues></_>
        <_>
          <internalNodes>
            0 -1 1271 2.4418812245130539e-03</internalNodes>
          <leafValues>
            -7.1165077388286591e-02 2.8612557053565979e-01</leafValues></_>
        <_>
          <internalNodes>
            0 -1 1244 -1.8955345731228590e-03</internalNodes>
          <leafValues>
            2.3672863841056824e-01 -9.6116863191127777e-02</leafValues></_>
        <_>
          <internalNodes>
            0 -1 611 3.3558788709342480e-04</internalNodes>
          <leafValues>
            -1.4717176556587219e-01 1.4420707523822784e-01</leafValues></_>
        <_>
          <internalNodes>
            0 -1 2190 -3.7637440254911780e-04</internalNodes>
          <leafValues>
            1.5805417299270630e-01 -1.2575539946556091e-01</leafValues></_>
        <_>
          <internalNodes>
            0 -1 2818 8.7665850296616554e-03</internalNodes>
          <leafValues>
            6.1049696058034897e-02 -3.0639460682868958e-01</leafValues></_>
        <_>
          <internalNodes>
            0 -1 1388 9.7774015739560127e-04</internalNodes>
          <leafValues>
            -1.0302640497684479e-01 1.8388661742210388e-01</leafValues></_>
        <_>
          <internalNodes>
            0 -1 2837 3.0398995149880648e-03</internalNodes>
          <leafValues>
            3.6177977919578552e-02 -5.0699084997177124e-01</leafValues></_>
        <_>
          <internalNodes>
            0 -1 2076 1.4803449157625437e-03</internalNodes>
          <leafValues>
            -7.2710044682025909e-02 2.4117098748683929e-01</leafValues></_>
        <_>
          <internalNodes>
            0 -1 350 1.8603486940264702e-02</internalNodes>
          <leafValues>
            4.5118022710084915e-02 -4.4897347688674927e-01</leafValues></_>
        <_>
          <internalNodes>
            0 -1 1408 8.2978617865592241e-04</internalNodes>
          <leafValues>
            -1.1376390606164932e-01 1.6437421739101410e-01</leafValues></_>
        <_>
          <internalNodes>
            0 -1 1987 2.0055111497640610e-02</internalNodes>
          <leafValues>
            9.8318435251712799e-02 -1.9237694144248962e-01</leafValues></_>
        <_>
          <internalNodes>
            0 -1 111 1.7583337426185608e-01</internalNodes>
          <leafValues>
            2.7761152014136314e-02 -6.2318599224090576e-01</leafValues></_>
        <_>
          <internalNodes>
            0 -1 2831 -5.5319927632808685e-03</internalNodes>
          <leafValues>
            -4.8498630523681641e-01 3.5070881247520447e-02</leafValues></_>
        <_>
          <internalNodes>
            0 -1 996 -2.9902691021561623e-03</internalNodes>
          <leafValues>
            3.4971588850021362e-01 -5.2646260708570480e-02</leafValues></_>
        <_>
          <internalNodes>
            0 -1 1631 -2.0627414807677269e-02</internalNodes>
          <leafValues>
            -5.0594806671142578e-01 3.6837510764598846e-02</leafValues></_>
        <_>
          <internalNodes>
            0 -1 1215 -9.8969321697950363e-03</internalNodes>
          <leafValues>
            5.4637217521667480e-01 -3.3277433365583420e-02</leafValues></_>
        <_>
          <internalNodes>
            0 -1 2489 -2.2013727575540543e-03</internalNodes>
          <leafValues>
            1.2507282197475433e-01 -1.4321294426918030e-01</leafValues></_>
        <_>
          <internalNodes>
            0 -1 2038 1.2858244590461254e-02</internalNodes>
          <leafValues>
            7.2411671280860901e-02 -2.4723896384239197e-01</leafValues></_>
        <_>
          <internalNodes>
            0 -1 62 5.8965636417269707e-03</internalNodes>
          <leafValues>
            2.7467995882034302e-02 -6.5168017148971558e-01</leafValues></_>
        <_>
          <internalNodes>
            0 -1 2090 1.7046491848304868e-03</internalNodes>
          <leafValues>
            -8.9180171489715576e-02 1.8963508307933807e-01</leafValues></_>
        <_>
          <internalNodes>
            0 -1 1914 -1.9388430519029498e-03</internalNodes>
          <leafValues>
            1.8912608921527863e-01 -9.3348354101181030e-02</leafValues></_>
        <_>
          <internalNodes>
            0 -1 1185 2.2323722019791603e-02</internalNodes>
          <leafValues>
            4.5082494616508484e-02 -3.8419923186302185e-01</leafValues></_>
        <_>
          <internalNodes>
            0 -1 85 -8.2063740119338036e-03</internalNodes>
          <leafValues>
            -7.4524551630020142e-01 2.1137202158570290e-02</leafValues></_>
        <_>
          <internalNodes>
            0 -1 252 -2.3059494793415070e-01</internalNodes>
          <leafValues>
            4.1868296265602112e-01 -4.3500654399394989e-02</leafValues></_>
        <_>
          <internalNodes>
            0 -1 2291 1.0339260101318359e-02</internalNodes>
          <leafValues>
            -1.1677268147468567e-01 1.6451326012611389e-01</leafValues></_>
        <_>
          <internalNodes>
            0 -1 88 -3.8132466375827789e-02</internalNodes>
          <leafValues>
            5.2305614948272705e-01 -3.3277265727519989e-02</leafValues></_>
        <_>
          <internalNodes>
            0 -1 1948 4.8521772259846330e-04</internalNodes>
          <leafValues>
            -8.4449596703052521e-02 1.9950233399868011e-01</leafValues></_>
        <_>
          <internalNodes>
            0 -1 1285 -2.2534729912877083e-02</internalNodes>
          <leafValues>
            1.7977944016456604e-01 -1.0974992066621780e-01</leafValues></_>
        <_>
          <internalNodes>
            0 -1 1950 2.1244010422378778e-03</internalNodes>
          <leafValues>
            -6.6347733139991760e-02 2.7355119585990906e-01</leafValues></_>
        <_>
          <internalNodes>
            0 -1 2872 3.8085829000920057e-03</internalNodes>
          <leafValues>
            6.0409281402826309e-02 -2.9563799500465393e-01</leafValues></_>
        <_>
          <internalNodes>
            0 -1 2199 5.6976813357323408e-04</internalNodes>
          <leafValues>
            -1.0509087145328522e-01 1.7071205377578735e-01</leafValues></_>
        <_>
          <internalNodes>
            0 -1 2199 -1.6379107255488634e-03</internalNodes>
          <leafValues>
            2.5668925046920776e-01 -7.7688686549663544e-02</leafValues></_>
        <_>
          <internalNodes>
            0 -1 1540 -1.3692721258848906e-03</internalNodes>
          <leafValues>
            -1.7129522562026978e-01 1.0541747510433197e-01</leafValues></_>
        <_>
          <internalNodes>
            0 -1 2588 2.0582381635904312e-02</internalNodes>
          <leafValues>
            -4.3669041246175766e-02 3.8805636763572693e-01</leafValues></_>
        <_>
          <internalNodes>
            0 -1 2524 1.7269570380449295e-02</internalNodes>
          <leafValues>
            4.5013133436441422e-02 -3.9303994178771973e-01</leafValues></_>
        <_>
          <internalNodes>
            0 -1 1191 1.2211116263642907e-03</internalNodes>
          <leafValues>
            -8.2380622625350952e-02 2.0088936388492584e-01</leafValues></_>
        <_>
          <internalNodes>
            0 -1 2631 -1.0570777580142021e-02</internalNodes>
          <leafValues>
            -4.0664646029472351e-01 4.1483443230390549e-02</leafValues></_>
        <_>
          <internalNodes>
            0 -1 2078 5.8069871738553047e-04</internalNodes>
          <leafValues>
            -1.1559152603149414e-01 1.4911416172981262e-01</leafValues></_>
        <_>
          <internalNodes>
            0 -1 627 -2.7399584650993347e-02</internalNodes>
          <leafValues>
            -4.2511388659477234e-01 4.0250152349472046e-02</leafValues></_>
        <_>
          <internalNodes>
            0 -1 2395 -5.6106233969330788e-03</internalNodes>
          <leafValues>
            2.7681988477706909e-01 -6.1033744364976883e-02</leafValues></_>
        <_>
          <internalNodes>
            0 -1 904 6.7048475146293640e-02</internalNodes>
          <leafValues>
            -3.3625766634941101e-02 5.4272872209548950e-01</leafValues></_>
        <_>
          <internalNodes>
            0 -1 2632 1.3209754833951592e-03</internalNodes>
          <leafValues>
            -9.3765996396541595e-02 1.8213501572608948e-01</leafValues></_>
        <_>
          <internalNodes>
            0 -1 2283 1.4506743755191565e-03</internalNodes>
          <leafValues>
            8.2492515444755554e-02 -2.2902236878871918e-01</leafValues></_>
        <_>
          <internalNodes>
            0 -1 2845 -3.3758445642888546e-03</internalNodes>
          <leafValues>
            -2.2554764151573181e-01 7.8832976520061493e-02</leafValues></_>
        <_>
          <internalNodes>
            0 -1 1028 1.2940058484673500e-02</internalNodes>
          <leafValues>
            6.5507389605045319e-02 -2.6137736439704895e-01</leafValues></_>
        <_>
          <internalNodes>
            0 -1 2882 2.2690761834383011e-02</internalNodes>
          <leafValues>
            -1.5364738181233406e-02 9.3606680631637573e-01</leafValues></_>
        <_>
          <internalNodes>
            0 -1 1917 -1.1171722784638405e-02</internalNodes>
          <leafValues>
            1.0399325191974640e-01 -1.7460197210311890e-01</leafValues></_>
        <_>
          <internalNodes>
            0 -1 1932 7.0468626916408539e-02</internalNodes>
          <leafValues>
            -3.5347066819667816e-02 7.3676335811614990e-01</leafValues></_>
        <_>
          <internalNodes>
            0 -1 1564 -3.2976318150758743e-02</internalNodes>
          <leafValues>
            -2.6851674914360046e-01 7.0987865328788757e-02</leafValues></_>
        <_>
          <internalNodes>
            0 -1 461 -1.1809436976909637e-01</internalNodes>
          <leafValues>
            -3.6859521269798279e-01 4.2847789824008942e-02</leafValues></_>
        <_>
          <internalNodes>
            0 -1 1697 -1.9580179359763861e-03</internalNodes>
          <leafValues>
            2.1222011744976044e-01 -8.6645029485225677e-02</leafValues></_>
        <_>
          <internalNodes>
            0 -1 293 -2.0915125496685505e-03</internalNodes>
          <leafValues>
            -3.4632489085197449e-01 5.5193983018398285e-02</leafValues></_>
        <_>
          <internalNodes>
            0 -1 1905 1.5381163684651256e-03</internalNodes>
          <leafValues>
